tree
version=v4
num_class=1
num_tree_per_iteration=1
label_index=0
max_feature_idx=135
objective=regression
feature_names=passing_td_points rushing_yards_points rushing_td_points rushing_first_down_points rushing_attempt_points receptions_points te_reception_bonus_points pass_attempt pass_touchdown interception rush_attempt rushing_yards rush_touchdown receptions total_points_lag1 total_points_lag2 games_played_lag1 games_played_lag2 points_per_game_calc_lag1 points_per_game_calc_lag2 availability_rate_lag1 availability_rate_lag2 total_points_decay0.8_L1 pass_attempt_decay0.8_L1 passing_yards_decay0.8_L1 pass_touchdown_decay0.8_L1 rush_attempt_decay0.8_L1 rushing_yards_decay0.8_L1 rush_touchdown_decay0.8_L1 receptions_decay0.8_L1 receiving_yards_decay0.8_L1 receiving_touchdown_decay0.8_L1 games_played_decay0.8_L1 total_points_decay0.8_L2 pass_attempt_decay0.8_L2 passing_yards_decay0.8_L2 pass_touchdown_decay0.8_L2 rush_attempt_decay0.8_L2 rushing_yards_decay0.8_L2 rush_touchdown_decay0.8_L2 receptions_decay0.8_L2 receiving_yards_decay0.8_L2 receiving_touchdown_decay0.8_L2 games_played_decay0.8_L2 total_points_decay0.8_L3 pass_attempt_decay0.8_L3 passing_yards_decay0.8_L3 pass_touchdown_decay0.8_L3 rush_attempt_decay0.8_L3 rushing_yards_decay0.8_L3 rush_touchdown_decay0.8_L3 receptions_decay0.8_L3 receiving_yards_decay0.8_L3 receiving_touchdown_decay0.8_L3 games_played_decay0.8_L3 total_points_decay0.6_L1 pass_attempt_decay0.6_L1 passing_yards_decay0.6_L1 pass_touchdown_decay0.6_L1 rush_attempt_decay0.6_L1 rushing_yards_decay0.6_L1 rush_touchdown_decay0.6_L1 receptions_decay0.6_L1 receiving_yards_decay0.6_L1 receiving_touchdown_decay0.6_L1 games_played_decay0.6_L1 total_points_decay0.6_L2 pass_attempt_decay0.6_L2 passing_yards_decay0.6_L2 pass_touchdown_decay0.6_L2 rush_attempt_decay0.6_L2 rushing_yards_decay0.6_L2 rush_touchdown_decay0.6_L2 receptions_decay0.6_L2 receiving_yards_decay0.6_L2 receiving_touchdown_decay0.6_L2 games_played_decay0.6_L2 total_points_decay0.6_L3 pass_attempt_decay0.6_L3 passing_yards_decay0.6_L3 pass_touchdown_decay0.6_L3 rush_attempt_decay0.6_L3 rushing_yards_decay0.6_L3 rush_touchdown_decay0.6_L3 receptions_decay0.6_L3 receiving_yards_decay0.6_L3 receiving_touchdown_decay0.6_L3 games_played_decay0.6_L3 total_points_decay0.4_L1 pass_attempt_decay0.4_L1 passing_yards_decay0.4_L1 pass_touchdown_decay0.4_L1 rush_attempt_decay0.4_L1 rushing_yards_decay0.4_L1 rush_touchdown_decay0.4_L1 receptions_decay0.4_L1 receiving_yards_decay0.4_L1 receiving_touchdown_decay0.4_L1 games_played_decay0.4_L1 total_points_decay0.4_L2 pass_attempt_decay0.4_L2 passing_yards_decay0.4_L2 pass_touchdown_decay0.4_L2 rush_attempt_decay0.4_L2 rushing_yards_decay0.4_L2 rush_touchdown_decay0.4_L2 receptions_decay0.4_L2 receiving_yards_decay0.4_L2 receiving_touchdown_decay0.4_L2 games_played_decay0.4_L2 total_points_decay0.4_L3 pass_attempt_decay0.4_L3 passing_yards_decay0.4_L3 pass_touchdown_decay0.4_L3 rush_attempt_decay0.4_L3 rushing_yards_decay0.4_L3 rush_touchdown_decay0.4_L3 receptions_decay0.4_L3 receiving_yards_decay0.4_L3 receiving_touchdown_decay0.4_L3 games_played_decay0.4_L3 total_points_pos_pct_hist games_played_pos_pct_hist total_points_overall_pct_hist games_played_overall_pct_hist points_per_game_hist total_points_trend_2yr_hist total_points_trend_3yr_hist games_played_trend_2yr_hist games_played_trend_3yr_hist age_2025 years_exp height weight height_inches bmi
feature_infos=[0:318] [-1.3999999761581421:250.40000915527344] [0:114] [0:107] [0:219.5] [0:445] [0:137] [0:840] [0:53] [0:30] [0:439] [-14:2504] [0:19] [0:178] [0:1880.2600250244141] [0:1878.3400077819824] [1:21] [1:21] [0:126.39999961853027] [0:126.39999961853027] [0.058823529411764705:1] [0.058823529411764705:1] [0:1880.2600250244143] [0:840] [-3.0000000000000004:6073.9999999999991] [0:53.000000000000007] [0:436] [-24.000000000000004:2067] [0:19] [0:156] [-3.0000000000000004:6073.9999999999991] [0:58.000000000000007] [1:21] [0:1879.4066840277778] [0:812] [-2:5930.9999999999991] [0:48] [0:436] [-24.000000000000004:2043] [0:17.444444444444446] [0:149.33333333333334] [-2:5927] [0:52.666666666666664] [1:20] [0:1836.5721415535349] [0:781.65573770491812] [-2:5841.5573770491801] [0:46.426229508196727] [0:436] [-24.000000000000004:2043] [0:16.016393442622952] [0:141.3770491803279] [-2:5838.6065573770502] [0:51] [1:20] [0:1880.2600250244141] [0:840] [-3:6074] [0:53] [0:435.99999999999994] [-24:2067] [0:19] [0:156] [-3:6074] [0:58] [1:21] [0:1879.5400185585022] [0:816.37500000000011] [-2:5935.375] [0:48] [0:435.99999999999994] [-24:2043] [0:17.375] [0:150.375] [-2:5931.9999999999991] [0:52.25] [1:20] [0:1849.5204216314821] [0:791.14285714285722] [-2:5871.9387755102043] [0:46.897959183673471] [0:435.99999999999994] [-24:2043] [0:16.387755102040817] [0:144.61224489795919] [-2:5869.1836734693879] [0:51] [1:20] [0:1880.2600250244143] [0:840] [-3.0000000000000004:6073.9999999999991] [0:53.000000000000007] [0:436] [-24.000000000000004:2067] [0:19] [0:156] [-3.0000000000000004:6073.9999999999991] [0:58.000000000000007] [1:21] [0:1879.7114486694338] [0:822] [-2:5940.9999999999991] [0:48] [0:436] [-24.000000000000004:2043.8571428571429] [0:17.285714285714288] [0:151.71428571428572] [-2:5938.4285714285706] [0:52] [1:20] [0:1862.930786328438] [0:807.33333333333326] [-2:5904.9999999999991] [0:47.384615384615387] [0:436] [-24.000000000000004:2043] [0:16.743589743589745] [0:148.35897435897436] [-2:5902.6923076923067] [0:51.384615384615387] [1:20] [0:0.99559471365638763] [0:0.9955357142857143] [0:0.99832495812395305] [0:0.99497487437185927] [0:126.39999961853027] [-1442.0199943780899:1763.6400041580196] [-1135.4799785614014:1763.6400041580196] [-16.999999999999996:17.999999999999993] [-13.999999999999996:17] [23:41.700000000000003] [1:19] [66:80] [153:311] [66:80] [22.375578703703702:38.868088888888892]
tree_sizes=3012 3041 3011 2998 3019 3014 3042 3030 3036 2970 2989 3029 3032 3089 3037 3071 3051 3014 3105 3047 3059 3032 3126 3118 3082 3068 3113 3144 3145 3134 3149 3214 3171 3241 3151 3222 3281 3220 3286 3215 3145 3199 3225 3316 3177 3242 3209 3210 3245 3168 3203 3235 3199 3207 3290 3233 3307 3205 3274 3304

Tree=0
num_leaves=34
num_cat=0
split_feature=0 7 1 0 5 3 5 0 0 3 7 5 2 3 5 0 7 7 4 5 1 5 3 5 3 7 5 0 7 7 0 2 3
split_gain=1.45348e+08 4.20747e+07 1.37309e+07 1.21384e+07 7.97607e+06 4.96915e+06 3.37822e+06 2.98882e+06 1.92627e+06 1.52864e+06 1.09726e+06 1.06286e+06 1.04175e+06 1.01671e+06 905054 873880 725202 710069 611629 489096 454115 446014 417937 361196 343027 235216 211537 208035 201976 186004 183467 179958 177641
threshold=81.000000000000014 56.500000000000007 42.95000076293946 129.00000000000003 183.75000000000003 11.500000000000002 43.750000000000007 225.00000000000003 27.000000000000004 42.500000000000007 476.50000000000006 118.75000000000001 39.000000000000007 54.500000000000007 252.50000000000003 177.00000000000003 281.00000000000006 281.00000000000006 22.750000000000004 141.25000000000003 60.050001144409187 71.250000000000014 27.500000000000004 21.250000000000004 60.500000000000007 30.500000000000004 298.75000000000006 255.00000000000003 592.50000000000011 172.50000000000003 117.00000000000001 69.000000000000014 10.500000000000002
decision_type=2 2 2 2 2 2 2 2 2 2 2 2 2 2 2 2 2 2 2 2 2 2 2 2 2 2 2 2 2 2 2 2 2
left_child=1 2 6 10 5 8 18 15 11 25 29 -3 14 17 -6 20 19 22 23 -10 28 32 -7 -1 -11 -4 -16 -9 -5 -2 -12 -15 -8
right_child=3 4 9 7 12 13 21 27 16 24 30 -13 -14 31 26 -17 -18 -19 -20 -21 -22 -23 -24 -25 -26 -27 -28 -29 -30 -31 -32 -33 -34
leaf_value=272.6237812425764 344.02268250097143 294.00743627755827 299.93795424235435 393.84862651015413 328.71438194574489 310.72943937478175 284.46163323002662 450.33197876858668 306.84509516283327 322.26884644765443 375.2978807478305 306.78971668618476 371.45584186192053 343.30146251875755 342.25938623331342 428.53708708174349 334.58869255990692 346.68211285118213 285.22473070729893 318.1812457955607 432.90404395321161 293.09587103162062 329.19025539517605 277.61440847664295 341.76708798433583 310.66559848188007 359.64979482160641 472.79779865931721 408.54389883426518 359.54433691212313 393.1069433641207 363.30678082966904 293.58251519420975
leaf_weight=444 13.999999999999998 187 60 24 152 30 260 11.000000000000002 122 61 19 162 9.9999999999999982 12.000000000000002 42 35 20 18 83 87 6.9999999999999991 157 36 343 14.999999999999998 50 11.999999999999998 10.999999999999998 26 39 12.999999999999998 11.999999999999998 32
leaf_count=444 14 187 60 24 152 30 260 11 122 61 19 162 10 12 42 35 20 18 83 87 7 157 36 343 15 50 12 11 26 39 13 12 32
internal_value=303.804 295.96 284.137 398.682 315.687 309.592 279.993 423.316 305.343 313.519 365.642 299.941 335.046 332.336 333.278 414.17 313.575 326.345 275.794 311.564 405.348 288.131 320.799 274.799 326.117 304.814 346.124 461.565 401.49 355.444 382.533 353.304 285.461
internal_weight=2606 2407 1505 199 902 686 1319 114 578 186 85 349 216 108 206 92 229 84 870 209 57 449 66 787 76 110 54 22 50 53 32 24 292
internal_count=2606 2407 1505 199 902 686 1319 114 578 186 85 349 216 108 206 92 229 84 870 209 57 449 66 787 76 110 54 22 50 53 32 24 292
is_linear=0
shrinkage=1


Tree=1
num_leaves=34
num_cat=0
split_feature=7 7 3 5 7 4 5 7 5 1 5 1 7 7 2 3 2 5 5 7 5 5 2 3 7 4 2 3 3 3 50 7 3
split_gain=1.13633e+08 3.49181e+07 1.08444e+07 7.83212e+06 6.03844e+06 3.57931e+06 2.58958e+06 1.646e+06 1.49772e+06 1.44693e+06 1.11333e+06 1.00523e+06 684461 619384 609785 609241 484170 466266 457442 426283 353798 311724 299729 275005 249577 243094 219654 218924 187539 178390 173391 163017 145613
threshold=376.00000000000006 56.500000000000007 21.500000000000004 183.75000000000003 540.50000000000011 9.2500000000000018 41.250000000000007 724.00000000000011 136.25000000000003 82.100002288818374 236.25000000000003 92.850002288818374 281.00000000000006 261.50000000000006 39.000000000000007 54.500000000000007 51.000000000000007 305.00000000000006 101.25000000000001 611.50000000000011 68.750000000000014 21.250000000000004 9.0000000000000018 61.500000000000007 476.50000000000006 66.250000000000014 75.000000000000014 27.500000000000004 12.500000000000002 9.5000000000000018 0.48451730418943545 150.50000000000003 10.500000000000002
decision_type=2 2 2 2 2 2 2 2 2 2 2 2 2 2 2 2 2 2 2 2 2 2 2 2 2 2 2 2 2 2 2 2 2
left_child=1 2 6 5 14 8 21 15 13 25 16 12 27 18 24 19 -5 22 31 29 32 -1 -12 -11 -2 -4 -13 -7 -21 -6 -30 -3 -8
right_child=4 3 9 10 7 11 20 -9 -10 23 17 26 -14 -15 -16 -17 -18 -19 -20 28 -22 -23 -24 -25 -26 -27 -28 -29 30 -31 -32 -33 -34
leaf_value=-26.89433032420542 50.874321366836199 -10.570755120180685 -5.5041135468926727 21.979849162636523 78.267559794312191 6.8956920293294512 -17.472303709072552 139.65720784436672 9.2625584370842571 17.235932997203697 33.403417771794594 33.89802147905872 31.588916498636316 22.232588197460792 96.466106751430104 132.49379328182309 58.561988541227954 57.409943411320057 -0.71120483889112596 97.150942179680371 -10.054686761144362 -22.358116953796152 58.489489739829033 36.96391562958464 65.807742622116848 4.5761900366502477 56.860228488735217 19.793780595767867 130.54006327507216 94.201918470044447 106.48990733663358 1.437023460100266 -9.2328690636985318
leaf_weight=466 32 134 58 140 14.999999999999998 59 271 15.999999999999998 185 66 69 27 28 11.999999999999998 5.9999999999999991 6.9999999999999991 4.9999999999999991 15.999999999999998 191 25 173 357 6.9999999999999991 10.999999999999998 28 71 6.9999999999999991 25 5.0000000000000027 25 20 17 32
leaf_count=466 32 134 58 140 15 59 271 16 185 66 69 27 28 12 6 7 5 16 191 25 173 357 7 11 28 71 7 25 5 25 20 17 32
internal_value=0.296148 -6.25461 -17.0994 11.4476 89.1156 5.18529 -21.0042 105.33 0.839467 7.52352 29.5477 21.2291 15.948 -3.56243 61.3544 99.6679 23.2413 39.4872 -4.46752 97.1148 -14.2225 -24.9266 35.714 20.0542 57.8433 0.0439605 38.6255 10.7344 104.225 88.2265 111.3 -9.21889 -16.6021
internal_weight=2606 2427 1505 922 179 685 1299 113 539 206 237 146 112 354 66 97 145 92 342 90 476 823 76 77 60 129 34 84 50 40 25 151 303
internal_count=2606 2427 1505 922 179 685 1299 113 539 206 237 146 112 354 66 97 145 92 342 90 476 823 76 77 60 129 34 84 50 40 25 151 303
is_linear=0
shrinkage=0.115514


Tree=2
num_leaves=34
num_cat=0
split_feature=7 7 4 5 7 4 5 7 5 7 2 1 2 1 7 37 7 5 4 1 28 5 5 1 4 5 4 6 7 5 1 116 128
split_gain=8.31567e+07 2.5989e+07 8.17064e+06 6.01441e+06 4.07482e+06 2.49587e+06 2.02474e+06 1.108e+06 1.09272e+06 733979 647826 615598 497383 483653 565304 474105 463553 465577 417108 388437 310960 302563 299072 247361 242853 215946 192980 189592 188101 166264 158079 131378 118832
threshold=376.00000000000006 54.500000000000007 62.500000000000007 168.75000000000003 540.50000000000011 11.250000000000002 36.250000000000007 673.00000000000011 236.25000000000003 76.500000000000014 51.000000000000007 92.850002288818374 39.000000000000007 75.90000152587892 249.50000000000003 70.611111111111128 231.50000000000003 118.75000000000001 20.750000000000004 27.10000038146973 3.5000000000000004 288.75000000000006 58.750000000000007 94.500000000000014 159.75000000000003 98.750000000000014 15.250000000000002 83.500000000000014 611.50000000000011 56.250000000000007 116.95000457763673 1.9615384615384619 2.9999999999999973
decision_type=2 2 2 2 2 2 2 2 2 2 2 2 2 2 2 2 2 2 2 2 2 2 2 2 2 2 2 2 2 2 2 2 2
left_child=1 2 6 5 12 9 18 15 10 25 27 29 31 14 -7 28 17 -11 -1 22 26 23 -8 -10 -13 -3 -9 -5 32 -4 -15 -2 -6
right_child=4 3 11 8 7 13 19 20 21 16 -12 24 -14 30 -16 -17 -18 -19 -20 -21 -22 -23 -24 -25 -26 -27 -28 -29 -30 -31 -32 -33 -34
leaf_value=-23.149297540482369 46.279979189860093 -9.2371149446195897 0.34285193028012101 16.334862065806991 77.759254095601733 6.9801064593944195 -16.930102567127353 88.609040601183224 28.151827467059494 -5.5679553399464075 56.066666879209777 18.506618322854923 85.322907464893291 23.249938306336837 27.334711213416206 105.83296707408302 19.736618041251873 4.9058448217331048 -13.84666922323253 -4.8946001691305208 132.38227270206318 46.080773751382608 -11.184225736580238 54.948074628835471 43.608395839741831 -1.8953392933380657 112.09933392968091 28.794951635924448 87.075152089789867 9.5735210257502388 39.368251745258263 58.60131796097405 58.524300501581749
leaf_weight=683 36 110 46 172 30 67 256 7.0000000000000062 57 79 5.9999999999999991 36 5.9999999999999991 31 25 11.999999999999998 21 200 71 68 6.9999999999999991 22 229 4.9999999999999991 5.9999999999999991 104 13.999999999999998 18 34 60 10.999999999999998 17 4.9999999999999991
leaf_count=683 36 110 46 172 30 67 256 7 57 79 6 36 6 31 25 12 21 200 71 68 7 22 229 5 6 104 14 18 34 60 11 17 5
internal_value=-0.295076 -5.83267 -15.4668 9.2725 78.2531 3.15958 -18.3797 91.4888 23.4196 -0.500834 18.6954 10.2572 53.8007 17.2003 12.5112 84.6414 3.1859 1.94015 -22.2733 -13.0708 111.297 34.4425 -14.2171 30.3128 22.0926 -5.66915 104.269 17.5153 80.9559 5.56776 27.4714 50.2321 75.0114
internal_weight=2551 2383 1455 928 168 648 1307 109 280 514 196 148 59 134 92 81 300 279 754 553 28 84 485 62 42 214 21 190 69 106 42 53 35
internal_count=2551 2383 1455 928 168 648 1307 109 280 514 196 148 59 134 92 81 300 279 754 553 28 84 485 62 42 214 21 190 69 106 42 53 35
is_linear=0
shrinkage=0.115514


Tree=3
num_leaves=34
num_cat=0
split_feature=0 13 0 3 7 13 1 7 0 3 7 2 13 13 7 13 2 2 0 0 4 7 0 0 7 1 1 0 13 3 0 13 13
split_gain=6.6123e+07 1.91462e+07 5.73569e+06 5.44892e+06 2.83365e+06 2.72361e+06 1.74018e+06 1.58884e+06 1.36683e+06 1.03797e+06 977905 563149 532746 449422 424212 386189 332907 291032 289913 234891 197854 170217 148330 146996 137647 115486 113396 109795 106127 101205 127364 93681.3 91988.4
threshold=75.000000000000014 38.500000000000007 129.00000000000003 12.500000000000002 33.500000000000007 74.500000000000014 61.050001144409187 185.00000000000003 195.00000000000003 33.500000000000007 238.50000000000003 39.000000000000007 55.500000000000007 106.50000000000001 462.00000000000006 11.500000000000002 69.000000000000014 69.000000000000014 255.00000000000003 15.000000000000002 51.250000000000007 585.50000000000011 33.000000000000007 51.000000000000007 26.500000000000004 56.45000076293946 27.750000000000004 45.000000000000007 26.500000000000004 18.500000000000004 33.000000000000007 122.00000000000001 112.50000000000001
decision_type=2 2 2 2 2 2 2 2 2 2 2 2 2 2 2 2 2 2 2 2 2 2 2 2 2 2 2 2 2 2 2 2 2
left_child=1 3 14 4 15 6 12 19 20 10 24 13 29 27 25 -1 -8 -11 -10 28 21 -4 -14 -9 -5 31 -16 -7 -6 30 -3 -2 -15
right_child=2 5 8 9 7 11 16 23 18 17 -12 -13 22 32 26 -17 -18 -19 -20 -21 -22 -23 -24 -25 -26 -27 -28 -29 -30 -31 -32 -33 -34
leaf_value=-21.047340749690687 32.788828213740203 -2.3801395303216784 61.641985188035299 -9.1702693735099903 -15.031329039743152 15.123176561957163 19.068128632366804 6.0183456779791191 95.067215208989424 8.838506209187134 25.922917998635985 49.67435287816086 5.2805890970147056 25.753340881552024 49.544544799929305 -16.059401849458027 40.928311165338364 25.318311162117013 119.57810053390432 -7.0466417705591864 92.600837715295654 75.092922273656512 12.112376853862498 19.371750202776216 -2.022056395149908 53.412005172567127 65.078823178587399 21.526349352396295 -10.367996286416531 7.0270740936883973 4.8542804725048754 47.274264500306394 36.977196637439114
leaf_weight=568 40 194 19 82 121 102 60 22 33 90 13.999999999999998 8.9999999999999982 122 20 29 326 10.999999999999998 17 7.9999999999999991 174 5.9999999999999991 37 65 22 64 4.9999999999999991 7.9999999999999991 55 141 22 39 6.9999999999999991 19
leaf_count=568 40 194 19 82 121 102 60 22 33 90 14 9 122 20 29 326 11 17 8 174 6 37 65 22 64 5 8 55 141 22 39 7 19
internal_value=-0.26099 -5.56669 64.9273 -12.4504 -15.3846 10.166 5.66862 -8.22544 83.4863 2.64953 -3.24033 21.4206 2.97218 20.1232 43.4489 -19.2285 22.4549 11.4568 99.8498 -10.3367 72.6652 70.5292 7.65527 12.695 -6.03681 36.7218 52.9033 17.3663 -12.5217 -0.462096 -1.16923 34.9462 31.2214
internal_weight=2551 2359 192 1641 1374 718 513 480 103 267 160 205 442 196 89 894 71 107 41 436 62 56 187 44 146 52 37 157 262 255 233 47 39
internal_count=2551 2359 192 1641 1374 718 513 480 103 267 160 205 442 196 89 894 71 107 41 436 62 56 187 44 146 52 37 157 262 255 233 47 39
is_linear=0
shrinkage=0.115514


Tree=4
num_leaves=34
num_cat=0
split_feature=0 5 0 3 0 5 3 0 5 4 0 7 0 4 5 0 7 2 7 2 7 0 4 4 5 0 39 0 5 0 2 0 4
split_gain=5.4805e+07 1.52423e+07 5.21297e+06 4.06884e+06 2.21507e+06 2.1889e+06 1.53711e+06 1.06387e+06 986952 804422 750380 674962 667223 569732 476744 289939 243094 234299 204020 203014 200027 163365 153620 138343 115657 114074 98965.8 98930.8 92909.2 85548.7 75065.1 71731.5 68482.4
threshold=75.000000000000014 96.250000000000014 153.00000000000003 12.500000000000002 21.000000000000004 168.75000000000003 35.500000000000007 117.00000000000001 51.250000000000007 89.250000000000014 225.00000000000003 202.00000000000003 51.000000000000007 101.25000000000001 226.25000000000003 21.000000000000004 403.50000000000006 69.000000000000014 12.500000000000002 9.0000000000000018 29.500000000000004 45.000000000000007 137.50000000000003 40.750000000000007 138.75000000000003 39.000000000000007 5.3888888888888902 255.00000000000003 276.25000000000006 39.000000000000007 21.000000000000004 9.0000000000000018 47.750000000000007
decision_type=2 2 2 2 2 2 2 2 2 2 2 2 2 2 2 2 2 2 2 2 2 2 2 2 2 2 2 2 2 2 2 2 2
left_child=1 3 7 4 8 6 15 16 18 12 19 -6 20 14 25 23 28 -8 -1 -4 30 -16 -11 -3 -17 -7 -9 -12 -2 -13 -5 -20 -18
right_child=2 5 10 9 11 13 17 26 -10 22 27 29 -14 -15 21 24 32 -19 31 -21 -22 -23 -24 -25 -26 -27 -28 -29 -30 -31 -32 -33 -34
leaf_value=-19.108015319230244 25.729294546899144 -2.4404032348957996 67.086840175885172 -8.7695063516235638 -4.6006848709906052 9.9292926828657446 18.179864243835432 54.598432927251316 -9.6844225019497134 9.4537646337221748 91.473523898576161 2.2259498155385047 24.246204689486955 40.14612163355195 17.875684540843839 2.463560586798466 39.407507439063522 36.304318505680712 -16.341426940173417 80.997055234800968 0.94182194373422523 27.779374663378768 24.152590165680476 6.5866528753115077 7.9544140976660715 16.167773904081567 69.48682012549807 106.96595562724769 40.421016518744928 16.503304759001413 -2.6407877257633361 -13.074246378189875 53.886304797877976
leaf_weight=390 32 176 28 80 119 96 46 40 324 69 11.000000000000002 6.9999999999999991 11.999999999999998 13.999999999999998 43 117 34 11.999999999999998 395 28 73 46 10.999999999999998 26 91 66 6.9999999999999991 10.999999999999998 6.9999999999999991 28 40 116 4.9999999999999991
leaf_count=390 32 176 28 80 119 96 46 40 324 69 11 7 12 14 43 117 34 12 395 28 73 46 11 26 91 66 7 11 7 28 40 116 5
internal_value=0.0803975 -4.80019 57.7099 -10.9139 -13.5106 9.07857 4.32854 43.0873 -15.1521 1.65089 81.1434 -0.453294 -2.18285 17.4673 16.2024 1.83861 34.815 21.9298 -17.1183 74.0419 -3.82611 22.9944 11.4749 -1.2785 4.86581 12.4709 56.8159 99.2197 28.3663 13.6478 -6.7266 -15.5998 41.2638
internal_weight=2600 2397 203 1664 1379 733 468 125 1225 285 78 154 205 265 251 410 78 58 901 56 193 89 80 202 208 162 47 22 39 35 120 511 39
internal_count=2600 2397 203 1664 1379 733 468 125 1225 285 78 154 205 265 251 410 78 58 901 56 193 89 80 202 208 162 47 22 39 35 120 511 39
is_linear=0
shrinkage=0.115514


Tree=5
num_leaves=34
num_cat=0
split_feature=0 7 5 0 3 3 0 5 0 5 1 3 0 5 7 3 12 0 0 0 4 4 3 12 1 5 9 3 6 5 5 3 7
split_gain=4.29031e+07 1.27296e+07 3.3369e+06 3.01337e+06 2.80588e+06 2.05151e+06 953339 745598 662164 545360 449229 436998 378807 345067 309044 407689 264521 209112 180571 146459 136825 125438 124105 112939 107687 101975 95192.3 91518.9 86647.6 78264 70147.7 66393 74270.5
threshold=87.000000000000014 44.500000000000007 151.25000000000003 171.00000000000003 19.500000000000004 10.500000000000002 45.000000000000007 213.75000000000003 117.00000000000001 33.750000000000007 90.25000381469728 45.500000000000007 231.00000000000003 108.75000000000001 363.50000000000006 48.500000000000007 1.5000000000000002 39.000000000000007 21.000000000000004 39.000000000000007 12.250000000000002 24.250000000000004 35.500000000000007 6.5000000000000009 126.60000228881837 51.250000000000007 10.500000000000002 31.500000000000004 101.50000000000001 16.250000000000004 71.250000000000014 27.500000000000004 270.50000000000006
decision_type=2 2 2 2 2 2 2 2 2 2 2 2 2 2 2 2 2 2 2 2 2 2 2 2 2 2 2 2 2 2 2 2 2
left_child=1 4 5 8 9 6 13 10 21 20 19 27 22 18 15 31 17 -9 30 -4 29 -2 -5 -10 -17 -11 -8 -6 -19 -1 -3 32 -7
right_child=3 2 7 12 11 14 26 16 23 25 -12 -13 -14 -15 -16 24 -18 28 -20 -21 -22 -23 -24 -25 -26 -27 -28 -29 -30 -31 -32 -33 -34
leaf_value=-17.930538034255957 30.68411834694221 -10.812640492861869 6.6159112236638542 67.382235108794191 -3.6902405136335972 3.0239691941285112 9.6071362774621516 14.090484155060672 50.327012317251864 -12.30181423734059 29.448176501469579 12.210542033987805 89.218552694731628 -0.076574183768085752 29.545299142496663 18.514322762045907 38.944989704144156 22.364201021699927 -2.2213540637583229 12.857031217289034 -12.251713737974141 43.521288988591806 86.741427087679767 66.988556892437373 35.378182492358192 -8.770712330015332 23.142345415656223 2.6196421435732868 36.881864828758644 -15.219519939946512 -6.5547326372399155 10.538073855521683 14.995210955733485
leaf_weight=294 37 76 144 38 82 51 52 55 57 236 14.999999999999998 42 19 197 12.999999999999998 32 9.9999999999999982 64 108 77 115 13.999999999999998 4.9999999999999991 5.9999999999999991 5.9999999999999991 203 7.9999999999999991 49 5.9999999999999991 275 161 45 7.9999999999999991
leaf_count=294 37 76 144 38 82 51 52 55 57 236 15 42 19 197 13 32 10 64 108 77 115 14 5 6 6 203 8 49 6 275 161 45 8
internal_value=0.0711104 -3.92726 5.04547 55.1396 -11.7369 0.647106 -2.40424 14.02 43.9928 -13.8465 10.1034 1.95726 75.6352 -3.9337 12.4982 10.9375 20.8669 19.4206 -6.13617 8.79042 -15.8858 34.208 69.6333 51.9138 21.177 -10.669 11.4118 -1.33006 23.6086 -16.6203 -7.92014 7.19613 4.64719
internal_weight=2600 2424 1128 176 1296 757 602 371 114 1123 236 173 62 542 155 142 135 125 345 221 684 51 43 63 38 439 60 131 70 569 237 104 59
internal_count=2600 2424 1128 176 1296 757 602 371 114 1123 236 173 62 542 155 142 135 125 345 221 684 51 43 63 38 439 60 131 70 569 237 104 59
is_linear=0
shrinkage=0.115514


Tree=6
num_leaves=34
num_cat=0
split_feature=0 7 0 1 7 4 0 0 0 51 7 3 0 4 1 6 6 1 7 4 3 4 0 7 22 62 4 0 0 1 25 7 7
split_gain=3.4462e+07 9.27912e+06 2.62208e+06 2.40973e+06 2.01682e+06 1.82685e+06 788348 599370 429341 442635 387701 370713 320216 213918 189009 168474 155290 188706 120395 117639 108065 98717 110232 93835.4 88958.4 81771.5 94606.3 80778.3 80684.8 79533.3 79239.7 75923.5 72085.8
threshold=81.000000000000014 44.500000000000007 171.00000000000003 38.350000381469734 114.50000000000001 80.750000000000014 117.00000000000001 21.000000000000004 45.000000000000007 1.9444444444444449 18.500000000000004 45.500000000000007 225.00000000000003 141.00000000000003 94.500000000000014 47.500000000000007 41.500000000000007 31.050000190734867 504.50000000000006 66.750000000000014 4.5000000000000009 17.750000000000004 9.0000000000000018 26.500000000000004 1334.9600002765656 112.50000000000001 24.250000000000004 273.00000000000006 51.000000000000007 11.75000047683716 6.5000000000000009 83.500000000000014 148.50000000000003
decision_type=2 2 2 2 2 2 2 2 2 2 2 2 2 2 2 2 2 2 2 2 2 2 2 2 2 2 2 2 2 2 2 2 2
left_child=1 3 6 10 5 7 18 16 9 32 20 23 24 -7 -11 28 17 31 30 -8 -1 22 -12 -5 -4 26 -10 -14 29 -9 -2 -3 -6
right_child=2 4 12 11 8 13 19 15 25 14 21 -13 27 -15 -16 -17 -18 -19 -20 -21 -22 -23 -24 -25 -26 -27 -28 -29 -30 -31 -32 -33 -34
leaf_value=-15.062776040466382 16.569043340366786 -6.3763892877682142 57.075495431465306 -3.8376712362284526 -8.4409066656005436 14.055567160383687 44.702359817267045 0.34339510981285154 15.33981604231086 11.24750194800936 -11.99768021750571 11.483302184572839 72.702589488145691 29.183944248950535 34.206845023813052 8.4436975427553946 2.2360646776054853 3.6181140039029316 38.241641216515639 63.079723758568768 -11.211008009831708 -6.1788448541238585 -8.2791053149998053 2.6555278106989446 70.784781717256649 27.112967140480194 27.64575187095074 87.580341487420569 9.2588202175635672 8.3566533164863834 28.037360700349986 -1.7291961969655241 1.7671024166346183
leaf_weight=478 9.9999999999999982 265 30 62 11.999999999999998 74 66 202 113 111 293 46 16.000000000000004 14.999999999999998 4.9999999999999991 60 49 33 12.999999999999998 4.9999999999999991 122 77 167 57 7.9999999999999991 9.9999999999999982 8.9999999999999982 6.9999999999999991 17 18 41 57 40
leaf_count=478 10 265 30 62 12 74 66 202 113 111 293 46 16 15 5 60 49 33 13 5 122 77 167 57 8 10 9 7 17 18 41 57 40
internal_value=0.030043 -3.78562 46.5968 -10.3685 4.07759 1.01562 37.6157 -0.963673 12.1408 8.26726 -12.2616 2.67674 66.4729 16.6053 12.2371 2.97578 -3.85976 -4.70115 28.3182 45.9965 -14.2796 -10.0069 -10.6477 -0.727483 59.9617 17.0708 16.2476 77.2306 1.5915 0.999025 25.7887 -5.55375 -0.588592
internal_weight=2588 2392 196 1302 1090 790 135 701 300 168 1137 165 61 89 116 297 404 355 64 71 600 537 460 119 38 132 122 23 237 220 51 322 52
internal_count=2588 2392 196 1302 1090 790 135 701 300 168 1137 165 61 89 116 297 404 355 64 71 600 537 460 119 38 132 122 23 237 220 51 322 52
is_linear=0
shrinkage=0.115514


Tree=7
num_leaves=34
num_cat=0
split_feature=0 5 0 12 5 1 0 0 12 7 7 5 5 1 11 5 7 0 5 12 7 0 1 0 0 4 12 5 7 3 6 5 0
split_gain=2.70465e+07 7.00161e+06 3.36365e+06 1.70949e+06 1.28328e+06 1.04474e+06 677337 637675 429878 385162 266095 263082 223287 213221 194998 193025 174564 166142 141188 122266 78391 73963 73436.4 72545.2 72102.8 71403.5 60177.8 59296.8 57879.7 55469.7 53853.5 51160.6 45790.1
threshold=63.000000000000007 81.250000000000014 129.00000000000003 1.5000000000000002 168.75000000000003 61.050001144409187 15.000000000000002 195.00000000000003 6.5000000000000009 398.00000000000006 159.50000000000003 28.750000000000004 123.75000000000001 90.25000381469728 1099.5000000000002 228.75000000000003 37.500000000000007 255.00000000000003 211.25000000000003 7.5000000000000009 504.50000000000006 21.000000000000004 41.300001144409187 15.000000000000002 15.000000000000002 16.750000000000004 15.500000000000002 298.75000000000006 540.50000000000011 26.500000000000004 77.500000000000014 51.250000000000007 45.000000000000007
decision_type=2 2 2 2 2 2 2 2 2 2 2 2 2 2 2 2 2 2 2 2 2 2 2 2 2 2 2 2 2 2 2 2 2
left_child=1 3 9 6 5 12 11 19 16 18 -8 -1 23 15 -7 30 22 29 25 28 -11 -14 -5 -3 -10 -2 -16 -17 -4 -9 -6 -13 -18
right_child=2 4 7 8 13 14 10 17 24 20 -12 31 21 -15 26 27 32 -19 -20 -21 -22 -23 -24 -25 -26 -27 -28 -29 -30 -31 -32 -33 -34
leaf_value=-13.080915019751908 12.653776348769929 -4.1677237105011598 35.530192430499305 -6.4707748412374269 7.7360957389482996 9.8909812296050958 -6.2229420564620161 55.347081584431152 7.485989294086977 27.198706941400214 4.255991703244919 -10.384843975316489 0.18286755332590485 26.636434616621138 19.061795688465548 14.565786452337038 2.6769801357677605 74.812046040976256 25.264845019310993 60.399822005270529 35.848012834529811 4.4565137648447015 -1.3156427955592773 -0.59256382956715559 19.331112166726303 24.660846053414861 33.230273569862504 25.716381503190537 44.753159773426155 66.043858484547741 14.453917078746336 -7.9225618937833699 12.991024699113135
leaf_weight=581 38 143 10.999999999999998 82 138 65 153 23 48 29 41 283 97 11.999999999999998 20.000000000000004 70 32 10.999999999999998 27 5.9999999999999991 27 122 67 161 7.9999999999999991 7.9999999999999991 4.9999999999999991 6.9999999999999991 52 8.9999999999999982 18 187 6.9999999999999991
leaf_count=581 38 143 11 82 138 65 153 23 48 29 41 283 97 12 20 70 32 11 27 6 27 122 67 161 8 8 5 7 52 9 18 187 7
internal_value=0.0265726 -3.75751 36.8782 -8.54683 4.55403 1.72977 -10.2796 51.5242 0.294366 24.1623 -4.00832 -11.4371 -0.248479 11.6204 13.2256 10.8471 -2.35187 62.5654 18.634 44.6434 31.3689 2.56362 -4.1527 -2.2743 9.17815 14.742 21.8955 15.5795 43.1428 58.3556 8.51123 -9.40517 4.52822
internal_weight=2588 2347 241 1489 858 613 1245 112 244 129 194 1051 523 245 90 233 188 43 73 69 56 219 149 304 56 46 25 77 63 32 156 470 39
internal_count=2588 2347 241 1489 858 613 1245 112 244 129 194 1051 523 245 90 233 188 43 73 69 56 219 149 304 56 46 25 77 63 32 156 470 39
is_linear=0
shrinkage=0.115514


Tree=8
num_leaves=34
num_cat=0
split_feature=0 5 0 3 5 1 0 0 12 12 7 7 5 0 12 3 0 5 12 6 0 0 5 1 0 0 0 5 12 0 3 12 0
split_gain=2.05079e+07 5.20664e+06 2.64994e+06 1.43524e+06 939215 676781 589683 458272 413877 332056 302240 290587 231618 182491 136878 127112 124813 118430 112060 98485.3 93987.8 68684.6 66355 64716.1 62767.9 58855.4 58357 47309.3 56892.1 46942.5 46273.2 45420.4 43513.3
threshold=63.000000000000007 83.750000000000014 129.00000000000003 9.5000000000000018 151.25000000000003 52.250000000000007 9.0000000000000018 225.00000000000003 4.5000000000000009 5.5000000000000009 181.50000000000003 398.00000000000006 223.75000000000003 27.000000000000004 7.5000000000000009 65.500000000000014 171.00000000000003 23.750000000000004 9.5000000000000018 83.500000000000014 15.000000000000002 33.000000000000007 281.25000000000006 26.550000190734867 117.00000000000001 1.0000000180025095e-35 255.00000000000003 238.75000000000003 1.5000000000000002 9.0000000000000018 61.500000000000007 3.5000000000000004 39.000000000000007
decision_type=2 2 2 2 2 2 2 2 2 2 2 2 2 2 2 2 2 2 2 2 2 2 2 2 2 2 2 2 2 2 2 2 2
left_child=1 3 11 6 5 20 17 15 13 12 -8 19 21 25 -7 16 31 -1 -10 27 -3 23 -14 -6 -13 -5 -9 28 -2 -20 -16 -4 -22
right_child=2 4 7 8 9 14 10 26 18 -11 -12 24 22 -15 30 -17 -18 -19 29 -21 32 -23 -24 -25 -26 -27 -28 -29 -30 -31 -32 -33 -34
leaf_value=-12.065608296479983 11.517718546205165 -3.1923039618214242 35.105163863730461 -5.8013799868284011 3.4758696693851316 7.155479346129761 -6.1949754400938524 55.732468999781091 3.8472797133462979 23.793598684341408 5.922796434214697 24.626389663581087 11.616538259693451 7.2995411869561773 13.845787046041085 59.892684091731418 45.802577898676844 -9.3251457399893987 9.8996703269338031 31.968867115389152 -0.21919075386343392 8.4253455631626881 19.873055264104831 12.753724383948216 32.68988234552517 -1.5462283956812368 68.27481816625162 20.249558499622285 21.659934060538173 21.989125391399803 24.404359572583463 44.704054148907716 4.2958976018657529
leaf_weight=449 41 163 37 123 114 64 325 11.000000000000002 78 19 30 40 69 20 18.000000000000004 4.9999999999999991 38 396 15.000000000000002 4.9999999999999991 208 94 15.999999999999998 10.999999999999998 19 67 8.9999999999999982 18 8.9999999999999982 5.9999999999999991 7.9999999999999991 7.9999999999999991 33
leaf_count=449 41 163 37 123 114 64 325 11 78 19 30 40 69 20 18 5 38 396 15 5 208 94 16 11 19 67 9 18 9 6 8 8 33
internal_value=0.0247356 -3.29244 32.1737 -7.31382 4.13507 0.968091 -9.12158 45.5927 -0.293394 8.97867 -5.17094 21.1944 8.05274 -3.19608 10.0268 42.0055 40.928 -10.7813 5.86381 16.3219 -1.04993 6.06631 13.1707 4.29232 27.2231 -4.30088 61.3765 15.1714 13.3433 13.3538 17.0946 36.8116 0.399058
internal_weight=2566 2326 240 1509 817 494 1200 108 309 323 355 132 304 210 90 88 83 845 99 73 404 219 85 125 59 190 20 68 50 21 26 45 241
internal_count=2566 2326 240 1509 817 494 1200 108 309 323 355 132 304 210 90 88 83 845 99 73 404 219 85 125 59 190 20 68 50 21 26 45 241
is_linear=0
shrinkage=0.115514


Tree=9
num_leaves=34
num_cat=0
split_feature=0 5 0 3 5 3 0 3 0 0 11 5 0 0 3 0 3 5 0 0 2 5 11 0 9 0 5 4 2 0 2 5 53
split_gain=1.60436e+07 4.097e+06 2.07936e+06 994578 843587 611656 439748 346633 338643 270215 260104 202839 154733 143594 121143 116496 106470 106007 88447.6 73199.8 70932.7 64237.3 60877 54885.3 53024.8 51577 49196.1 80025.7 42523.3 39656.7 32826.8 32593.1 30007.4
threshold=63.000000000000007 76.250000000000014 123.00000000000001 6.5000000000000009 151.25000000000003 22.500000000000004 195.00000000000003 44.500000000000007 9.0000000000000018 27.000000000000004 811.50000000000011 208.75000000000003 93.000000000000014 39.000000000000007 57.500000000000007 255.00000000000003 19.500000000000004 108.75000000000001 1.0000000180025095e-35 15.000000000000002 21.000000000000004 263.75000000000006 277.50000000000006 159.00000000000003 1.5000000000000002 27.000000000000004 211.25000000000003 16.750000000000004 9.0000000000000018 39.000000000000007 27.000000000000004 11.250000000000002 6.9918032786885265
decision_type=2 2 2 2 2 2 2 2 2 2 2 2 2 2 2 2 2 2 2 2 2 2 2 2 2 2 2 2 2 2 2 2 2
left_child=1 3 12 8 5 17 20 9 18 16 11 -6 26 -10 -7 28 -5 -3 31 -9 23 25 -14 -4 -12 -13 27 -2 -8 -19 -18 -1 -23
right_child=2 4 6 7 10 14 15 19 13 -11 24 21 22 -15 -16 -17 30 29 -20 -21 -22 32 -24 -25 -26 -27 -28 -29 -30 -31 -32 -33 -34
leaf_value=-12.03940667955775 9.2970819597454302 -3.019173188588927 29.317439756325204 -5.8425111244473893 4.7294503112691428 6.5460206626640298 40.418429284433792 6.681503924933752 -5.8131742699521425 7.4950964616532403 17.127553093613933 3.8603181389676866 20.674920314888723 4.8283325483670465 16.890115058170668 60.388110468199663 -2.6585481667356263 -0.06642814133307437 -8.1993748276567455 21.572675667246379 40.437917559315856 11.468624956747709 30.804481540828142 36.44895471551272 30.755780739433295 10.739440099897934 18.725495112724481 19.630637919413939 48.904741949480645 4.7334063051985265 1.3786849595166548 -10.030198267893818 18.343937532904214
leaf_weight=164 35 236 36 158 187 94 12.999999999999998 37 282 31 16.000000000000004 19 38 18 18 8.9999999999999982 78 197 304 4.9999999999999991 18 15.999999999999998 9.9999999999999982 24 4.9999999999999991 62 23 13.999999999999998 20 26 41 314 18
leaf_count=164 35 236 36 158 187 94 13 37 282 31 16 19 38 18 18 9 78 197 304 5 18 16 10 24 5 62 23 14 20 26 41 314 18
internal_value=0.0218783 -2.91211 28.4572 -6.74266 3.22362 0.554826 39.2093 -1.39009 -8.47409 -2.7325 7.94151 7.07711 17.705 -5.17468 8.20846 48.7387 -3.8771 -1.31273 -9.73984 8.45426 34.078 10.8946 22.7852 32.17 20.3724 9.12582 14.3182 12.2495 45.5616 0.493194 -1.26757 -10.7196 15.1085
internal_weight=2566 2326 240 1432 894 571 120 350 1082 308 323 302 120 300 112 42 277 459 782 42 78 115 48 60 21 81 72 49 33 223 119 478 34
internal_count=2566 2326 240 1432 894 571 120 350 1082 308 323 302 120 300 112 42 277 459 782 42 78 115 48 60 21 81 72 49 33 223 119 478 34
is_linear=0
shrinkage=0.115514


Tree=10
num_leaves=34
num_cat=0
split_feature=0 13 0 3 1 13 7 0 0 3 7 2 6 1 0 13 7 7 7 10 26 13 10 7 7 13 13 10 0 6 2 15 2
split_gain=1.20471e+07 3.30849e+06 1.79973e+06 800579 596633 608409 320130 319058 160089 159159 146933 128976 104794 97474.9 99517 75543 75271.6 74283.8 69291.9 57803.3 56238.9 54741.6 56422.9 50766.8 46709.4 44073 42471.8 40692 39510.4 38985.8 37373 34641.7 33632.2
threshold=57.000000000000007 32.500000000000007 123.00000000000001 16.500000000000004 81.350002288818374 64.500000000000014 27.500000000000004 195.00000000000003 93.000000000000014 45.500000000000007 129.50000000000003 105.00000000000001 85.500000000000014 28.550000190734867 15.000000000000002 5.5000000000000009 673.00000000000011 153.50000000000003 94.500000000000014 55.500000000000007 105.50000000000001 107.50000000000001 47.500000000000007 20.500000000000004 540.50000000000011 20.500000000000004 52.500000000000007 65.500000000000014 39.000000000000007 34.500000000000007 1.0000000180025095e-35 951.18000221252453 45.000000000000007
decision_type=2 2 2 2 2 2 2 2 2 2 2 2 2 2 2 2 2 2 2 2 2 2 2 2 2 2 2 2 2 2 2 2 2
left_child=1 3 8 6 5 13 15 20 21 23 25 18 17 14 29 -1 -9 28 32 -10 24 22 -2 -5 31 -8 -16 -18 -7 -3 -17 -4 -6
right_child=2 4 7 9 11 12 10 16 19 -11 -12 -13 -14 -15 26 30 27 -19 -20 -21 -22 -23 -24 -25 -26 -27 -28 -29 -30 -31 -32 -33 -34
leaf_value=-9.982343712840926 9.8920866207397626 -4.0005701437879022 28.421832052946908 -3.5620105381739009 7.7875011650800996 4.0631269421698022 -7.1221631762474304 38.171178908037511 18.546729987061202 7.5139128987530812 1.6295077552029333 30.400650899946022 14.983196280079925 3.8310075471043556 -0.47265133941238918 -8.0612734366124847 43.782492656089708 11.404030585896297 20.208185144778241 28.816921049800147 38.994576567531801 17.838736091663787 18.447591172311625 0.83944698287037556 30.156955750950505 -4.5277761438130195 2.6115972922695452 55.265745466724979 7.5334928486586863 0.077291596978752111 -5.4142179631900165 16.008904931911207 13.124140053444373
leaf_weight=282 72 132 5.9999999999999982 55 40 130 126 21 39 39 45 4.9999999999999991 19 68 189 466 10.000000000000002 30 9.9999999999999982 8.9999999999999982 7.9999999999999991 20 11.999999999999998 96 56 285 87 6.9999999999999991 66 41 84 6 26
leaf_count=282 72 132 6 55 40 130 126 21 39 39 45 5 19 68 189 466 10 30 10 9 8 20 12 96 56 285 87 7 66 41 84 6 26
internal_value=-0.102032 -2.77062 23.1829 -6.06436 3.00417 2.00223 -7.09693 34.1545 14.9543 0.935363 -4.63702 12.4298 6.74375 -0.244719 -0.861979 -8.44515 42.7968 6.05105 11.2475 20.4724 29.8333 12.4075 11.1143 -0.763733 28.7555 -5.32314 0.499557 48.5109 5.23172 -3.03414 -7.657 22.2154 9.88981
internal_weight=2587 2321 266 1478 843 762 1288 114 152 190 456 81 245 517 449 832 38 226 76 48 76 104 84 151 68 411 276 17 196 173 550 12 66
internal_count=2587 2321 266 1478 843 762 1288 114 152 190 456 81 245 517 449 832 38 226 76 48 76 104 84 151 68 411 276 17 196 173 550 12 66
is_linear=0
shrinkage=0.115514


Tree=11
num_leaves=34
num_cat=0
split_feature=0 5 0 4 5 2 0 0 0 3 11 5 0 4 5 5 2 3 5 5 11 26 6 0 0 18 6 0 0 0 26 127 0
split_gain=9.43592e+06 2.42249e+06 1.75366e+06 632601 538178 398478 249604 166760 157650 119993 103141 87738.8 83021.1 81763.9 81538.4 66763.2 56310 55720.8 48012.1 46991.1 45448.4 43996.5 43815.3 43668.7 34658.7 31812.5 31214.2 29821 26923.3 25893.8 25231 27286.9 25093
threshold=51.000000000000007 63.750000000000007 123.00000000000001 96.750000000000014 146.25000000000003 9.0000000000000018 195.00000000000003 93.000000000000014 15.000000000000002 63.500000000000007 285.50000000000006 206.25000000000003 9.0000000000000018 84.250000000000014 26.250000000000004 338.75000000000006 21.000000000000004 25.500000000000004 123.75000000000001 196.25000000000003 277.50000000000006 105.50000000000001 36.500000000000007 33.000000000000007 237.00000000000003 39.102431511411488 87.500000000000014 1.0000000180025095e-35 15.000000000000002 33.000000000000007 37.500000000000007 -13.584998488426223 33.000000000000007
decision_type=2 2 2 2 2 2 2 2 2 2 2 2 2 2 2 2 2 2 2 2 2 2 2 2 2 2 2 2 2 2 2 2 2
left_child=1 5 7 4 10 8 21 15 14 18 12 -6 -3 27 -1 16 19 24 -5 -2 -9 30 29 -10 -8 -11 32 -7 -12 -14 31 -4 -13
right_child=2 3 6 9 11 13 17 20 23 25 28 26 22 -15 -16 -17 -18 -19 -20 -21 -22 -23 -24 -25 -26 -27 -28 -29 -30 -31 -32 -33 -34
leaf_value=-8.3287539758253413 7.5495896427768034 -4.4783777934326974 22.73726953375532 6.3608047425743752 3.2977106457785688 -3.7678240272289414 32.538103074728525 16.40003172625558 -4.0937685989319954 12.753531814801118 1.2463304942286233 4.3214328614641966 -2.0946254438024576 3.6444472485293931 -6.1847455446019381 23.392872085242008 19.229771194800986 44.364206543343485 12.504051459910526 11.978218502904044 25.506743814551466 34.490151228096636 1.5228549314510094 1.3582625839781459 42.548172225445349 21.838672728936491 12.618868527151239 -0.44064830252223464 6.1494010339758045 0.92050158779633173 23.073765214937939 29.641206055471557 8.441128749257885
leaf_weight=528 83 131 10.999999999999998 58 194 82 20.000000000000004 39 107 9.0000000000000018 70 34 279 39 429 4.9999999999999991 7.9999999999999991 11.999999999999998 24 52 8.9999999999999982 7.9999999999999991 69 24 5.9999999999999991 11.999999999999998 13.999999999999998 64 19 44 32 25 47
leaf_count=528 83 131 11 58 194 82 20 39 107 9 70 34 279 39 429 5 8 12 24 52 9 8 69 24 6 12 14 64 19 44 32 25 47
internal_value=-0.0902462 -2.66436 18.8171 1.57823 0.597863 -6.01045 30.2092 12.1911 -6.85319 10.1541 -1.34217 4.70617 -1.96078 -1.05421 -7.36765 10.2722 9.81344 37.8532 8.15883 9.25543 18.1075 26.3871 -1.11944 -3.09492 34.8481 17.945 7.58238 -2.30934 2.29305 -1.6839 25.4338 27.5317 6.71187
internal_weight=2587 2277 310 1004 901 1273 114 196 1088 103 612 289 523 185 957 148 143 38 82 135 48 76 392 131 26 21 95 146 89 323 68 36 81
internal_count=2587 2277 310 1004 901 1273 114 196 1088 103 612 289 523 185 957 148 143 38 82 135 48 76 392 131 26 21 95 146 89 323 68 36 81
is_linear=0
shrinkage=0.115514


Tree=12
num_leaves=34
num_cat=0
split_feature=0 5 7 2 5 2 7 7 5 2 2 7 5 4 5 2 0 4 2 0 0 4 7 0 5 2 4 133 0 0 0 0 5
split_gain=7.61566e+06 2.15422e+06 973463 553573 394826 334789 287590 185803 172849 134332 114557 111536 79930.4 72421.1 71545.2 67890.8 67608.9 51694.3 47694.2 42886.1 40297.6 39090.9 39004.8 38767.7 38669.3 38436.2 34467.5 30870.2 30809.5 30640.8 26229.8 25416.3 23981.6
threshold=63.000000000000007 81.250000000000014 559.00000000000011 15.000000000000002 161.25000000000003 21.000000000000004 126.50000000000001 673.00000000000011 36.250000000000007 27.000000000000004 39.000000000000007 449.50000000000006 325.00000000000006 17.250000000000004 208.75000000000003 75.000000000000014 21.000000000000004 49.750000000000007 45.000000000000007 9.0000000000000018 255.00000000000003 12.250000000000002 263.50000000000006 1.0000000180025095e-35 312.50000000000006 69.000000000000014 22.750000000000004 221.50000000000003 33.000000000000007 9.0000000000000018 15.000000000000002 27.000000000000004 211.25000000000003
decision_type=2 2 2 2 2 2 2 2 2 2 2 2 2 2 2 2 2 2 2 2 2 2 2 2 2 2 2 2 2 2 2 2 2
left_child=1 3 11 6 5 16 8 13 21 14 19 12 26 -4 -6 29 -3 -13 -15 -5 -9 23 -8 -1 27 -12 32 28 -16 -7 -10 -11 -2
right_child=2 4 7 10 9 15 22 20 30 31 25 17 -14 18 24 -17 -18 -19 -20 -21 -22 -23 -24 -25 -26 -27 -28 -29 -30 -31 -32 -33 -34
leaf_value=-7.9870894826908625 7.6907531729169474 -1.492145074479259 20.768542713344953 -1.4041008902980936 3.7425072305350815 4.181640126751871 0.58069652978687536 33.718297726120184 -4.585924367300259 11.50838009247917 4.1444964854518949 16.568682897667657 25.067407631834477 26.919115016556418 2.801264085418897 16.365537862968132 1.252372038579755 29.009778220943769 38.838928947282355 4.5826351259015716 43.571561342009332 -5.0015956182446581 7.2210715993357573 -6.1678027300765699 15.874534726455748 11.200309722054952 15.743502933321746 10.81032066393195 7.4541930338388545 8.7495069526512843 -2.6175537703496996 19.969867507782453 12.423607660946374
leaf_weight=381 50 277 28 100 146 43 45 18.000000000000004 375 10.000000000000002 39 41 4.9999999999999991 43 27 9.9999999999999982 211 4.9999999999999991 4.9999999999999991 19 7.9999999999999991 124 15.999999999999998 265 6.9999999999999991 13.999999999999998 11.999999999999998 23 64 36 119 8.9999999999999982 20
leaf_count=381 50 277 28 100 146 43 45 18 375 10 39 41 5 43 27 10 211 5 5 19 8 124 16 265 7 14 12 23 64 36 119 9 20
internal_value=0.000476726 -1.97421 19.8314 -4.62404 2.62231 0.882798 -5.42437 28.321 -5.79823 6.13175 1.54128 13.3206 10.8881 25.4373 5.46392 7.39829 -0.305479 17.921 28.1608 -0.448235 36.7501 -6.88019 2.32243 -7.24079 7.541 6.0083 10.0236 7.0293 6.07365 6.2632 -4.11176 15.5165 9.043
internal_weight=2595 2360 235 1497 863 577 1325 102 1264 286 172 133 87 76 267 89 488 46 48 119 26 770 61 646 121 53 82 114 91 79 494 19 70
internal_count=2595 2360 235 1497 863 577 1325 102 1264 286 172 133 87 76 267 89 488 46 48 119 26 770 61 646 121 53 82 114 91 79 494 19 70
is_linear=0
shrinkage=0.115514


Tree=13
num_leaves=34
num_cat=0
split_feature=7 5 3 0 0 5 1 5 7 3 5 1 7 0 7 12 0 12 5 0 1 0 4 0 3 4 7 5 1 0 7 133 5
split_gain=5.95827e+06 1.92754e+06 636247 418135 366458 323100 204855 184007 100598 92163.8 90184.2 78642.1 76533 70964.2 59037.9 57483.6 49286 43672.8 37669.6 34114.2 33538.8 33032 31084.1 29469.3 27866.3 25255.1 24599.4 22405.9 21854.5 21196.6 19863.7 19638.1 17697.2
threshold=398.00000000000006 103.75000000000001 25.500000000000004 177.00000000000003 27.000000000000004 198.75000000000003 57.150001525878913 36.250000000000007 559.00000000000011 59.500000000000007 338.75000000000006 13.450000286102297 209.00000000000003 39.000000000000007 673.00000000000011 1.0000000180025095e-35 21.000000000000004 1.0000000180025095e-35 33.750000000000007 39.000000000000007 140.40000152587893 9.0000000000000018 36.250000000000007 1.0000000180025095e-35 14.500000000000002 45.250000000000007 630.50000000000011 133.75000000000003 146.85000610351565 255.00000000000003 181.50000000000003 230.50000000000003 128.75000000000003
decision_type=2 2 2 2 2 2 2 2 2 2 2 2 2 2 2 2 2 2 2 2 2 2 2 2 2 2 2 2 2 2 2 2 2
left_child=1 2 4 8 7 6 13 15 24 16 11 19 -6 27 25 23 18 21 -4 31 32 -9 26 -1 -2 -5 -10 -3 -11 -16 -17 -7 -8
right_child=3 5 9 14 12 10 20 17 22 28 -12 -13 -14 -15 29 30 -18 -19 -20 -21 -22 -23 -24 -25 -26 -27 -28 -29 -30 -31 -32 -33 -34
leaf_value=-7.0212371585411706 11.443854885268065 -0.32502799671916427 -2.6068278213928857 24.231802142798664 -0.35576975874623512 3.8178999106656031 5.018489629865063 -4.676871320286379 17.456647197874364 8.3890884459448571 20.833545007007526 16.470072775955614 5.6551244566376253 4.2204605566256719 31.175646041326232 -4.1930449455060002 8.5217465882112187 -1.3242426962330693 2.4442156577078062 8.2455496914721884 16.579719863004822 -2.8388605752863496 26.944227079349069 -5.4301035387690444 16.266961734374789 32.117425383573298 23.253702127623018 1.5237113815255499 17.20749769320657 38.538429579874418 2.5816499575460852 8.6727777568204605 9.1432923810773481
leaf_weight=388 31 172 24 24.000000000000004 76 54 23 257 28 15.000000000000002 6.9999999999999991 11.999999999999998 45 92 15.000000000000002 154 14.999999999999998 123 110 90 5.9999999999999991 265 8.9999999999999982 259 33 6.9999999999999991 14.999999999999998 178 4.9999999999999991 7.9999999999999991 5.9999999999999991 13.999999999999998 35
leaf_count=388 31 172 24 24 76 54 23 257 28 15 7 12 45 92 15 154 15 123 110 90 6 265 9 259 33 7 15 178 5 8 6 14 35
internal_value=0.000421661 -1.46511 -3.50435 20.9058 -4.22795 3.73598 2.25003 -4.73692 16.9971 3.23077 7.98396 7.45486 1.87969 1.36561 29.3024 -5.89947 2.24246 -3.28238 1.53955 6.77016 8.35811 -3.74378 20.771 -6.38429 13.9308 26.0124 19.4789 0.615188 10.5937 33.7366 -3.93899 4.81743 7.50759
internal_weight=2595 2425 1742 170 1573 683 506 1452 116 169 177 170 121 442 54 807 149 645 134 158 64 522 52 647 64 31 43 350 20 23 160 68 58
internal_count=2595 2425 1742 170 1573 683 506 1452 116 169 177 170 121 442 54 807 149 645 134 158 64 522 52 647 64 31 43 350 20 23 160 68 58
is_linear=0
shrinkage=0.115514


Tree=14
num_leaves=34
num_cat=0
split_feature=0 5 0 2 10 5 7 10 0 5 2 133 11 3 0 10 7 5 2 11 0 5 133 7 2 7 5 3 7 0 79 122 54
split_gain=4.48203e+06 1.16526e+06 841558 278921 275587 232457 122892 112518 101330 84465.8 69146.7 56305.1 51210.6 49567.6 46012.8 44050.7 41891.5 40589.7 40528.3 31280 36471 26842.7 25085 26785.1 23937.2 22428.2 21776.6 20684.7 20413.8 18523.2 17381.4 19363.2 16300.8
threshold=51.000000000000007 73.750000000000014 129.00000000000003 21.000000000000004 193.50000000000003 161.25000000000003 126.50000000000001 48.500000000000007 177.00000000000003 18.750000000000004 105.00000000000001 254.50000000000003 285.50000000000006 60.500000000000007 15.000000000000002 106.50000000000001 417.50000000000006 196.25000000000003 9.0000000000000018 205.50000000000003 1.0000000180025095e-35 123.75000000000001 238.50000000000003 124.50000000000001 1.0000000180025095e-35 20.500000000000004 113.75000000000001 44.500000000000007 684.00000000000011 99.000000000000014 1555.0497448979595 0.96428286693773424 15.774134790528237
decision_type=2 2 2 2 2 2 2 2 2 2 2 2 2 2 2 2 2 2 2 2 2 2 2 2 2 2 2 2 2 2 2 2 2
left_child=1 3 7 6 5 12 9 11 15 24 21 16 14 25 -3 -4 17 -2 -10 20 -11 -6 23 -7 -1 -5 -16 28 -20 -9 31 -25 -30
right_child=2 4 8 13 10 22 -8 29 18 19 -12 -13 -14 -15 26 -17 -18 -19 27 -21 -22 -23 -24 30 -26 -27 -28 -29 32 -31 -32 -33 -34
leaf_value=-6.3500390677418999 4.6172594273206196 -2.2119635404162663 16.720993107548527 -1.8473083897705171 5.021339046072046 1.9761775739473919 1.0553909463595617 12.308253241260299 20.896068443756125 -5.3624050935488929 20.852845214421169 16.572561920389386 2.3457058508757904 9.7578715307248665 -0.98368565157897447 27.272021349179006 10.94658405552145 8.7042200015531446 23.713204558781499 -2.0362510973283205 -3.5889507772694 9.2663404979380175 6.591041815549965 3.7425815620813396 -4.2359331401578544 1.8759042910946115 1.0260142059752841 33.845056411705094 35.048702975429684 17.95850759809743 10.719818849047002 9.3869570656678807 26.118215405340106
leaf_weight=347 79 206 44 30 46 96 53 15.000000000000002 18 235 4.9999999999999991 8.9999999999999982 75 8.9999999999999982 140 5.9999999999999991 32 55 16.000000000000004 103 453 35 38 82 90 77 148 5.9999999999999991 4.9999999999999982 15.999999999999998 5.9999999999999991 8.9999999999999982 6
leaf_count=347 79 206 44 30 46 96 53 15 18 235 5 9 75 9 140 6 32 55 16 103 453 35 38 82 90 77 148 6 5 16 6 9 6
internal_value=-0.0590577 -1.82119 13.045 -3.89951 1.45579 0.787829 -4.39068 8.81019 21.6824 -4.62573 7.66939 7.67394 -0.466788 1.52454 -0.893786 17.9871 7.19148 6.29474 25.3052 -3.91365 -4.19471 6.8556 3.87821 3.34407 -5.91464 0.832013 0.0490768 27.7101 26.3468 15.2245 4.69787 4.30082 30.1775
internal_weight=2590 2283 307 1397 886 800 1281 206 101 1228 86 175 569 116 494 50 166 134 51 791 688 81 231 193 437 107 288 33 27 31 97 91 11
internal_count=2590 2283 307 1397 886 800 1281 206 101 1228 86 175 569 116 494 50 166 134 51 791 688 81 231 193 437 107 288 33 27 31 97 91 11
is_linear=0
shrinkage=0.115514


Tree=15
num_leaves=34
num_cat=0
split_feature=0 5 0 2 5 3 4 0 0 3 6 7 2 5 6 1 24 2 7 0 0 75 6 7 3 2 1 7 1 7 0 0 14
split_gain=3.50636e+06 919013 658364 250419 222594 181890 88024.6 79272.3 75292.8 66535.9 57976.8 48773.8 46859 41762.7 39868.2 35082.1 34273.8 31705.9 27576 25816.3 25807 21515.5 20992.1 20558.2 16844 16269.9 16182 15970.1 15370.3 14664.6 14491 14278.2 13755
threshold=51.000000000000007 63.750000000000007 129.00000000000003 21.000000000000004 156.25000000000003 9.5000000000000018 24.250000000000004 177.00000000000003 1.0000000180025095e-35 66.500000000000014 101.50000000000001 126.50000000000001 45.000000000000007 108.75000000000001 77.500000000000014 62.00000190734864 1002.5000000000001 9.0000000000000018 16.500000000000004 21.000000000000004 15.000000000000002 11.062500000000002 17.500000000000004 155.00000000000003 64.500000000000014 1.0000000180025095e-35 56.45000076293946 684.00000000000011 4.6000001430511483 597.50000000000011 99.000000000000014 15.000000000000002 789.14000082016003
decision_type=2 2 2 2 2 2 2 2 2 2 2 2 2 2 2 2 2 2 2 2 2 2 2 2 2 2 2 2 2 2 2 2 2
left_child=1 5 6 4 13 8 10 15 28 20 16 22 18 -3 19 32 -2 -9 -7 25 -5 -11 -10 -21 -14 -6 27 -19 -1 -18 -8 -15 -4
right_child=2 3 7 9 14 12 30 17 11 21 -12 -13 24 31 -16 -17 29 26 -20 23 -22 -23 -24 -25 -26 -27 -28 -29 -30 -31 -32 -33 -34
leaf_value=-5.6564583830319792 4.2024548764635519 -1.6746718825631781 20.038337207492326 3.5564709155791996 -1.1784042861561348 -2.9037774006660833 10.886476190549892 18.482277028954719 -3.9448322235041111 9.814365400399371 17.946123841076083 0.58721855739934825 2.4971837170758464 -0.89885905914911479 7.3826243985137188 25.088744328940699 7.2469150364410071 20.973994010099471 -0.24672989403718343 2.7986020604194062 7.2880091370247282 18.833401356295418 -1.7489951749609474 6.3620325983707193 10.032497591237583 3.9713948339003688 29.93547399406258 26.691596423582535 -4.1610166869801342 12.386606475775871 15.884045913210244 0.95021250965477733 14.097275874363749
leaf_weight=389 61 362 5.9999999999999991 79 32 87 15.000000000000002 18 437 12.000000000000002 5.9999999999999991 39 19.000000000000004 87 27 4.9999999999999991 100 16.000000000000004 130 159 36 4.9999999999999991 67 25 4.9999999999999991 10.999999999999998 5.9999999999999991 10.999999999999998 120 7.9999999999999991 15.999999999999998 155 39
leaf_count=389 61 362 6 79 32 87 15 18 437 12 6 39 19 87 27 5 100 16 130 159 36 5 67 25 5 11 6 11 120 8 16 155 39
internal_value=-0.0522357 -1.61082 11.5381 1.03783 0.317234 -3.63879 7.79249 19.1778 -4.29454 5.72173 6.78749 -3.34838 -0.776326 -0.88932 3.18636 15.9094 6.39133 22.3821 -1.312 2.68725 4.7246 12.467 -3.65293 3.28276 4.06704 0.138986 24.5092 23.3034 -5.3039 7.62763 13.4659 0.285464 14.8894
internal_weight=2590 2283 307 990 858 1293 206 101 1052 132 175 543 241 604 254 50 169 51 217 227 115 17 504 184 24 43 33 27 509 108 31 242 45
internal_count=2590 2283 307 990 858 1293 206 101 1052 132 175 543 241 604 254 50 169 51 217 227 115 17 504 184 24 43 33 27 509 108 31 242 45
is_linear=0
shrinkage=0.115514


Tree=16
num_leaves=34
num_cat=0
split_feature=0 0 5 1 2 5 2 0 110 2 0 6 3 6 7 3 1 0 5 2 28 3 2 7 7 6 0 34 45 0 6 6 7
split_gain=2.94601e+06 706084 641486 215669 132416 125283 95002 71952.9 54280.3 51523.8 40925.5 33411.6 33186.5 32091.2 31690.6 27749.4 26734.9 31229 25228.9 26118.1 24169 22197.6 21709.4 20917.9 17025.1 16948.5 16377.2 16238.5 20567.9 15777.9 17869.5 15271.8 15942.4
threshold=45.000000000000007 123.00000000000001 61.250000000000007 79.250000000000014 1.0000000180025095e-35 128.75000000000003 21.000000000000004 183.00000000000003 545.79857217414053 27.000000000000004 1.0000000180025095e-35 69.500000000000014 63.500000000000007 91.000000000000014 181.50000000000003 25.500000000000004 22.050000190734867 9.0000000000000018 241.25000000000003 9.0000000000000018 5.5000000000000009 54.500000000000007 87.000000000000014 654.50000000000011 8.5000000000000018 34.500000000000007 21.000000000000004 654.88888888888903 489.00819672131155 21.000000000000004 51.500000000000007 61.500000000000007 340.00000000000006
decision_type=2 2 2 2 2 2 2 2 2 2 2 2 2 2 2 2 2 2 2 2 2 2 2 2 2 2 2 2 2 2 2 2 2
left_child=2 6 4 5 10 16 8 20 31 14 -1 18 -5 -10 24 23 17 -4 19 29 27 -8 -11 -9 -6 -19 -12 28 -3 30 -7 32 -2
right_child=1 7 3 12 9 11 21 15 13 22 26 -13 -14 -15 -16 -17 -18 25 -20 -21 -22 -23 -24 -25 -26 -27 -28 -29 -30 -31 -32 -33 -34
leaf_value=-4.8044972532588135 3.1015259396948776 16.514870192129308 -2.9683621423803705 4.5200282950636614 -3.8421406514940224 -1.5146097430178482 11.45053201359921 15.27215209262304 6.8899292902635914 1.0185407125393955 -3.5073932695361645 5.377247648737514 9.6421377352959627 15.582815369132071 3.1260676691692115 24.156513275778032 0.65959832618490588 -1.1787675089495728 5.0273041520704727 4.9249148395033302 20.78675889923662 20.268186541467433 8.9569395992597745 20.940954136189006 -1.7453337876085344 1.2027524256947366 -1.2952925488260938 18.111184393816629 11.276093015247341 1.5015469740661473 1.9504911411801527 8.2280475013020666 7.5336567543173141
leaf_weight=461 111 13.999999999999998 127 86 72 63 16.000000000000004 15.999999999999998 102 57 418 32 21 5.9999999999999991 14.999999999999998 15.999999999999998 99 263 24 22 6.9999999999999991 4.9999999999999991 4.9999999999999991 19 183 47 50 8.9999999999999982 35 149 29 9.9999999999999982 11.999999999999998
leaf_count=461 111 14 127 86 72 63 16 16 102 57 418 32 21 6 15 16 99 263 24 22 7 5 5 19 183 47 50 9 35 149 29 10 12
internal_value=-0.00736183 9.42034 -1.61045 0.636163 -3.32437 0.0243058 6.09837 16.9234 5.44906 -1.34427 -4.032 1.83683 5.5253 7.37287 -2.03385 20.1713 -1.05442 -1.44272 1.44208 1.11491 14.3751 13.55 1.65873 18.3495 -2.33737 -0.817698 -3.27106 13.6012 12.7729 0.767113 -0.42235 3.88687 3.53393
internal_weight=2601 378 2223 962 1261 855 262 116 241 332 929 319 107 108 270 51 536 437 287 263 65 21 62 35 255 310 468 58 49 241 92 133 123
internal_count=2601 378 2223 962 1261 855 262 116 241 332 929 319 107 108 270 51 536 437 287 263 65 21 62 35 255 310 468 58 49 241 92 133 123
is_linear=0
shrinkage=0.115514


Tree=17
num_leaves=34
num_cat=0
split_feature=8 8 5 1 5 4 2 8 6 3 7 3 8 6 2 8 3 8 127 5 1 133 8 4 7 46 8 8 8 6 5 9 6
split_gain=2.30471e+06 555078 505964 188422 108137 97777.5 66720.8 66589 45714 37956.4 36772 32317.1 30952.4 26492.5 25165.3 28445.2 23109.1 22820.3 21810.5 21526.3 21504.4 17603.6 15608.4 21895.1 15570.9 15479.3 15433.2 13999.8 13428.5 16623.9 13340.1 13238.6 12810.8
threshold=7.5000000000000009 19.500000000000004 56.250000000000007 79.250000000000014 128.75000000000003 7.2500000000000009 9.0000000000000018 30.500000000000004 91.000000000000014 63.500000000000007 20.500000000000004 54.500000000000007 1.0000000180025095e-35 64.500000000000014 15.000000000000002 1.5000000000000002 13.500000000000002 16.500000000000004 587.90001068264257 193.75000000000003 2.7500000000000004 215.50000000000003 3.5000000000000004 59.250000000000007 186.50000000000003 4853.0464480874334 25.500000000000004 2.5000000000000004 3.5000000000000004 51.500000000000007 248.75000000000003 9.5000000000000018 34.500000000000007
decision_type=2 2 2 2 2 2 2 2 2 2 2 2 2 2 2 2 2 2 2 2 2 2 2 2 2 2 2 2 2 2 2 2 2
left_child=2 6 5 4 14 12 8 18 17 27 -7 -8 -1 20 15 -4 25 19 26 -2 28 -18 23 -12 -21 -9 -3 -5 29 -6 -22 -28 -17
right_child=1 7 3 9 13 10 11 16 -10 -11 22 -13 -14 -15 -16 32 21 -19 -20 24 30 -23 -24 -25 -26 -27 31 -29 -30 -31 -32 -33 -34
leaf_value=-4.465082611074803 2.4062961257965618 10.301790907755002 -2.5444132043293273 2.9572928612871929 -2.0307144217978079 -2.3850029782464008 8.1028764601744534 12.116568511505307 12.375477669684416 9.2280355313428899 -1.798979456030513 17.926924333016956 -3.0533339866658622 4.4048349092122709 0.95385714579509917 -0.98363229059177482 16.734654567915722 8.0024136050458328 18.112466873223607 4.5398561034078204 2.3716294545608041 22.092760841693405 2.4378039446253048 1.5634750794794199 11.189508995502704 19.302467452127388 10.619792902312438 6.135927017296984 1.2908975034894878 1.63820114144889 7.6538042618378883 15.977548080904537 1.0638174960704749
leaf_weight=400 97 40 166 64 45 224 42 12.000000000000002 8.9999999999999982 22 73 4.9999999999999991 430 40 76 308 14.999999999999998 17 7.9999999999999991 78 72 18 28 40 4.9999999999999991 5.9999999999999991 10.000000000000002 26 129 26 6.9999999999999991 15.999999999999998 47
leaf_count=400 97 40 166 64 45 224 42 12 9 22 73 5 430 40 76 308 15 17 8 78 72 18 28 40 5 6 10 26 129 26 7 16 47
internal_value=-0.00651143 8.33216 -1.42442 0.454517 -0.0923303 -3.04078 5.22072 14.6297 4.3247 4.92694 -1.46512 9.14799 -3.73369 1.62465 -1.00978 -1.29622 17.8412 3.95689 12.4164 3.57482 1.22606 19.6573 -0.00374459 -0.60873 4.94044 14.5119 11.7259 3.87556 0.588684 -0.687168 2.83967 13.9169 -0.712561
internal_weight=2601 378 2223 1028 916 1195 253 125 206 112 365 47 830 319 597 521 51 197 74 180 279 33 141 113 83 18 66 90 200 71 79 26 355
internal_count=2601 378 2223 1028 916 1195 253 125 206 112 365 47 830 319 597 521 51 197 74 180 279 33 141 113 83 18 66 90 200 71 79 26 355
is_linear=0
shrinkage=0.115514


Tree=18
num_leaves=34
num_cat=0
split_feature=0 0 4 0 13 13 4 11 2 0 2 2 13 7 13 2 7 7 0 4 13 129 50 11 3 126 33 3 27 133 133 0 0
split_gain=1.81578e+06 584888 278617 120848 104584 95638.8 64934.4 47791.6 36664.2 35808 35405.8 34066.5 24978.2 24766.1 24085.5 22358.7 18442.7 15428.4 15278.8 13107.5 12882.1 12797.7 12554.9 12104.1 11929.9 11001.2 10960.5 10433.7 12571.5 10090.1 9803.13 9773.32 9766.5
threshold=93.000000000000014 21.000000000000004 57.750000000000007 165.00000000000003 18.500000000000004 82.500000000000014 23.750000000000004 1531.5000000000002 57.000000000000007 39.000000000000007 9.0000000000000018 1.0000000180025095e-35 44.500000000000007 588.00000000000011 5.5000000000000009 45.000000000000007 165.50000000000003 75.500000000000014 273.00000000000006 19.250000000000004 45.500000000000007 3.9999999999999991 1.3918432626949222 66.500000000000014 2.5000000000000004 144.49000111222264 29.992222117053142 25.500000000000004 62.500000000000007 216.50000000000003 221.50000000000003 1.0000000180025095e-35 1.0000000180025095e-35
decision_type=2 2 2 2 2 2 2 2 2 2 2 2 2 2 2 2 2 2 2 2 2 2 2 2 2 2 2 2 2 2 2 2 2
left_child=1 2 4 8 14 6 9 15 13 20 29 16 19 21 24 17 30 31 27 32 -3 -2 -15 -16 -1 -13 -11 28 -12 -5 -7 -4 -6
right_child=3 5 7 10 12 11 -8 -9 -10 26 18 25 -14 22 23 -17 -18 -19 -20 -21 -22 -23 -24 -25 -26 -27 -28 -29 -30 -31 -32 -33 -34
leaf_value=-4.524189927743401 6.9788518821568202 -0.59447948994701727 -0.51315789280816293 10.259604986076607 -3.220018743811663 2.8509510926645318 5.2908655970129352 12.172570246920337 18.858934113039737 -1.8255270753225721 19.162854333414884 7.8065761275889685 -0.02798438412514213 9.3373808611498816 -3.0659186988467089 3.7403976710318858 6.8712788790437527 4.9893734913267949 23.080557412236168 -0.31499458677423608 0.92944774519979922 13.057731665610016 13.949672125397218 -1.8350774399463297 -3.0789949432082633 14.442717593381776 2.5570641723334235 19.32987658421785 13.167358564526491 15.151994384545324 5.6158446453479938 1.4433007392844879 -1.7084649114412307
leaf_weight=212 61 137 56 15.000000000000002 69 77 52 5.9999999999999991 4.9999999999999991 7.9999999999999991 7.0000000000000027 9.9999999999999982 158 18 447 54 27 11.999999999999998 5.9999999999999991 76 161 4.9999999999999991 13.999999999999998 140 119 4.9999999999999991 158 12.999999999999998 13.999999999999998 8.9999999999999982 22 87 329
leaf_count=212 61 137 56 15 69 77 52 6 5 8 7 10 158 18 447 54 27 12 6 76 161 5 14 140 119 5 158 13 14 9 22 87 329
internal_value=0.00964678 -0.793643 -1.88885 11.6598 -2.42938 2.14857 1.42003 2.008 9.21031 0.986227 15.6018 4.81472 -1.2858 8.71803 -3.21667 1.71619 4.19521 1.01099 17.7064 -1.70508 0.22885 7.43937 11.3553 -2.77236 -4.00462 10.0186 2.34585 16.758 15.1659 12.0943 3.46537 0.677135 -1.97052
internal_weight=2589 2422 1765 167 1550 657 516 215 103 464 64 141 632 98 918 209 126 155 40 474 298 66 32 587 331 15 166 34 21 24 99 143 398
internal_count=2589 2422 1765 167 1550 657 516 215 103 464 64 141 632 98 918 209 126 155 40 474 298 66 32 587 331 15 166 34 21 24 99 143 398
is_linear=0
shrinkage=0.115514


Tree=19
num_leaves=34
num_cat=0
split_feature=0 0 1 0 5 5 10 1 0 6 12 12 12 5 6 3 10 6 129 15 104 1 1 35 5 0 0 130 54 6 15 5 12
split_gain=1.42051e+06 457566 219074 94541 82360.3 74819.7 50819.9 38420.1 32510.4 31754.5 28682.9 27698.5 26650.8 20692.4 18007.3 17329.6 16637.7 15485.9 14907.3 14562.5 13976.6 15537.4 13019 12232.4 12086.6 12060.3 11952.8 13123.7 11512.9 11082.3 9094.87 8879.86 8461.56
threshold=93.000000000000014 21.000000000000004 50.750000000000007 165.00000000000003 48.750000000000007 206.25000000000003 61.500000000000007 108.60000228881837 39.000000000000007 31.500000000000004 9.5000000000000018 1.5000000000000002 1.0000000180025095e-35 11.250000000000002 85.500000000000014 6.5000000000000009 339.50000000000006 59.500000000000007 3.9999999999999991 747.4600009918214 74.428571428571445 33.300001144409187 5.1000001430511483 1324.0000000000002 41.250000000000007 9.0000000000000018 273.00000000000006 30.350000000000005 12.008196721311478 20.500000000000004 733.01000022888195 133.75000000000003 11.500000000000002
decision_type=2 2 2 2 2 2 2 2 2 2 2 2 2 2 2 2 2 2 2 2 2 2 2 2 2 2 2 2 2 2 2 2 2
left_child=1 2 4 10 13 6 8 24 29 15 18 -5 14 -1 23 25 -9 -10 19 -2 -21 -22 -15 -7 -4 -6 27 -13 -20 31 -26 -3 -8
right_child=3 5 7 11 9 12 32 16 17 -11 -12 26 -14 22 -16 -17 -18 -19 28 20 21 -23 -24 -25 30 -27 -28 -29 -30 -31 -32 -33 -34
leaf_value=-3.6849422592953762 5.3580044015100396 -0.73842781200609753 -0.76042404481965842 10.697194039539069 -2.4886351141966174 2.4195389093205608 4.4047486654557293 4.4148141650963817 1.8928010781642348 1.0054438362753013 16.680460193916193 16.391682880035322 8.861330610749441 -2.7750869850657773 7.093195264007476 -0.054771691729486233 11.669030428963113 6.3753142233896485 8.0178225956067273 11.886571573973319 6.0112907006754375 10.929396437720547 -1.6198153184495596 5.2248344219461016 1.3697542087753996 -1.2410845210437551 20.414427075202067 11.5405483714698 15.856765896239986 1.4231099371206171 4.5776761905434302 0.77032422267733791 9.4449921775378147
leaf_weight=263 34 149 34 24 173 80 40 27 158 83 4.9999999999999991 23 14.999999999999998 508 18 100 4.9999999999999991 10.999999999999998 4.9999999999999982 11.999999999999998 30 11.999999999999998 175 28 127 257 5.9999999999999991 10.999999999999998 5 73 12.999999999999998 80 4.9999999999999991
leaf_count=263 34 149 34 24 173 80 40 27 158 83 5 23 15 508 18 100 5 11 5 12 30 12 175 28 127 257 6 11 5 73 13 80 5
internal_value=0.00853243 -0.701966 -1.67066 10.3129 -2.13847 1.90038 1.25599 1.86971 0.901652 -1.09546 8.14639 13.7996 4.25855 -2.81433 3.7106 -1.42447 5.54829 2.18456 7.71097 7.23071 8.40982 7.41646 -2.47908 3.14684 1.19318 -1.74301 15.661 14.8222 11.9373 0.183733 1.66763 -0.211353 4.96478
internal_weight=2589 2422 1765 167 1559 657 516 206 471 613 103 64 141 946 126 530 32 169 98 88 54 42 683 108 174 430 40 34 10 302 140 229 45
internal_count=2589 2422 1765 167 1559 657 516 206 471 613 103 64 141 946 126 530 32 169 98 88 54 42 683 108 174 430 40 34 10 302 140 229 45
is_linear=0
shrinkage=0.115514


Tree=20
num_leaves=34
num_cat=0
split_feature=0 5 0 2 1 0 2 4 4 6 6 5 2 24 0 0 0 135 0 2 110 23 44 2 1 6 3 6 2 46 5 33 37
split_gain=1.15537e+06 264201 200765 120814 59220.5 59075.9 36648.7 25273.9 24639.1 25325.2 24546.1 20899.7 19104.8 17505.2 14518.8 14495.1 14338.1 14337.3 14466.9 13868.9 13321.1 13863.7 10526.1 10417.5 10049.2 13936.4 9634.68 9513.05 10061.6 9070.66 8882.11 8553.84 8440.41
threshold=51.000000000000007 111.25000000000001 129.00000000000003 15.000000000000002 66.299999237060561 9.0000000000000018 9.0000000000000018 133.50000000000003 23.750000000000004 101.50000000000001 57.500000000000007 11.250000000000002 93.000000000000014 4500.5000000000009 27.000000000000004 33.000000000000007 9.0000000000000018 29.697125682620193 147.00000000000003 1.0000000180025095e-35 550.1858988419558 692.00000000000011 824.29344617734205 33.000000000000007 7.0499999523162851 13.500000000000002 63.500000000000007 16.500000000000004 1.0000000180025095e-35 874.08196721311481 256.25000000000006 524.7233348952401 27.055555555555561
decision_type=2 2 2 2 2 2 2 2 2 2 2 2 2 2 2 2 2 2 2 2 2 2 2 2 2 2 2 2 2 2 2 2 2
left_child=1 3 8 5 10 11 13 16 9 20 14 -1 -6 22 19 27 23 18 -8 -3 31 -22 -4 -5 25 -13 32 28 -7 -12 -16 -2 -20
right_child=2 4 6 7 12 15 17 -9 -10 -11 29 24 -14 -15 30 -17 -18 -19 26 -21 21 -23 -24 -25 -26 -27 -28 -29 -30 -31 -32 -33 -34
leaf_value=-3.4909647338716603 2.9298859681908489 -0.56114680738958378 11.010641245597968 -0.69431336366305851 4.3278867640786496 -1.7413785503801715 9.6299869354175769 5.1221654387106099 7.3045256936021472 11.968352551881305 2.3441539815066958 -2.7159267881250715 11.838483307510241 10.99669870784034 1.0776527687104041 0.72653972756322382 2.3821149666923476 8.242453378581116 16.17743167855776 1.6697704064837298 5.0223294970155674 -1.2474736110482412 5.1627604155884494 1.1492123796099516 -1.4835029748955577 -1.2312687644557951 18.325201178925674 -0.20360310796217179 0.061986260725036067 5.8383808809853237 3.7784045363030958 -1.5922576108978559 12.228481976446208
leaf_weight=225 80 165 5.0000000000000027 105 47 295 12.999999999999998 17 33 4.9999999999999991 57 488 4.9999999999999991 15.999999999999998 167 59 43 9.9999999999999982 9.9999999999999982 48 80 4.9999999999999991 23 67 185 102 5.9999999999999991 99 48 11.999999999999998 18 5.9999999999999991 26
leaf_count=225 80 165 5 105 47 295 13 17 33 5 57 488 5 16 167 59 43 10 10 48 80 5 23 67 185 102 6 99 48 12 18 6 26
internal_value=-0.013687 -0.934049 6.50409 -1.61875 1.35225 -1.99793 10.5232 0.834492 4.40803 3.86493 0.940506 -2.51088 5.05006 7.94872 0.591807 -0.974096 0.495466 12.2659 12.9974 -0.0584049 3.62799 4.65352 6.20702 0.0238042 -2.22634 -2.45926 14.0397 -1.2011 -1.48901 2.95185 1.34043 2.61439 13.3254
internal_weight=2570 2252 318 1733 519 1501 109 232 209 176 467 1000 52 44 398 501 215 65 55 213 171 85 28 172 775 590 42 442 343 69 185 86 36
internal_count=2570 2252 318 1733 519 1501 109 232 209 176 467 1000 52 44 398 501 215 65 55 213 171 85 28 172 775 590 42 442 343 69 185 86 36
is_linear=0
shrinkage=0.115514


Tree=21
num_leaves=34
num_cat=0
split_feature=8 5 7 2 8 1 2 2 8 5 4 5 8 8 30 2 6 2 35 6 6 79 8 8 1 1 8 4 107 23 37 5 1
split_gain=907782 245144 107442 100707 55892.4 42589 24573.8 24438 23930.3 21379.3 21768.8 20418.6 15610.6 15395.3 15236.3 14902.6 14444.9 13913.9 12820.6 12692.8 12596.3 13132.3 12497.2 11728.2 10985.3 10464.2 9387.44 8751.05 8466.24 9399.73 8445.8 8312.62 7795.74
threshold=10.500000000000002 111.25000000000001 579.50000000000011 15.000000000000002 2.5000000000000004 89.75000381469728 9.0000000000000018 57.000000000000007 5.5000000000000009 312.50000000000006 16.250000000000004 11.250000000000002 23.500000000000004 5.5000000000000009 4505.0000000000009 1.0000000180025095e-35 23.500000000000004 1.0000000180025095e-35 4230.2777777777783 52.500000000000007 52.500000000000007 1555.0497448979595 1.5000000000000002 2.5000000000000004 7.0499999523162851 66.299999237060561 1.5000000000000002 2.2500000000000004 4069.8571428571431 244.00000000000003 30.055555555555561 188.75000000000003 65.00000381469728
decision_type=2 2 2 2 2 2 2 2 2 2 2 2 2 2 2 2 2 2 2 2 2 2 2 2 2 2 2 2 2 2 2 2 2
left_child=1 3 9 4 11 8 14 22 17 10 31 -1 -8 -7 -4 -6 24 19 28 26 21 27 32 -9 -13 30 -3 -10 29 -12 -14 -2 -5
right_child=2 5 6 7 15 13 12 23 20 -11 18 16 25 -15 -16 -17 -18 -19 -20 -21 -22 -23 -24 -25 -26 -27 -28 -29 -30 -31 -32 -33 -34
leaf_value=-3.0525534816765054 2.2230746003367345 -2.673086775121845 5.5982418990475242 -0.7435456679499397 -0.75726631187366378 4.1143419984054885 7.1271182733793577 2.97761336430804 1.040148203631645 10.968187553917653 9.0990614904798441 -2.1937612133710647 14.308428606670327 10.954787525014549 10.15878543034953 1.2602374096297611 -0.18063209384476545 1.9804361571378579 0.46061679101016351 1.6502646935730865 4.2706824466357407 7.0095584444531402 2.1268029168426863 9.2026547512875574 -1.2203626229224247 17.148750566885553 -0.043357550164914722 3.0419095176692528 11.102117231696775 5.2756659100347525 10.582769430482688 4.7784220092496659 0.85747907474624674
leaf_weight=238 49 20 23 93 263 36 9.9999999999999982 21.000000000000004 125 6.9999999999999991 10.999999999999998 695 10.999999999999998 4.9999999999999991 17 60 64 67 4.9999999999999991 57 30 5.9999999999999991 45 4.9999999999999991 199 4.9999999999999991 192 38 4.9999999999999991 39 31 26 72
leaf_count=238 49 20 23 93 263 36 10 21 125 7 11 695 11 5 17 60 64 67 5 57 30 6 45 5 199 5 192 38 5 39 31 26 72
internal_value=-0.012106 -0.70727 6.76792 -1.38592 -1.73083 1.3605 9.73126 0.834059 1.08553 4.74367 4.42092 -2.09497 11.2715 4.94854 7.53647 -0.382498 -1.85707 0.490976 6.06091 0.119995 2.08939 1.70218 0.420452 4.17474 -1.97709 12.1532 -0.291445 1.50682 6.57002 6.11681 11.5585 3.10893 -0.0449167
internal_weight=2570 2331 239 1755 1519 576 97 236 535 142 135 1196 57 41 40 323 958 336 60 269 199 169 210 26 894 47 212 163 55 50 42 75 165
internal_count=2570 2331 239 1755 1519 576 97 236 535 142 135 1196 57 41 40 323 958 336 60 269 199 169 210 26 894 47 212 163 55 50 42 75 165
is_linear=0
shrinkage=0.115514


Tree=22
num_leaves=34
num_cat=0
split_feature=0 0 10 5 2 0 5 7 6 121 7 6 2 1 3 2 1 111 42 0 130 16 45 133 27 112 126 50 5 1 77 33 0
split_gain=702004 230128 99215.7 68559.9 54210.8 48206.9 24856.3 23868.4 20738.1 19155.5 18577.4 16390.4 13011.3 12690.2 12678.9 12577.3 12047.1 11018.5 9780.68 8643.84 7314.97 7006.1 10165.9 6794.51 6672.74 6608.21 6309.66 6291.92 6219.4 6072.19 6034.24 8336.66 5980.81
threshold=93.000000000000014 15.000000000000002 140.50000000000003 198.75000000000003 9.0000000000000018 225.00000000000003 18.750000000000004 579.50000000000011 36.500000000000007 0.99147117657755968 314.50000000000006 22.500000000000004 69.000000000000014 8.2000002861022967 3.5000000000000004 9.0000000000000018 108.60000228881837 288.58974358974365 22.055555555555561 27.000000000000004 37.70000000000001 18.500000000000004 489.00819672131155 191.50000000000003 2.5000000000000004 917.56410256410254 579.0299937725066 1.1311475409836069 26.250000000000004 3.6000000238418584 1055.3577628804715 1222.6877704229621 81.000000000000014
decision_type=2 2 2 2 2 2 2 2 2 2 2 2 2 2 2 2 2 2 2 2 2 2 2 2 2 2 2 2 2 2 2 2 2
left_child=1 2 6 4 8 7 29 17 10 14 19 13 -6 -8 23 18 28 24 -9 -3 27 22 -7 -5 -2 -10 -17 -19 -4 -1 -20 -32 -21
right_child=5 3 16 9 12 21 11 15 25 -11 -12 -13 -14 -15 -16 26 -18 20 30 32 -22 -23 -24 -25 -26 -27 -28 -29 -30 -31 31 -33 -34
leaf_value=-2.7194083785681196 4.748430330419402 -0.72083368325942465 -1.8880110335893805 0.13291364844830583 2.6404332721841395 10.584551624065302 -1.7818854485513824 1.670443260377543 1.4199343835367844 9.1443666201365019 3.2203163770573693 0.10445334169873158 7.0454547584671348 -0.78104471688023547 5.7342097254067417 8.8313143625917938 3.4807661009824407 2.2531205795111351 10.850196869615051 0.32350970201189072 0.38792353103183985 9.128905953839805 16.612371586741308 2.834784993236303 9.7216322552171555 5.3714698793388616 13.226182590825516 5.4097834497693569 1.1075797404161156 -1.7493312040341498 3.6109289961951538 7.9167465910874757 -3.7155666232062079
leaf_weight=287 5.9999999999999991 277 9.9999999999999982 13.999999999999998 85 7.0000000000000027 623 4.9999999999999991 96 6.9999999999999991 21 93 9.9999999999999982 232 19 34 29 10.999999999999998 4.9999999999999991 226 5.9999999999999991 5.9999999999999991 7.9999999999999991 110 8.9999999999999982 5.9999999999999991 4.9999999999999991 36 123 123 9.0000000000000018 18 4.9999999999999991
leaf_count=287 6 277 10 14 85 7 623 5 96 7 21 93 10 232 19 34 29 11 5 226 6 6 8 110 9 6 5 36 123 123 9 18 5
internal_value=0.00673116 -0.495148 -1.35457 0.996088 0.531577 7.29462 -1.67691 6.54061 0.144269 3.24432 -0.14652 -1.3519 3.10412 -1.51031 2.9555 7.94735 1.3475 4.96837 6.4217 -0.2857 4.18611 12.465 13.7994 2.52974 7.73235 1.65238 9.39476 4.67099 0.882347 -2.42839 7.16409 6.48147 0.236084
internal_weight=2561 2396 1520 876 726 165 1358 144 631 150 529 948 95 855 143 76 162 68 37 508 53 21 15 124 15 102 39 47 133 410 32 27 231
internal_count=2561 2396 1520 876 726 165 1358 144 631 150 529 948 95 855 143 76 162 68 37 508 53 21 15 124 15 102 39 47 133 410 32 27 231
is_linear=0
shrinkage=0.115514


Tree=23
num_leaves=34
num_cat=0
split_feature=0 7 1 5 0 2 0 2 7 1 0 1 6 11 6 81 34 18 6 6 7 27 50 7 40 44 5 0 26 7 84 19 0
split_gain=549189 182490 76069.2 46283.4 37713 33199.2 31147.3 22598.7 18672.6 15733.4 15024.8 12788.7 17800.5 11042.6 10902.8 10251.7 20549.4 9240.48 8996.91 8824.86 8453.57 7337.71 7171.89 6285.94 6080.11 5778.82 5614.37 5454.76 5418.24 5371.03 6843.67 5283.08 5108.21
threshold=93.000000000000014 68.500000000000014 66.299999237060561 198.75000000000003 225.00000000000003 9.0000000000000018 1.0000000180025095e-35 105.00000000000001 579.50000000000011 13.450000286102297 27.000000000000004 7.2500000000000009 16.500000000000004 51.500000000000007 65.500000000000014 20.093112244897963 450.27777777777783 50.547261558827906 37.500000000000007 78.500000000000014 326.50000000000006 2.5000000000000004 1.0000000180025095e-35 679.50000000000011 115.55555555555559 1282.6345856932346 8.7500000000000018 81.000000000000014 56.500000000000007 104.50000000000001 1.0000000180025095e-35 36.983958684735832 51.000000000000007
decision_type=2 2 2 2 2 2 2 2 2 2 2 2 2 2 2 2 2 2 2 2 2 2 2 2 2 2 2 2 2 2 2 2 2
left_child=1 2 6 5 8 10 13 31 17 19 18 12 -8 26 20 22 -17 21 29 24 27 -2 -10 -6 -5 28 -1 -12 -18 30 -3 -4 -21
right_child=4 3 7 9 23 -7 11 -9 15 -11 14 -13 -14 -15 -16 16 25 -19 -20 32 -22 -23 -24 -25 -26 -27 -28 -29 -30 -31 -32 -33 -34
leaf_value=-3.0707590895460251 4.1999194788191083 -4.0588660611103444 0.84585097699268896 1.8206200358134252 7.4500076932200958 2.7453588202065426 -1.4177108547168806 9.1194039656849206 6.7549853457829494 7.0705487485195819 0.57332984793372255 0.050626611845653473 -0.04915199882814577 -1.3145586412808812 3.8989153763554558 12.727131895116299 5.3756505177817537 3.7397917704734809 0.8333842989072191 3.3798752662550449 3.025274052477811 9.7049856838805457 1.1070308536664133 12.142297012980531 4.5666964116285653 8.7065045704931201 -2.0711151649720696 -3.2863661344313466 8.7366945213035052 0.25879280851528291 -0.92202820757441406 2.6833464130466904 6.8880011446578147
leaf_weight=98 5.9999999999999982 9.9999999999999982 106 104 5.0000000000000027 83 548 4.9999999999999991 5.9999999999999982 10.999999999999998 214 157 165 234 14.999999999999998 8.9999999999999982 32 55 61 18.000000000000004 19 7 6 15.999999999999998 11.999999999999998 14.999999999999998 319 4.9999999999999991 7.9999999999999991 49 129 26 7.9999999999999991
leaf_count=98 6 10 106 104 5 83 548 5 6 11 214 157 165 234 15 9 32 55 61 18 19 7 6 16 12 15 319 5 8 49 129 26 8
internal_value=0.00595362 -0.437951 -1.11054 1.07309 6.45199 0.605259 -1.34536 1.49653 5.78508 2.86185 0.251418 -0.893181 -1.101 -1.94966 0.878358 7.02932 7.61025 4.39446 -0.385594 2.53582 0.687987 7.16419 3.93101 11.0251 2.1047 6.77294 -2.30604 0.485209 6.04786 -0.781114 -1.1477 1.20778 4.4593
internal_weight=2561 2396 1658 738 165 585 1521 137 144 153 502 870 713 651 253 76 64 68 249 142 238 13 12 21 116 55 417 219 40 188 139 132 26
internal_count=2561 2396 1658 738 165 585 1521 137 144 153 502 870 713 651 253 76 64 68 249 142 238 13 12 21 116 55 417 219 40 188 139 132 26
is_linear=0
shrinkage=0.115514


Tree=24
num_leaves=34
num_cat=0
split_feature=7 5 5 2 7 2 3 5 7 38 6 8 2 7 7 6 42 44 8 112 37 1 6 2 5 43 19 1 8 4 120 8 19
split_gain=435930 145706 41791.3 33627.9 28649.5 27801.6 24351.2 23349.1 17195.8 16958 15613.3 15049.4 10429.8 9920.94 8607.29 8454.75 7394.57 7130.7 6984.43 6766.99 6749.7 9668.27 6034.39 6013.43 5987.1 5794.45 5558.61 5427.92 5411 5410.28 5306.87 5289.77 5200.13
threshold=398.00000000000006 73.750000000000014 198.75000000000003 1.0000000180025095e-35 699.00000000000011 21.000000000000004 54.500000000000007 338.75000000000006 181.50000000000003 62.222222222222236 47.500000000000007 1.0000000180025095e-35 45.000000000000007 611.50000000000011 104.50000000000001 83.500000000000014 25.944444444444446 824.29344617734205 4.5000000000000009 917.56410256410254 58.055555555555564 13.450000286102297 12.500000000000002 1.0000000180025095e-35 6.2500000000000009 15.833333333333337 85.207735216515701 19.650000572204593 2.5000000000000004 134.25000000000003 13.148351648351651 1.0000000180025095e-35 69.980151739987477
decision_type=2 2 2 2 2 2 2 2 2 2 2 2 2 2 2 2 2 2 2 2 2 2 2 2 2 2 2 2 2 2 2 2 2
left_child=1 3 5 11 6 10 13 9 12 15 14 24 31 20 23 18 17 -15 -4 -12 21 -2 27 28 -1 -11 -6 32 -3 -7 -20 -5 -13
right_child=4 2 7 8 26 29 -8 -9 -10 25 19 22 -14 16 -16 -17 -18 -19 30 -21 -22 -23 -24 -25 -26 -27 -28 -29 -30 -31 -32 -33 -34
leaf_value=-3.0042081314301021 3.1891630121648258 -1.1027922633039082 -0.53185005981534672 -1.1187166425705926 8.2712054232901338 1.5174917294778409 10.987362254697436 8.3634659413467247 1.8578512171933508 8.67223075725523 1.0998242688623368 -1.4343000434017612 1.5704486777717028 7.2288530224820784 0.81557037451984793 3.5224759875651293 7.3225816378236201 2.0878230884150053 3.9044190196824671 4.6039905960653327 2.0780512957573651 5.9054012359065799 -0.43569402049322459 0.41655443093061084 -1.8234826172288758 4.0450043112931331 12.088190023841271 1.8718716168698006 -0.23685285918581334 3.3560854925976837 1.3183354103358089 -0.1427564695074266 1.231561394230934
leaf_weight=67 34 157 25 182 14.000000000000002 90 8.9999999999999982 7.9999999999999991 46 5.0000000000000027 91 413 29 5.9999999999999991 97 25 28 8.9999999999999982 11.999999999999998 7.9999999999999991 18 36 136 103 396 12.999999999999998 7.9999999999999991 6.9999999999999991 249 28 90 125 9.9999999999999982
leaf_count=67 34 157 25 182 14 90 9 8 46 5 91 413 29 6 97 25 28 9 12 8 18 36 136 103 396 13 8 7 249 28 90 125 10
internal_value=-0.0165229 -0.406113 0.659824 -1.16232 5.78405 0.312711 5.17509 2.26473 -0.236772 1.97774 0.0380378 -1.50591 -0.523536 4.77578 -0.181682 1.58072 6.21386 4.14424 1.19848 1.38299 4.07308 4.58609 -1.10636 -0.371728 -1.99434 5.33034 9.6592 -1.31848 -0.571711 1.95377 1.62258 -0.721339 -1.37128
internal_weight=2574 2412 1001 1411 162 823 140 178 382 170 705 1029 336 131 606 152 43 15 127 99 88 70 566 509 463 18 22 430 406 118 102 307 423
internal_count=2574 2412 1001 1411 162 823 140 178 382 170 705 1029 336 131 606 152 43 15 127 99 88 70 566 509 463 18 22 430 406 118 102 307 423
is_linear=0
shrinkage=0.115514


Tree=25
num_leaves=34
num_cat=0
split_feature=0 5 0 1 4 5 5 7 130 49 11 7 6 6 6 37 4 4 6 3 131 28 0 14 79 0 120 3 7 133 14 7 9
split_gain=341332 88652 69425.9 27474.2 17271.3 15704.8 15390 17043.3 13695.2 12885.1 12630.4 11198.1 10526.8 7900.11 7490.28 7526.57 7407.55 7223.33 7822.29 6273.69 6634.74 6382.91 6204.43 5619.2 5518.05 5508.72 5302.03 5263.81 5139.92 4928.75 6411.77 4982.29 4829.85
threshold=51.000000000000007 66.250000000000014 147.00000000000003 90.25000381469728 29.750000000000004 133.75000000000003 338.75000000000006 398.00000000000006 30.350000000000005 100.2777777777778 1531.5000000000002 181.50000000000003 10.500000000000002 59.500000000000007 61.500000000000007 6.7222222222222232 32.750000000000007 20.250000000000004 27.500000000000004 16.500000000000004 7.5000000000000009 3.5000000000000004 9.0000000000000018 1234.3400020599368 1555.0497448979595 1.0000000180025095e-35 17.34615384615385 1.0000000180025095e-35 77.500000000000014 214.50000000000003 52.020000055432327 152.50000000000003 2.5000000000000004
decision_type=2 2 2 2 2 2 2 2 2 2 2 2 2 2 2 2 2 2 2 2 2 2 2 2 2 2 2 2 2 2 2 2 2
left_child=1 4 6 5 11 17 7 13 16 -10 28 12 -1 29 15 22 -4 18 25 20 -9 -21 -7 -23 -24 -3 -11 -16 -5 31 -31 -2 -17
right_child=2 3 8 10 -6 14 -8 19 9 26 -12 -13 -14 -15 27 32 -18 -19 -20 21 -22 23 24 -25 -26 -27 -28 -29 -30 30 -32 -33 -34
leaf_value=-1.5358501242781635 0.80606354060945373 -2.2630845509625028 6.755696720394905 1.4586101165671936 -0.098739772277330273 -2.1305557348197492 7.8965631901123183 1.574517940839582 9.0861695905310977 3.0705260428642007 7.9921564977250421 1.0576675334799381 -0.58379427724056776 4.4336244710012771 1.4133471630123979 0.93801527847842647 9.9147015859712671 0.52171188210008779 0.37903452527118892 6.2413727358111153 4.2930463230635425 0.35947831220953697 0.28020269985476925 5.1769517332992105 3.8327579169405461 -0.5953487156973104 6.6836481205662031 4.2044037944608199 3.6976946187308881 -2.2835307410990979 1.1545166900922854 3.437628295018913 3.3032587102097759
leaf_weight=882 15.999999999999998 29 26 57 183 13.999999999999998 6.9999999999999991 25 7.9999999999999991 24.000000000000004 4.9999999999999991 26 188 11.999999999999998 50 32 15.999999999999998 130 111 20 23 5.9999999999999982 211 7 5.9999999999999991 298 6.9999999999999991 10.999999999999998 18 7.9999999999999991 76 24 18
leaf_count=882 16 29 26 57 183 14 7 25 8 24 5 26 188 12 50 32 16 130 111 20 23 6 211 7 6 298 7 11 18 8 76 24 18
internal_value=-0.0146143 -0.502313 3.61355 0.318378 -1.13756 0.13795 2.56554 2.39357 6.51174 4.95301 2.37075 -1.31102 -1.36857 1.60352 0.756382 0.504508 7.95913 -0.234415 -0.458837 3.72007 2.87715 4.94615 0.22637 2.9535 0.37843 -0.743252 3.88639 1.91665 1.99599 1.32964 0.827084 2.385 1.7895
internal_weight=2574 2269 305 990 1279 910 224 217 81 39 80 1096 1070 136 342 281 42 568 438 81 48 33 231 13 217 327 31 61 75 124 84 40 50
internal_count=2574 2269 305 990 1279 910 224 217 81 39 80 1096 1070 136 342 281 42 568 438 81 48 33 231 13 217 327 31 61 75 124 84 40 50
is_linear=0
shrinkage=0.115514


Tree=26
num_leaves=34
num_cat=0
split_feature=8 5 8 2 2 8 8 8 2 6 11 24 4 7 15 44 7 99 1 6 27 6 5 50 5 1 15 24 134 131 15 45 48
split_gain=270436 72458.2 48887.5 30136.6 15142.6 14288.2 13879.7 13450.8 10532.8 9663.4 9656.64 9648.38 8693.67 7517.1 7301.63 7088.55 8924.99 6682.69 6333.34 6638.03 5988.12 5804.43 5529.09 5382.56 5228.74 5132.42 4663.45 4627.01 4538.34 3881 3663.13 6107.89 4671.07
threshold=9.5000000000000018 91.250000000000014 21.500000000000004 21.000000000000004 33.000000000000007 39.500000000000007 1.0000000180025095e-35 1.5000000000000002 69.000000000000014 69.500000000000014 1278.5000000000002 1601.0000000000002 4.7500000000000009 148.50000000000003 1381.9000096321108 791.09888415866442 606.50000000000011 1248.5414340155467 27.750000000000004 69.500000000000014 417.00000000000006 15.500000000000002 23.750000000000004 6.5564663023679426 8.7500000000000018 6.8499999046325692 1287.1700119972231 179.50000000000003 69.500000000000014 6.5000000000000009 264.53000098466879 106.66393442622953 39.754742547425479
decision_type=2 2 2 2 2 2 2 2 2 2 2 2 2 2 2 2 2 2 2 2 2 2 2 2 2 2 2 2 2 2 2 2 2
left_child=1 3 14 6 7 8 24 23 15 11 13 25 21 22 18 -4 -17 -18 19 26 -20 -8 -5 -3 -1 28 30 -27 -9 -7 32 -32 -2
right_child=2 4 5 10 -6 29 12 9 -10 -11 -12 -13 -14 -15 -16 16 17 -19 20 -21 -22 -23 -24 -25 -26 27 -28 -29 -30 -31 31 -33 -34
leaf_value=-2.0657147248113392 2.9707385875792709 -1.2265071044765565 7.3224019593219207 -1.4778264653884723 2.2592146199742569 7.392702649222378 -1.0803242289375481 -1.634944225478171 9.5898307785938623 2.2489591833068023 5.2449023814141542 3.9833305651293345 0.07450890434490906 4.9094118091451815 -1.7573865805180757 2.7607608990375589 3.9100437396811922 6.8275317265252529 5.5953593926258183 5.8188648676576342 1.4574876937321921 -0.22037166010867393 0.64927704684006837 2.110587465535644 -1.2661497806519535 -0.70598316696907315 5.3494848884334001 1.7014474534368256 0.2890454358079777 11.606400369944561 -1.2701130131304754 1.6731868611369045 -0.24695875292531216
leaf_weight=140 43 82 10.999999999999998 19 61 6.9999999999999982 507 17 5.9999999999999991 42 5.9999999999999991 9.9999999999999982 150 4.9999999999999991 5.9999999999999991 33 22 20 14.000000000000002 5.9999999999999991 6.9999999999999991 132 115 6.9999999999999991 495 12.999999999999998 4.9999999999999991 59 434 5 10.999999999999998 65 6.9999999999999991
leaf_count=140 43 82 11 19 61 7 507 17 6 42 6 10 150 5 6 33 22 20 14 6 7 132 115 7 495 13 5 59 434 5 11 65 7
internal_value=-0.0319358 -0.437583 3.44028 -0.878889 0.517464 5.39945 -1.04044 0.357454 4.91046 0.561998 0.707618 0.429067 -0.716904 0.511764 2.19788 4.58399 4.18236 5.29932 2.34808 2.06175 4.21607 -0.902681 0.347673 -0.964039 -1.44243 0.361108 1.88967 1.26677 0.216523 9.14841 1.75237 1.24718 2.52026
internal_weight=2562 2294 268 1569 725 104 1424 664 92 575 145 533 789 139 164 86 75 42 158 137 21 639 134 89 635 523 131 72 451 12 126 76 50
internal_count=2562 2294 268 1569 725 104 1424 664 92 575 145 533 789 139 164 86 75 42 158 137 21 639 134 89 635 523 131 72 451 12 126 76 50
is_linear=0
shrinkage=0.115514


Tree=27
num_leaves=34
num_cat=0
split_feature=7 0 4 1 0 0 1 5 0 121 2 14 5 7 26 105 44 49 14 5 26 19 31 31 5 130 17 130 29 118 117 117 5
split_gain=211938 75852.5 28874.4 17831.4 18363 15861 11860.7 11720 10296.6 7272.77 7055.35 6336.14 6076.69 6071.96 6603.98 5520.85 5139.11 5342.76 5130.14 4981.67 4755.77 4418.62 4206.21 7322.25 4199.67 4149.75 4143.34 4071.15 4036.29 3939.51 5040.24 4879.55 4122.08
threshold=422.50000000000006 15.000000000000002 43.250000000000007 27.750000000000004 33.000000000000007 231.00000000000003 66.299999237060561 338.75000000000006 1.0000000180025095e-35 0.83677143341240268 33.000000000000007 1170.0400040149691 133.75000000000003 611.50000000000011 22.500000000000004 9.4285714285714306 17.12000006437302 1.0000000180025095e-35 701.23999786376964 153.75000000000003 28.500000000000004 37.997132459107576 28.500000000000004 27.500000000000004 146.25000000000003 32.650000000000013 17.500000000000004 27.650000000000002 71.500000000000014 1683.7307692307693 97.093406593406613 89.474358974358992 256.25000000000006
decision_type=2 2 2 2 2 2 2 2 2 2 2 2 2 2 2 2 2 2 2 2 2 2 2 2 2 2 2 2 2 2 2 2 2
left_child=1 2 8 4 12 6 13 9 -1 16 24 -8 -3 18 -15 -5 -6 21 20 -19 -2 -18 23 -20 -4 -24 -12 -11 -29 30 31 32 -30
right_child=5 3 10 15 7 -7 11 -9 -10 27 26 -13 -14 14 -16 -17 17 19 22 -21 -22 -23 25 -25 -26 -27 -28 28 29 -31 -32 -33 -34
leaf_value=-1.3467121768891424 3.2263800296195666 -0.37846169309848282 -0.30163648383784314 2.0216019193577894 -2.8812828284606242 7.6689191027559813 4.6447923892209131 6.5973708335944279 -0.69066062459082833 3.0571822870073331 0.87317987019776555 10.460165582300798 0.51277908529425265 2.06376202552197 5.1721885782349162 5.9986433486937685 1.1904795293420112 0.59358659735827657 2.2209578225432027 -1.1001153697729744 7.1580306722886107 4.8062420674867026 4.1062815612596113 -2.3102818684274404 2.817050071704057 1.3584161718825547 3.9975748536752005 2.0674315926753097 0.15998504024913046 3.9657073041294706 -0.70826862294243331 3.5485624228920782 2.7069127982751988
leaf_weight=620 13.000000000000002 299 145 68 5.9999999999999991 14.999999999999998 4.9999999999999982 4.9999999999999991 658 20 101 5 155 11.999999999999998 38 4.9999999999999991 46 84 23.000000000000004 32 5.9999999999999991 4.9999999999999991 22 5.9999999999999991 5.9999999999999991 10.999999999999998 5.9999999999999991 56 37 4.9999999999999991 26 9.9999999999999982 10.999999999999998
leaf_count=620 13 299 145 68 6 15 5 5 658 20 101 5 155 12 38 5 46 84 23 32 6 5 22 6 6 11 6 56 37 5 26 10 11
internal_value=-0.0282467 -0.295772 -0.783903 0.566031 0.407761 4.09781 3.71791 1.04567 -1.00893 0.963543 0.330781 7.55248 -0.0741835 3.4252 4.42617 2.294 0.440249 0.559586 2.80731 0.126358 4.46795 1.54497 2.29841 1.28346 -0.177715 3.19033 1.04838 1.51221 1.29911 0.81567 0.628168 1.22726 0.743656
internal_weight=2562 2406 1536 870 797 156 141 343 1278 338 258 10 454 131 50 73 173 167 81 116 19 51 62 29 151 33 107 165 145 89 84 58 48
internal_count=2562 2406 1536 870 797 156 141 343 1278 338 258 10 454 131 50 73 173 167 81 116 19 51 62 29 151 33 107 165 145 89 84 58 48
is_linear=0
shrinkage=0.115514


Tree=28
num_leaves=34
num_cat=0
split_feature=7 0 4 12 12 5 0 130 6 7 103 1 11 5 7 6 23 133 82 38 133 27 135 80 30 113 5 7 130 75 50 129 26
split_gain=162518 61593.1 25971.4 25034.3 11868.2 11869.4 9628.55 9318.88 8879.8 7709.85 7550.58 5856.56 5799.41 5431.51 5177.22 5032.33 4943.69 4732.57 4304.88 4266.68 4160.37 4092.28 4010.31 3809.02 5814.24 5760.1 3694.1 3421.25 4524.48 3391.37 3381.87 3310.46 3221.52
threshold=449.50000000000006 15.000000000000002 141.00000000000003 2.5000000000000004 1.0000000180025095e-35 176.25000000000003 147.00000000000003 31.750000000000004 22.500000000000004 186.50000000000003 3.2142857142857149 146.85000610351565 35.500000000000007 123.75000000000001 7.5000000000000009 27.500000000000004 695.50000000000011 229.00000000000003 101.12244897959185 60.166666666666679 189.50000000000003 18.500000000000004 30.209747361319476 25.948979591836743 4568.5000000000009 24.232600732600734 26.250000000000004 120.50000000000001 27.650000000000002 24.937500000000004 1.3918432626949222 2.7804382516369461e-15 13.500000000000002
decision_type=2 2 2 2 2 2 2 2 2 2 2 2 2 2 2 2 2 2 2 2 2 2 2 2 2 2 2 2 2 2 2 2 2
left_child=1 3 4 8 5 15 16 17 12 10 22 26 14 -6 -1 21 23 32 -9 -12 -15 -3 27 25 -25 -2 -5 -7 -29 -20 -31 -19 -8
right_child=6 2 -4 11 13 9 7 18 -10 -11 19 -13 -14 20 -16 -17 -18 31 29 -21 -22 -23 -24 24 -26 -27 -28 28 -30 30 -32 -33 -34
leaf_value=-1.763036558430634 2.9368264491725866 -0.46332669967916384 6.6999379880282648 -0.7731140165137681 0.87274989799303937 0.18512459207874285 2.1033144076394574 5.7385822993973408 0.24043277335936888 5.0456267102126509 -1.052189198151577 4.3005283762468043 -0.56118844043390748 5.1246856260383318 -0.99675971937490537 0.63319043665783159 -0.88221158018608137 9.7443706157149528 -0.39772786990358039 1.5472606578302093 1.9055864782579885 0.45850651589754232 3.2505347531667685 -0.37340509392274746 3.967268763659535 6.7749888114481616 0.49515714947605155 3.744033094454235 1.1646345034218772 0.29422661512160064 3.7117807537170524 5.7198406759615361 5.2324282158677748
leaf_weight=140 40 297 8.9999999999999982 36 120 43 4.9999999999999991 5.9999999999999991 88 5.9999999999999991 36 4.9999999999999991 347 5.9999999999999991 737 107 4.9999999999999991 4.9999999999999982 5.0000000000000027 10.999999999999998 50 82 11.999999999999998 10.000000000000002 6.9999999999999991 5.9999999999999991 206 9.9999999999999982 98 5.0000000000000027 17 6 36
leaf_count=140 40 297 9 36 120 43 5 6 88 6 36 5 347 6 737 107 5 5 5 11 50 82 12 10 7 6 206 10 98 5 17 6 36
internal_value=-0.0138117 -0.242267 0.526216 -0.679499 0.462932 0.250281 3.63848 4.45811 -0.880344 0.96276 0.846106 0.38734 -0.960923 1.31112 -1.11908 -0.0663768 2.61395 5.42163 2.93983 -0.443807 2.25049 -0.26388 1.21804 2.89143 1.41393 3.43746 0.306489 1.05652 1.40347 2.31788 2.93506 7.54917 4.85083
internal_weight=2599 2446 887 1559 878 702 153 85 1312 216 210 247 1224 176 877 486 68 52 33 47 56 379 163 63 17 46 242 151 108 27 22 11 41
internal_count=2599 2446 887 1559 878 702 153 85 1312 216 210 247 1224 176 877 486 68 52 33 47 56 379 163 63 17 46 242 151 108 27 22 11 41
is_linear=0
shrinkage=0.115514


Tree=29
num_leaves=34
num_cat=0
split_feature=7 5 2 2 0 7 0 130 2 6 4 7 47 18 37 0 133 82 6 1 31 31 119 128 43 132 130 0 23 18 15 7 0
split_gain=127351 49198 17720.9 11809.1 11390.3 10419.3 8299.35 7955.95 7034.11 7668.33 5750.34 5733.14 5093.17 4382.06 5575.81 4245.28 4119.52 3761.39 3718.8 4750.88 3563.16 5410.84 5823.89 4768.83 3523.93 3376.41 3367.98 3914.32 4760.74 3344.26 4233.85 3720.53 3304.68
threshold=326.50000000000006 106.25000000000001 15.000000000000002 93.000000000000014 147.00000000000003 186.50000000000003 1.0000000180025095e-35 31.750000000000004 21.000000000000004 69.500000000000014 134.25000000000003 150.50000000000003 5.5163934426229515 45.349666481465114 15.888888888888891 15.000000000000002 229.00000000000003 101.12244897959185 19.500000000000004 2.3000000715255742 29.500000000000004 25.500000000000004 23.168498168498171 -0.50000000000000255 18.722222222222225 68.500000000000014 33.050000000000004 9.0000000000000018 80.500000000000014 88.681500595808046 562.30999851226818 640.00000000000011 9.0000000000000018
decision_type=2 2 2 2 2 2 2 2 2 2 2 2 2 2 2 2 2 2 2 2 2 2 2 2 2 2 2 2 2 2 2 2 2
left_child=1 2 6 5 13 8 -1 16 9 11 32 24 -11 -2 -15 -10 29 -9 19 -8 21 22 -16 -22 25 -3 27 28 -27 30 31 -6 -4
right_child=4 3 10 -5 7 -7 18 17 15 12 -12 -13 -14 14 20 -17 -18 -19 -20 -21 23 -23 -24 -25 -26 26 -28 -29 -30 -31 -32 -33 -34
leaf_value=-1.0356789092025644 4.1053410311489156 -2.2556824265891544 -0.018529500202501398 6.1944966487787934 7.5116376202664661 4.7029114240064338 -0.75090925484959636 5.0756948667904487 0.90009028596274709 1.0251055705804573 2.558678100802505 1.3409576826707124 3.6429644612981606 -1.9916618399749921 1.5091349752436158 2.8947776399885532 6.6771362602900144 1.8983195906021046 0.1221261885777223 -0.10242257747325108 -0.29110974538004991 -0.22481763158619547 4.973166118805052 3.6042724394017314 2.708186276755769 -0.049145905544250058 -1.2579766971451078 0.31106279768474127 -2.8143826763392505 6.969960694741383 2.7667332882539957 3.798113034764782 1.0668534791474071
leaf_weight=620 11.999999999999998 7.9999999999999991 170 4.9999999999999991 5.9999999999999991 7.9999999999999991 562 5.9999999999999991 35 34 14.999999999999998 59 13.999999999999998 4.9999999999999991 34 24 10.999999999999998 29 117 206 5.0000000000000027 18 7.9999999999999991 26 6.9999999999999991 27 22 410 11.999999999999998 4.9999999999999991 22 8.9999999999999982 48
leaf_count=620 12 8 170 5 6 8 562 6 35 34 15 59 14 5 34 24 11 29 117 206 5 18 8 26 7 27 22 410 12 5 22 9 48
internal_value=-0.0122163 -0.243148 -0.566457 0.601831 2.81906 0.559463 -0.71159 3.7946 0.508623 0.388945 0.370983 0.265668 1.78865 2.02417 1.76403 1.71149 4.68716 2.44301 -0.484544 -0.576966 1.97038 1.45082 2.16895 2.97598 0.135129 0.0975267 0.137496 0.205871 -0.899988 4.16597 3.78705 5.28352 0.220454
internal_weight=2599 2403 1738 665 196 660 1505 88 652 593 233 545 48 108 96 59 53 35 885 768 91 60 42 31 486 479 471 449 39 42 37 15 218
internal_count=2599 2403 1738 665 196 660 1505 88 652 593 233 545 48 108 96 59 53 35 885 768 91 60 42 31 486 479 471 449 39 42 37 15 218
is_linear=0
shrinkage=0.115514


Tree=30
num_leaves=34
num_cat=0
split_feature=8 7 5 86 2 5 8 2 127 8 38 2 127 79 3 2 6 6 6 18 7 67 120 69 1 104 129 28 34 33 52 46 18
split_gain=109998 27758.9 25374.6 14606.5 11775.9 10711.2 7069.96 6290.71 5750.74 5504.91 5743.47 5092.58 4797.61 4314.57 6266.82 4285.43 4105.97 4083.24 4020.69 4005.91 3943.71 3844.72 3890.42 3732.83 3683.48 3853.55 3835.49 3300.55 3979.52 5216.92 4911.13 4738.06 4163.94
threshold=6.5000000000000009 499.00000000000006 46.250000000000007 8.2474489795918391 51.000000000000007 263.75000000000006 45.500000000000007 93.000000000000014 693.40000467374955 3.5000000000000004 17.666666666666668 1.0000000180025095e-35 438.61000585556047 4867.6020408163276 13.500000000000002 45.000000000000007 6.5000000000000009 20.500000000000004 27.500000000000004 86.264669677790479 153.50000000000003 17.750000000000004 4.1483516483516496 24.437500000000004 3.3000000715255742 4.9285714285714297 -3.4999999999999996 4.5000000000000009 102.3888888888889 426.93667055169743 937.11475409836089 1015.5595761695323 72.902353003621116
decision_type=2 2 2 2 2 2 2 2 2 2 2 2 2 2 2 2 2 2 2 2 2 2 2 2 2 2 2 2 2 2 2 2 2
left_child=2 4 11 9 5 12 8 -5 13 15 17 16 19 14 -3 18 -1 -11 24 21 -7 -2 -23 -16 25 -4 -26 28 29 -24 -30 -32 -33
right_child=1 6 3 7 -6 20 -8 -9 -10 10 -12 -13 -14 -15 23 -17 -18 -19 -20 -21 -22 22 27 -25 26 -27 -28 -29 30 -31 31 32 -34
leaf_value=-1.0439704941553538 -1.1508470052265369 1.5075452440128594 -0.41126386217135114 1.0441046928540114 6.6531043885196883 0.057126268807712134 7.0006626091277777 5.2238744593561366 6.7755117288855056 -0.38157329408524909 1.1177272626734633 -0.28105676656093775 3.7066905033624096 4.8501380069969171 4.054790935822437 1.1267375144955887 -0.41703866240086607 0.65981885795216899 0.354918226239961 -2.5963974094907267 3.2766201835913593 3.502483850315008 0.94287041046321773 2.1949631619371535 -1.5690986513070526 -1.2109129779434233 0.068572007276616873 3.2043411452426005 -1.5714205344956285 3.7585490132516033 2.704416372293589 -0.016559392442557358 2.1282186197051147
