tree
version=v4
num_class=1
num_tree_per_iteration=1
label_index=0
max_feature_idx=41
objective=regression
feature_names=Column_0 Column_1 Column_2 Column_3 Column_4 Column_5 Column_6 Column_7 Column_8 Column_9 Column_10 Column_11 Column_12 Column_13 Column_14 Column_15 Column_16 Column_17 Column_18 Column_19 Column_20 Column_21 Column_22 Column_23 Column_24 Column_25 Column_26 Column_27 Column_28 Column_29 Column_30 Column_31 Column_32 Column_33 Column_34 Column_35 Column_36 Column_37 Column_38 Column_39 Column_40 Column_41
feature_infos=[-0.79634148307531716:5.5193843384543841] [-1.0983700312275271:5.8529763211818508] [-0.96456347397452158:3.5734933606902985] [-0.76085806294503455:1.3143055830010195] [-0.78150401149038762:2.4100188135157818] none none none none none none [-0.78748092824373861:5.0792067726846097] [-0.79866909181013546:5.1847435629238419] [-0.6804004268732452:6.7214568942227455] [-0.83128703937094162:5.7744716659824027] [-1.1366803785302149:6.0734447845695696] [-0.64963800012367146:9.5006565514635515] [-6.5212128871412958:5.6499963082485838] [-0.94851451070308668:3.2945124764397766] [-0.70008683786164161:1.4283942304277837] [-0.34074477335558934:2.9347478764008357] [-0.94851451070308712:3.2945124764397757] [-1.1385217428575476:6.088109310930947] [-0.66093911498179736:11.160360923773847] [-0.70571131884178084:5.5001178123184529] [-0.86519391260242218:4.5282623830912021] [-0.70568910894604409:7.2828266068324075] [-2.3151663141787107:2.7754486528760505] [-2.2377617052187633:3.0861047378061892] [-2.1326196488581819:2.9370662600596793] [-1.9789032044942567:2.7686245469288382] [-1.943435295621051:5.4057620935431272] [-2.1590392858202816:2.8396337242075491] [-2.0660791958767648:2.6822289433881963] [-2.213857618866387:2.2247633214223788] [-1.8833363358525901:2.4985404113321668] [-2.2040730812351934:2.5344251468173518] none [-1.0560428420772894:1.4729954727220793] [-1.5219088059353212:1.3483685775927057] [-0.86383765500928023:1.1576249243143457] [-1.3607546531007428:1.4501019565171189]
tree_sizes=2632 2665 2656 2680 2654 2679 2683 2680 2672 2673 2687 2670 2671 2672 2674 2676 2672 2686 2667 2686 2677 2679 2691 2684 2650 2671 2693 2677 2660 2701 2677 2673 2688 2682 2684 2678 2693 2687 2696 2688 2683 2695 2691 2682 2687 2706 2723 2708 2711 2716 2701 2698 2724 2704 2704 2702 2690 2690 2683 2696 2703 2707 2691 2716 2711 2713 2696 2699 2719 2709 2712 2703 2702 2721 2707 2708 2717 2721 2705 2710 2713 2696 2726 2729 2722 2726 2724 2712 2711 2706 2715 2715

Tree=0
num_leaves=31
num_cat=0
split_feature=0 14 34 14 12 11 17 18 2 27 16 29 29 26 2 15 11 2 31 2 29 28 38 28 26 36 1 34 26 28
split_gain=1.24714e+07 2.64304e+06 822029 791399 625380 282739 227102 204881 255099 112888 110298 95144.2 109909 111032 94200.8 96834.9 107218 93015.5 68468.5 64149.9 58327.8 65466.6 55287.4 82189.2 57227.3 49375.3 47496.6 56641.2 45541.8 41799.4
threshold=1.2181681363512487 0.42257769949972523 -0.80156913786541606 1.5317298157400794 -0.30535581442515325 2.725273934332741 0.56432694739834166 1.4381881695647742 1.1900005513471814 -0.055054202715800298 1.2911005607150476 -0.21391689739063463 0.35708271161503252 0.98345268340877567 -0.048257531830937575 0.72843880428552821 0.13546396161364901 1.5691005357764582 0.3208343791466815 0.58114883775431447 1.0260202762885373 0.52652809290749603 0.49299312573732396 0.39321444327816096 -0.51938083994153761 1.0000000180025095e-35 0.13259755201163356 0.40896384584970197 0.62304391736061104 0.58923925624500695
decision_type=2 2 2 2 2 2 2 2 2 2 2 2 2 2 2 2 2 2 2 2 2 2 2 2 2 2 2 2 2 2
left_child=1 2 -1 17 20 6 9 8 11 -5 -9 -3 19 -14 -6 18 -17 28 -16 -13 21 22 23 -4 -24 -11 27 29 -2 -23
right_child=3 7 4 5 14 -7 -8 10 -10 25 -12 12 13 -15 15 16 -18 -19 -20 -21 -22 26 24 -25 -26 -27 -28 -29 -30 -31
leaf_value=156.22823897488331 160.42745122704241 161.40813311463938 152.56920875880013 169.07034755290931 152.97899975870294 173.7257887196414 171.47659047392108 154.35483309134088 165.21288313790404 163.40691605829568 158.95704613325285 155.07067474607868 158.21531483849492 162.63285312672696 153.69423308429694 159.66631496289162 155.3574902366878 165.92034157498918 156.15935258842433 158.34048321961603 150.54073799034495 154.01613318725668 150.31240653199146 149.89451540675356 152.15373912338657 166.72017893585894 154.94190584324224 154.14452781818446 163.2356569434769 151.51215307804191
leaf_weight=189 22 38 185 28 60 29 35 30 20 23 23 24 33 25 90 22 42 24 41 40 81 20 117 34 66 22 22 38 42 100
leaf_count=189 22 38 185 28 60 29 35 30 20 23 23 24 33 25 90 22 42 24 41 40 81 20 117 34 66 22 22 38 42 100
internal_value=156.073 154.244 153.225 166.966 152.607 169.342 168.165 159.084 159.889 166.578 156.352 159.223 158.543 160.119 154.711 155.245 156.839 163.266 154.466 157.114 151.798 151.973 151.618 152.154 150.976 165.027 152.765 152.462 162.27 151.929
internal_weight=1565 1340 1107 225 918 137 108 233 180 73 53 160 122 58 255 195 64 88 131 64 663 582 402 219 183 45 180 158 64 120
internal_count=1565 1340 1107 225 918 137 108 233 180 73 53 160 122 58 255 195 64 88 131 64 663 582 402 219 183 45 180 158 64 120
is_linear=0
shrinkage=1


Tree=1
num_leaves=31
num_cat=0
split_feature=0 14 33 14 12 11 33 17 28 18 29 0 0 27 27 33 31 14 4 26 31 18 12 4 28 27 28 29 33 33
split_gain=1.12554e+07 2.38535e+06 835506 714237 461238 255172 213464 204960 123714 106823 90060.5 131162 127281 89901.9 158168 89270.5 88533.2 101449 82599.6 64395.4 64110.8 57314.1 53517.8 49781.8 92277.8 59227.4 64857 90447.4 49093.8 53131.9
threshold=1.2181681363512487 0.42257769949972523 -0.61773606267061776 1.5317298157400794 -0.30535581442515325 2.725273934332741 -0.11329731740878336 0.56432694739834166 0.9972616078879859 0.90780979617191615 -0.12757842648903886 0.72234704906987257 0.69522200086717689 0.27330494265233846 -0.096627692953657099 0.78791046861620861 0.88029948727252239 0.035009522901878004 0.91399248929414001 1.0665932606870741 -0.089405851492133884 0.37743142277905828 1.6997239581718711 0.11611178304259759 0.32063381696899268 0.26199218839122035 0.74313327414046204 0.58798533371867101 0.67949822153725825 0.33186121657478546
decision_type=2 2 2 2 2 2 2 2 2 2 2 2 2 2 2 2 2 2 2 2 2 2 2 2 2 2 2 2 2 2
left_child=1 2 -1 13 18 7 10 9 15 22 11 -3 -12 14 -2 19 17 28 23 -8 -19 -22 -5 25 -25 -4 -27 -28 29 -6
right_child=3 6 4 5 16 -7 8 -9 -10 -11 12 -13 -14 -15 -16 -17 -18 20 -20 -21 21 -23 -24 24 -26 26 27 -29 -30 -31
leaf_value=0.12432842591162503 5.2904872894287109 9.3592378842830666 -3.048339117859765 12.951225222711978 -2.5929853015654798 16.752365750279921 0.64939861698076129 14.615627640315465 4.5958717625055998 6.8480797481536868 0.20416807040572166 3.7015208936872939 5.3202901709464285 4.4132408018465403 10.383238220214844 -2.1471405437588693 1.3068439093828204 1.7208069461316844 -4.7609471172208533 3.4896046950899322 0.14565373912002103 -2.7794520418433581 9.7454529285430915 -4.4943184173107147 -0.41148458911526592 -5.0705432015063714 -1.7267916484281074 -5.2697727757115516 -0.8248759116117772 -5.2591025546193126
leaf_weight=209 30 20 139 23 74 29 64 35 28 20 20 21 31 27 31 20 25 23 261 29 33 34 30 25 31 128 43 31 26 25
leaf_count=209 30 20 139 23 74 29 64 35 28 20 20 21 31 27 31 20 25 23 261 29 33 34 30 25 31 128 43 31 26 25
internal_value=-0.0176348 -1.75516 -2.72299 10.3303 -3.38567 12.5881 2.84305 11.4699 1.62058 9.96169 4.71662 6.46138 3.31397 6.81537 7.87861 0.883338 -1.50938 -1.83684 -4.07004 1.53505 -0.556847 -1.33873 11.1366 -3.61581 -2.23418 -3.84271 -4.38933 -3.21101 -2.75844 -3.26625
internal_weight=1565 1340 1107 225 898 137 233 108 141 73 92 41 51 88 61 113 240 215 658 93 90 67 53 397 56 341 202 74 125 99
internal_count=1565 1340 1107 225 898 137 233 108 141 73 92 41 51 88 61 113 240 215 658 93 90 67 53 397 56 341 202 74 125 99
is_linear=0
shrinkage=0.05


Tree=2
num_leaves=31
num_cat=0
split_feature=0 14 33 14 12 11 33 17 13 27 22 17 2 31 14 4 26 34 34 32 31 18 26 36 33 33 11 26 11 2
split_gain=1.0158e+07 2.15278e+06 754045 644599 416267 230293 192651 184976 104897 99631.7 83265.8 127511 82114.4 79901.2 91558 74546.2 65038.9 67208.2 63636.7 58417.5 57860 51725.9 48261.7 45484.9 44307.1 48044.7 39123.1 38920 34695.1 33949.9
threshold=1.2181681363512487 0.42257769949972523 -0.61773606267061776 1.5317298157400794 -0.30535581442515325 2.725273934332741 -0.11329731740878336 0.56432694739834166 1.0896089325192744 -0.055054202715800298 1.0664789649607302 -0.35290523769769211 1.5691005357764582 0.88029948727252239 0.035009522901878004 0.91399248929414001 0.23782065882442235 1.0000000180025095e-35 0.40896384584970197 -0.40950373231054082 -0.089405851492133884 0.37743142277905828 -0.3091357475557221 1.0000000180025095e-35 0.67949822153725825 0.24287899529411555 0.85882050700646395 0.62304391736061104 1.3958945975656778 -0.057648516616902908
decision_type=2 2 2 2 2 2 2 2 2 2 2 2 2 2 2 2 2 2 2 2 2 2 2 2 2 2 2 2 2 2
left_child=1 2 -1 12 15 7 10 9 16 -5 11 -3 27 14 24 19 -8 -18 -19 -4 -16 -22 -21 -11 25 -6 -12 -2 -29 -17
right_child=3 6 4 5 13 -7 8 -9 -10 23 26 -13 -14 -15 20 29 17 18 -20 22 21 -23 -24 -25 -26 -27 -28 28 -30 -31
leaf_value=0.118112003974367 3.835647831179879 3.2923142231029012 -1.5707822024822236 11.805323028564453 -2.3063026952743533 15.914747886822141 -1.2293195433515525 13.884845959799632 4.279241062567702 6.4518429673236355 1.2952151855826379 8.5021390438079845 8.9687510927518215 1.2415016994476318 1.634766603552777 -4.7866717301967538 3.6098095328719531 -1.2474812273795788 2.0827630408108235 -3.7976754332253018 0.13837104204929238 -2.6404794463339978 -1.5994741263212982 9.6318980693817142 -0.78363208518578453 -4.6259080627385307 4.2621495883464808 4.9244645345211033 7.8018779364499187 -3.2900524839110994
leaf_weight=209 22 23 38 28 65 29 28 35 28 23 20 24 24 25 23 215 27 26 32 332 33 34 27 22 26 34 25 20 22 46
leaf_count=209 22 23 38 28 65 29 28 35 28 23 20 24 24 25 23 215 27 26 32 332 33 34 27 22 26 34 25 20 22 46
internal_value=-0.016753 -1.66741 -2.58684 9.8138 -3.21639 11.9587 2.7009 10.8964 1.53955 9.46361 4.48079 5.95265 6.4746 -1.43391 -1.745 -3.86654 0.860689 1.54916 0.589895 -3.43502 -0.529005 -1.27179 -3.63235 8.00654 -2.62052 -3.10293 2.94351 5.53929 6.43168 -4.5229
internal_weight=1565 1340 1107 225 898 137 233 108 141 73 92 47 88 240 215 658 113 85 58 397 90 67 359 45 125 99 45 64 42 261
internal_count=1565 1340 1107 225 898 137 233 108 141 73 92 47 88 240 215 658 113 85 58 397 90 67 359 45 125 99 45 64 42 261
is_linear=0
shrinkage=0.05


Tree=3
num_leaves=31
num_cat=0
split_feature=0 14 33 14 12 2 18 2 17 25 29 27 27 27 33 26 4 38 2 25 35 23 32 2 2 26 25 28 28 29
split_gain=9.16759e+06 1.9455e+06 674119 581751 395139 211915 177238 205549 162979 98691.2 80866.8 216864 79727.8 139575 79709.4 86194.4 66736.9 64993.8 69503.2 60127.1 74270.4 98594.9 52986.5 48873.6 67526.5 43791.7 41505.5 38964.7 42402.5 49283
threshold=1.2181681363512487 0.43582837209747188 -0.61773606267061776 1.5317298157400794 -0.30535581442515325 2.3529580195484656 1.4381881695647742 1.1900005513471814 0.56432694739834166 1.7641968256885752 0.48393343259156596 -0.0032341720712089884 0.27330494265233846 -0.096627692953657099 -0.19497777060569074 0.87374225227412794 0.91399248929414001 -0.48700922124743135 -0.0048524194445211128 0.98766193478155062 -0.20214965929061865 -0.083649870866639151 -0.40950373231054082 0.18618405695107201 0.45062481121586984 -0.26684735242456775 -0.34615724678977311 -0.37879167755633192 0.88736958218152373 0.81340245925821464
decision_type=2 2 2 2 2 2 2 2 2 2 2 2 2 2 2 2 2 2 2 2 2 2 2 2 2 2 2 2 2 2
left_child=1 2 -1 12 16 8 7 14 10 -8 11 -5 13 -2 15 -3 22 -6 26 20 -16 -22 -4 -20 -25 27 -19 -24 -29 -30
right_child=3 6 4 5 17 -7 9 -9 -10 -11 -12 -13 -14 -15 19 -17 -18 18 23 -21 21 -23 25 24 -26 -27 -28 28 29 -31
leaf_value=0.11220645163047827 4.7208929298321411 2.0850189851677938 -1.4922430712239523 10.915101001880787 0.4442252713580464 14.997081495100453 -1.6575991958379745 8.1610526347160341 13.34683116789787 2.7536584822904495 11.358708156585694 4.3081193230722263 3.8887460818997135 9.5049582958221439 5.1609675781293349 6.1837389732229298 -4.2967547900004179 -1.4087795179514657 0.29917487100113271 0.03965107634149749 -0.096593117713928228 4.3406002249036524 -1.601975569517716 -3.0721062692503138 -0.48324156684695557 -1.1816523677110673 -4.2058225780725484 -3.9561916527108871 -0.54120485214960012 -4.0092589378356935
leaf_weight=209 30 23 38 27 43 31 32 20 31 21 25 23 27 31 22 29 261 21 43 29 31 21 23 48 53 20 36 276 21 20
leaf_count=209 30 23 38 27 43 31 32 20 31 21 25 23 27 31 22 29 261 21 43 29 31 21 23 48 53 20 36 276 21 20
internal_value=-0.0159154 -1.58404 -2.44671 9.32311 -3.03898 11.3608 2.62341 3.3906 10.2973 0.0902576 9.03683 7.87589 6.15087 7.15214 2.77505 4.37084 -3.67541 -1.32008 -1.69752 1.96941 2.72567 1.69535 -3.26795 -1.11256 -1.71359 -3.45538 -3.17533 -3.58913 -3.73331 -2.23294
internal_weight=1565 1340 1112 225 903 137 228 175 106 53 75 50 88 61 155 52 659 244 201 103 74 52 398 144 101 360 57 340 317 41
internal_count=1565 1340 1112 225 903 137 228 175 106 53 75 50 88 61 155 52 659 244 201 103 74 52 398 144 101 360 57 340 317 41
is_linear=0
shrinkage=0.05


Tree=4
num_leaves=31
num_cat=0
split_feature=0 14 33 14 12 11 18 2 17 18 25 2 33 26 31 14 4 31 28 29 31 18 32 12 26 33 33 33 25 28
split_gain=8.27375e+06 1.75582e+06 608393 525030 356613 195221 159957 185508 150636 96048.9 89068.8 72490.7 71937.7 77790.4 68465 86962.7 60230.1 59011.3 72367.1 55822.5 50864.6 52340.5 47820.4 47110.6 40128.7 39570.9 42341.8 38098.1 52395.4 36480.2
threshold=1.2181681363512487 0.43582837209747188 -0.61773606267061776 1.5317298157400794 -0.30535581442515325 2.725273934332741 1.4381881695647742 1.1900005513471814 0.56432694739834166 0.90780979617191615 1.7641968256885752 1.5691005357764582 -0.19497777060569074 0.87374225227412794 0.88029948727252239 0.035009522901878004 0.91399248929414001 0.029692003621420261 0.0462818980178877 0.35708271161503252 -0.089405851492133884 0.37743142277905828 -0.40950373231054082 1.6997239581718711 -0.3091357475557221 0.67949822153725825 0.33186121657478546 -0.4261087428502493 1.0576928284571816 0.88736958218152373
decision_type=2 2 2 2 2 2 2 2 2 2 2 2 2 2 2 2 2 2 2 2 2 2 2 2 2 2 2 2 2 2
left_child=1 2 -1 11 16 8 7 12 9 23 -8 27 13 -3 15 25 22 18 -14 -19 -17 -22 -4 -5 29 26 -6 -2 -29 -24
right_child=3 6 4 5 14 -7 10 -9 -10 -11 -12 -13 17 -15 -16 20 -18 19 -20 -21 21 -23 24 -25 -26 -27 -28 28 -30 -31
leaf_value=0.10659606433941418 6.7739728493988514 1.980768044098564 -1.417630844837741 11.338301911561386 -2.2559598191364389 14.435106829939219 -1.574719262495637 7.7529999521374711 12.511474922725133 5.5692619204521181 2.6159756284384503 8.1867697556813557 2.4956985515356065 5.874552086035818 1.2248336949348451 1.5982560666898886 -4.081917048105792 1.0490766699497518 -1.7577437543869019 4.0722114343900939 0.29808850833347866 -2.4363610165459768 -3.6262927947190842 8.3305462988217673 -1.4287129543445729 -0.66514474887114305 -4.6360123939514164 5.7171342199978739 2.2519831545371565 -2.0165482854843142
leaf_weight=209 20 23 38 23 74 29 32 20 35 20 21 24 20 29 25 24 261 26 20 37 35 35 293 30 27 26 25 24 20 40
leaf_count=209 20 23 38 23 74 29 32 20 35 20 21 24 20 29 25 24 261 26 20 37 35 35 293 30 27 26 25 24 20 40
internal_value=-0.0151196 -1.50483 -2.32438 8.85696 -2.88703 10.7927 2.49224 3.22107 9.81467 8.52168 0.0857448 5.84333 2.6363 4.1523 -1.25408 -1.53706 -3.49164 1.87094 0.368977 2.82457 -0.3881 -1.06914 -3.10455 9.6358 -3.28261 -2.40108 -2.85698 4.96454 4.14207 -3.43293
internal_weight=1565 1340 1112 225 903 137 228 175 108 73 53 88 155 52 244 219 659 103 40 63 94 70 398 53 360 125 99 64 44 333
internal_count=1565 1340 1112 225 903 137 228 175 108 73 53 88 155 52 244 219 659 103 40 63 94 70 398 53 360 125 99 64 44 333
is_linear=0
shrinkage=0.05


Tree=5
num_leaves=31
num_cat=0
split_feature=14 11 33 11 11 0 34 29 32 27 28 17 28 18 17 23 11 38 16 38 11 2 18 28 28 1 33 1 2 2
split_gain=7.34223e+06 1.12699e+06 778503 519224 339758 328699 239093 161811 159053 137180 124324 103447 86500.1 81019.6 80831 75870.9 72120.2 63558.7 62087.3 61368.8 58513.6 55131.8 51214.8 85522.4 52759.5 46147.7 44713.1 51410 44409 40669.4
threshold=0.8584860820238126 1.7563632439319969 -0.11329731740878336 0.02417833924552364 0.64108776759056652 2.7650541452406534 1.0000000180025095e-35 0.19057689170555067 1.0000000180025095e-35 0.36674363886202505 -0.15682719987667473 0.47068341949222753 1.0599057023624334 0.37743142277905828 -0.52121869874274218 0.059861565180838898 -0.33629030712079544 -0.16034177225251292 0.34555109569465775 1.0093384483421954 0.62052411997906509 -0.26920923227923971 1.0000000180025095e-35 -0.39372627600601401 0.14398718173064415 1.1463355617380013 0.20394466302034808 -0.15704187933875718 -0.083289043402090743 0.35988057674355495
decision_type=2 2 2 2 2 2 2 2 2 2 2 2 2 2 2 2 2 2 2 2 2 2 2 2 2 2 2 2 2 2
left_child=2 6 4 16 8 10 9 15 19 13 -3 18 17 -2 -9 -8 22 20 -12 -1 -5 -10 23 -4 -25 -16 -26 -28 -24 -19
right_child=1 5 3 12 -6 -7 7 14 21 -11 11 -13 -14 -15 25 -17 -18 29 -20 -21 -22 -23 28 24 26 -27 27 -29 -30 -31
leaf_value=0.72336720913075492 9.6529011356419545 5.8283184301853188 0.015963758741106306 -0.37865402121096853 5.0367257127538325 15.992689978558085 6.9379827331613617 3.8091519363901831 -2.9001496211240263 2.9583981625735762 6.828172405741431 12.477353322121406 3.2250973102450375 6.0554344866205669 -1.5123091545971958 3.3125575227122157 -1.9941889983734915 -3.1732627687000097 10.584599668329412 -1.8103854373649317 3.0180043583824521 -0.80876241020750317 -4.4998930062820666 -4.10599267558446 -1.3698843575659252 1.8062007814645769 -3.3680002400402653 -0.77714620431264247 -2.1217443507650624 -0.51772495223128279
leaf_weight=208 29 20 21 32 32 23 27 22 58 20 22 31 20 34 22 31 112 21 22 27 21 69 134 126 42 20 217 21 23 46
leaf_count=208 29 20 21 32 32 23 27 22 58 20 22 31 20 34 22 31 112 21 22 27 21 69 134 126 42 20 217 21 23 46
internal_value=0.0277647 6.73664 -1.734 -2.59756 0.0983297 10.6295 4.49588 3.08745 -0.338214 6.56611 9.331 10.2651 0.18078 7.71141 1.35398 5.00026 -3.15642 -0.326606 8.70639 0.432255 0.967192 -1.76388 -3.37931 -3.09539 -3.25632 0.0679337 -2.87397 -3.1394 -4.1515 -1.35006
internal_weight=1553 323 1230 836 394 118 205 122 362 83 95 75 140 63 64 58 696 120 44 235 53 127 584 427 406 42 280 238 157 67
internal_count=1553 323 1230 836 394 118 205 122 362 83 95 75 140 63 64 58 696 120 44 235 53 127 584 427 406 42 280 238 157 67
is_linear=0
shrinkage=0.05


Tree=6
num_leaves=31
num_cat=0
split_feature=11 11 33 26 0 26 2 28 34 32 2 31 31 27 27 27 38 28 28 18 23 33 28 1 41 32 2 26 12 29
split_gain=6.57137e+06 1.18885e+06 637684 414065 317440 248243 214145 175422 168940 146455 115854 110173 100166 157573 99061.5 90677.5 74353.1 71713.4 69268 66882.1 65542.5 107160 58212.2 71312.3 50382.5 39084.9 38984.2 43068.1 37997.7 37485.5
threshold=0.64108776759056652 1.7237033330196125 -0.12282670018606075 0.45205521713686553 2.7650541452406534 1.4055386503778264 0.61240091857730106 -0.15682719987667473 1.0000000180025095e-35 1.0000000180025095e-35 -0.083289043402090743 0.15109747939643678 0.077767029952583749 0.27098276421230305 0.45322480364365997 0.85348141127135535 1.0093384483421954 0.28107701737862828 0.65887005634592233 1.0000000180025095e-35 0.079946763623760811 -0.089238704700996194 -0.39372627600601401 0.13259755201163356 0.981625854914142 -0.40950373231054082 -0.26920923227923971 -0.059394896911764271 -0.33718247748224889 -0.19186087577173841
decision_type=2 2 2 2 2 2 2 2 2 2 2 2 2 2 2 2 2 2 2 2 2 2 2 2 2 2 2 2 2 2
left_child=2 5 6 10 7 14 9 -3 17 16 19 -10 -9 -14 20 -16 25 -7 -5 22 -2 -22 -4 -24 29 -1 -11 -28 -25 -12
right_child=1 4 3 18 -6 8 -8 12 11 26 24 -13 13 -15 15 -17 -18 -19 -20 -21 21 -23 23 28 -26 -27 27 -29 -30 -31
leaf_value=0.41688179357631788 5.3610320950376575 4.9522602796554569 -0.33593942793932829 0.024471287582727042 15.193055857782779 10.344702367782594 4.0770118647608262 7.0697988961053939 6.6060937541982403 -2.7551421331948251 -3.2117348160062522 2.0692794516682627 14.040873956680299 8.6444571495056159 -1.9728025770187381 2.6789670275016264 -2.3542167870894724 6.2078653118827134 3.4914647715091705 -4.01454904954109 4.2100332497022093 0.1557688002075468 -3.1950870497806654 0.48813735047976181 -3.7594350919127466 2.7436378383636475 0.59221763941817562 -2.1287941777344908 -2.5570648229122166 -0.91132499992319971
leaf_weight=185 29 24 22 34 23 20 29 23 23 58 21 32 24 31 20 22 23 22 25 169 39 28 370 21 24 20 26 33 20 113
leaf_count=185 29 24 22 34 23 20 29 23 23 58 21 32 24 31 20 22 23 22 25 169 39 28 370 21 24 20 26 33 20 113
internal_value=0.0263765 5.94719 -1.76029 -2.54146 9.88687 3.85161 -0.0496485 8.69038 5.78994 -0.396527 -2.8547 3.96649 9.84057 10.9993 2.48916 0.463839 0.341443 8.17779 1.49354 -3.17097 3.37524 2.51571 -2.84172 -2.97585 -1.6497 0.643882 -1.83462 -0.929704 -0.997327 -1.27184
internal_weight=1553 360 1193 819 125 235 374 102 97 345 760 55 78 55 138 42 228 42 59 602 96 67 433 411 158 205 117 59 41 134
internal_count=1553 360 1193 819 125 235 374 102 97 345 760 55 78 55 138 42 228 42 59 602 96 67 433 411 158 205 117 59 41 134
is_linear=0
shrinkage=0.05


Tree=7
num_leaves=31
num_cat=0
split_feature=14 11 33 11 11 0 34 26 2 31 32 22 31 22 26 31 38 11 29 25 4 2 18 28 28 28 31 35 2 35
split_gain=5.99727e+06 914278 632763 430942 274040 267554 198612 187837 140492 140184 135300 128851 104856 96941.5 77521.7 84705.7 72524 58666.4 57508 51762.2 70557.9 43163.6 42611 70564.3 47603.1 43044.6 44753.9 42829.1 36722.1 34171.9
threshold=0.8584860820238126 1.7563632439319969 -0.12282670018606075 0.02417833924552364 0.64108776759056652 2.7650541452406534 1.0000000180025095e-35 1.6816100112235843 1.4426286431318764 0.077767029952583749 1.0000000180025095e-35 1.1897009106323468 0.43788104893364738 1.0732001619973637 0.42492682115692881 0.039178815120353622 -0.076040495092533938 -0.33629030712079544 0.19057689170555067 0.10177112391289279 0.11611178304259759 -0.26920923227923971 1.0000000180025095e-35 -0.39372627600601401 0.14398718173064415 0.23580815838155247 0.82684006019342704 -0.26983257174840869 -0.12163678039476235 0.039710242074375894
decision_type=2 2 2 2 2 2 2 2 2 2 2 2 2 2 2 2 2 2 2 2 2 2 2 2 2 2 2 2 2 2
left_child=2 6 4 17 10 9 7 13 18 -3 19 -11 -13 -2 16 -16 -5 22 -8 20 -1 -12 23 -4 -25 -26 27 -27 -24 -18
right_child=1 5 3 14 -6 -7 8 -9 -10 11 21 12 -14 -15 15 -17 29 -19 -20 -21 -22 -23 28 24 25 26 -28 -29 -30 -31
leaf_value=0.50325172201116031 7.0964450856111938 5.8505089821184386 0.031962436721438454 1.255725335597992 4.6049009523084088 14.433403147821842 3.1003443177153427 9.3825866204720949 5.5162063956260683 13.028653417314803 -2.6173850287000877 10.75203899383545 5.6320884227752686 2.754817210303413 -0.6230878665529449 2.9650818166470057 -0.52907467342558367 -1.8131729340605567 0.53801768434808606 2.7253713071346284 -2.3756452639897665 -0.76066932751290395 -4.1292145540629788 -3.7474965856188818 -0.75337947977000275 -0.89611895424979071 -1.0413399569690227 -3.2708777743909097 -2.1842077652613323 -3.1972490072250368
leaf_weight=188 20 34 21 25 31 23 41 27 34 21 58 20 20 36 29 38 21 114 47 22 24 68 127 126 29 21 32 198 30 28
leaf_count=188 20 34 21 25 31 23 41 27 34 21 58 20 20 36 29 38 21 114 47 22 24 68 127 126 29 21 32 198 30 28
internal_value=0.0250576 6.0884 -1.56719 -2.34137 0.0940463 9.59466 4.07017 5.95701 2.78649 8.42317 -0.294388 9.85712 8.19206 4.3054 0.179881 1.41199 -0.935681 -2.85068 1.73183 0.416897 0.177339 -1.61535 -3.05321 -2.79423 -2.94041 -2.57723 -2.78795 -3.04316 -3.75756 -2.05375
internal_weight=1553 323 1230 839 391 118 205 83 122 95 360 61 40 56 141 67 74 698 88 234 212 126 584 427 406 280 251 219 157 49
internal_count=1553 323 1230 839 391 118 205 83 122 95 360 61 40 56 141 67 74 698 88 234 212 126 584 427 406 280 251 219 157 49
is_linear=0
shrinkage=0.05


Tree=8
num_leaves=31
num_cat=0
split_feature=14 11 33 11 11 11 34 26 29 31 13 29 33 28 17 31 23 12 29 29 31 11 11 26 1 18 28 28 33 1
split_gain=5.41253e+06 825136 571068 388925 247321 225788 179247 171228 127289 123811 117340 126528 99279.7 97864.2 73793.2 73275.7 76065.8 69466.7 67047.5 60201.8 87819.9 59221.1 52946.5 49513.3 41723.9 38456.4 63684.3 42961.8 39947.7 43136.2
threshold=0.8584860820238126 1.7563632439319969 -0.12282670018606075 0.02417833924552364 0.64108776759056652 2.725273934332741 1.0000000180025095e-35 1.4653806948608801 0.19057689170555067 -0.2438869470282434 1.7332486995710996 0.48393343259156596 -0.11329731740878336 0.065947416755490429 -0.52121869874274218 0.4348042388072399 0.86339291471826229 -0.46448912971063133 -0.28488474356849575 -0.27597087888460242 0.21814612183872759 0.60479897768791691 -0.33629030712079544 0.39819736613400891 1.1463355617380013 1.0000000180025095e-35 -0.39372627600601401 0.14398718173064415 0.20394466302034808 -0.15704187933875718
decision_type=2 2 2 2 2 2 2 2 2 2 2 2 2 2 2 2 2 2 2 2 2 2 2 2 2 2 2 2 2 2
left_child=2 6 4 22 9 10 7 12 18 -1 13 -12 -2 -3 -10 16 21 -11 -8 -19 -21 -5 25 -17 -16 26 -4 -28 -29 -30
right_child=1 5 3 15 -6 -7 8 -9 14 17 11 -13 -14 -15 24 23 -18 19 -20 20 -22 -23 -24 -25 -26 -27 27 28 29 -31
leaf_value=0.52661223990161243 5.8691496444785081 7.02382303873698 0.030364453224908741 -0.60750588637131919 4.3746559020011651 13.03614821434021 2.169057367064736 8.1305045705092578 3.4555445327000189 -2.5591408761579602 3.2205925759815033 8.7092893963768372 1.1709517847407949 11.574866492659957 -1.6216886569153179 0.18599768389355054 -2.3414638252634754 1.7760684150716533 5.6726421395937603 -3.0667061842978001 0.60942738261073837 2.7389645022153855 -1.7225142873692931 3.5405507168986583 1.5337578940391543 -3.5696793257051214 -3.5601217561002287 -1.0266886455672128 -2.9086509089453432 -0.5354214832896278
leaf_weight=205 23 21 21 39 31 28 22 38 22 67 21 21 22 27 22 22 38 23 36 32 33 20 114 22 20 157 126 42 217 21
leaf_count=205 23 21 21 39 31 28 22 38 22 67 21 21 22 27 22 22 38 23 36 32 33 20 114 22 20 157 126 42 217 21
internal_value=0.0238047 5.78398 -1.48883 -2.2243 0.0893439 9.11493 3.86666 5.65916 2.64717 -0.279669 7.89499 5.96494 3.57225 9.58378 1.10969 0.170887 -0.596794 -1.34604 4.3437 -0.422431 -1.20036 0.526891 -2.70815 1.86327 -0.119095 -2.90055 -2.65452 -2.79339 -2.44836 -2.69925
internal_weight=1553 323 1230 839 391 118 205 83 122 360 90 42 45 48 64 141 97 155 58 88 65 59 698 44 42 584 427 406 280 238
internal_count=1553 323 1230 839 391 118 205 83 122 360 90 42 45 48 64 141 97 155 58 88 65 59 698 44 42 584 427 406 280 238
is_linear=0
shrinkage=0.05


Tree=9
num_leaves=31
num_cat=0
split_feature=14 11 33 11 2 11 26 35 34 38 28 17 31 15 32 13 31 23 28 2 11 36 2 18 25 1 28 26 12 31
split_gain=4.88481e+06 746552 515389 351005 229277 213805 151186 161460 121017 119371 114030 133555 92160.4 90945.6 73003.5 71318.8 66131.3 68649.4 64391.8 63941.2 53447.1 52534.7 48529.9 57708.1 47556.1 47066.4 47986.6 44685.8 38815.7 31215.6
threshold=0.8584860820238126 1.7237033330196125 -0.12282670018606075 0.02417833924552364 0.69596593790570627 2.725273934332741 1.4055386503778264 0.78138239214868377 1.0000000180025095e-35 0.90396185189222156 -0.15682719987667473 0.56432694739834166 0.16584049055752861 0.90368490199975904 1.0000000180025095e-35 -0.51949048511028872 0.4348042388072399 0.86339291471826229 0.28107701737862828 0.92648651980667263 0.60479897768791691 1.0000000180025095e-35 -0.083289043402090743 1.0000000180025095e-35 -0.45685992787601731 0.13259755201163356 -0.38774841179107339 0.39819736613400891 -0.33718247748224889 0.21814612183872759
decision_type=2 2 2 2 2 2 2 2 2 2 2 2 2 2 2 2 2 2 2 2 2 2 2 2 2 2 2 2 2 2
left_child=2 6 4 22 9 10 7 13 18 14 -3 21 -10 -2 15 -1 17 20 -8 -15 -5 -12 23 25 -24 26 -4 -18 -27 -11
right_child=1 5 3 16 -6 -7 8 -9 12 29 11 -13 -14 19 -16 -17 27 -19 -20 -21 -22 -23 24 -25 -26 28 -28 -29 -30 -31
leaf_value=0.36310808043829434 5.8243596414724985 4.4339674929777777 -0.22335470199584961 -0.57713062549248728 4.2109040752533948 12.384341124125889 9.0848207259178171 -1.7747273814678193 5.7092869136333464 -2.9928805409442809 4.6754916191101072 10.821231621503831 1.5988044754664106 4.2125728399857234 -1.1132209334126675 3.5013144505023961 0.17669773752039131 -2.2243906221891705 5.1648434075442227 0.81885004162788388 2.6020162948966026 8.2995330154895779 -3.4041291546821597 -3.5228203748986568 -0.86836041493315097 0.60167526548559014 -2.7379991305552847 3.3635231933810497 -2.3684688667004763 -0.81379600630866167
leaf_weight=191 24 24 20 39 31 28 20 20 25 42 20 32 30 23 80 20 22 38 22 35 20 20 25 169 71 22 369 22 22 27
leaf_count=191 24 24 20 39 31 28 20 20 25 42 20 32 30 23 80 20 22 38 22 35 20 20 25 169 71 22 369 22 22 27
internal_value=0.0226145 5.49478 -1.41439 -2.11309 0.0848767 8.53997 3.59728 2.25332 5.01051 -0.27042 7.4187 8.41361 3.46721 3.23578 0.172929 0.660568 0.162342 -0.566955 7.0315 2.16464 0.500546 6.48751 -2.57274 -2.73923 -1.52872 -2.43339 -2.60871 1.77011 -0.883397 -2.1402
internal_weight=1553 323 1230 839 391 124 199 102 97 360 96 72 55 82 291 211 141 97 42 58 59 40 698 602 96 433 389 44 44 69
internal_count=1553 323 1230 839 391 124 199 102 97 360 96 72 55 82 291 211 141 97 42 58 59 40 698 602 96 433 389 44 44 69
is_linear=0
shrinkage=0.05


Tree=10
num_leaves=31
num_cat=0
split_feature=0 14 2 33 31 31 26 26 27 23 15 13 2 11 31 34 12 4 28 29 34 18 28 33 33 31 14 34 16 26
split_gain=4.47928e+06 773946 380880 343008 238833 177363 152705 149430 142825 122599 110961 109009 81663.2 76347 72677.8 70008.7 85023.4 58336 95908.6 57687.7 55967.3 54817.1 48245.5 57279.2 48971.7 47239.1 44513.9 54493 48837 46724.7
threshold=1.2181681363512487 0.42257769949972523 2.0785345598630731 -0.12282670018606075 0.16968648276545611 0.70543458037806273 0.99462319000077715 0.39819736613400891 -0.24462423688573701 -0.023764821749830443 1.3543177246934961 1.0896089325192744 0.49415331069356716 -0.43789891884821425 0.25763174972536279 1.0000000180025095e-35 0.45848409894514169 0.11611178304259759 0.38254125131472055 1.0260202762885373 0.40896384584970197 1.0000000180025095e-35 -0.38216732301561285 0.099938203197669481 0.2604526916122904 0.20276211281367582 -0.0986957340749436 1.0000000180025095e-35 1.0000000180025095e-35 -0.12402431354960565
decision_type=2 2 2 2 2 2 2 2 2 2 2 2 2 2 2 2 2 2 2 2 2 2 2 2 2 2 2 2 2 2
left_child=1 3 5 17 -4 6 -2 13 -3 14 11 12 25 19 -8 -14 -17 18 -1 21 26 22 -5 -24 -25 -10 28 -28 29 -15
right_child=2 8 4 7 -6 -7 9 -9 10 -11 -12 -13 15 20 -16 16 -18 -19 -20 -21 -22 -23 23 24 -26 -27 27 -29 -30 -31
leaf_value=0.38865470654923806 3.6020027204435703 4.5860307852427162 6.6838436851134677 0.062582934986461294 13.338854466165817 0.89644413530826572 4.4523377815882368 1.9013212839762372 -3.623819196224213 9.3469335926903625 4.5452130317687987 3.237270150333643 2.9992298360054312 1.143503640294075 7.8160121005315055 2.6498912595567248 -1.1302732884883882 -1.4610391018646105 -3.0046794868033864 -4.0100780900095554 -2.5528570519553293 -3.536549299286337 -3.9568611435592178 -0.61416997300817622 -2.3669288296053428 -0.18728216409683229 1.808569582303365 -1.4658780237038931 -3.2880209820611137 -2.2742683923244478
leaf_weight=220 49 33 26 22 28 20 42 21 20 36 20 32 26 20 26 21 51 84 23 71 81 98 48 47 262 20 27 24 28 20
leaf_count=220 49 33 26 22 28 20 42 21 20 36 20 32 26 20 26 21 51 84 23 71 81 98 48 47 262 20 27 24 28 20
internal_value=-0.0188025 -1.13531 6.46872 -1.68163 10.1346 5.32446 5.90328 -2.25843 1.54977 6.98754 1.02241 0.607967 -0.00172661 -2.37522 5.73845 0.775344 -0.0277253 -0.325171 0.0674749 -2.68039 -1.53905 -2.48246 -2.2099 -2.34995 -2.10033 -1.90555 -0.848988 0.267653 -1.68647 -0.565382
internal_weight=1546 1319 227 1096 54 173 153 769 223 104 190 170 138 748 68 98 72 327 243 548 200 477 379 357 309 40 119 51 68 40
internal_count=1546 1319 227 1096 54 173 153 769 223 104 190 170 138 748 68 98 72 327 243 548 200 477 379 357 309 40 119 51 68 40
is_linear=0
shrinkage=0.05


Tree=11
num_leaves=31
num_cat=0
split_feature=0 2 2 29 25 26 17 17 35 31 15 32 15 28 11 18 36 29 15 34 4 34 29 15 31 29 27 35 34 26
split_gain=4.04255e+06 597694 354800 326310 169258 166880 146235 139410 130632 96647.4 96237.4 104030 84034.6 74775 72394.8 60364.9 125916 67787.7 67463.9 59043.9 58291.8 55628.8 52333.2 47467.8 38118 40857.5 48240.5 68328.8 71530.6 50936
threshold=1.2181681363512487 0.45062481121586984 2.4920662424892774 -0.53321500129724753 1.3275811321981561 0.10656708580838313 1.3719257933509852 1.3719257933509852 -0.55287019799445958 0.31865497221737654 0.69088606906105021 1.0000000180025095e-35 0.27780598159179165 1.0495602817506611 1.8253119447470312 0.37743142277905828 1.0000000180025095e-35 0.048698352816358918 0.87864974518344041 0.40896384584970197 1.1134626658570257 -0.39805814329371009 0.50444668868001352 1.2917298326526991 0.38031921329087831 -0.32156859036084423 0.22576787474031113 0.34830644832711072 0.81247484042140805 -0.63108601096516115
decision_type=2 2 2 2 2 2 2 2 2 2 2 2 2 2 2 2 2 2 2 2 2 2 2 2 2 2 2 2 2 2
left_child=1 3 4 -1 7 20 9 -2 -3 14 -7 -12 -10 15 -6 16 -14 19 -18 -17 21 -5 -13 -11 25 -23 27 28 -27 -28
right_child=2 8 -4 5 6 10 -8 -9 12 23 11 22 13 -15 -16 17 18 -19 -20 -21 -22 24 -24 -25 -26 26 29 -29 -30 -31
leaf_value=0.20850828231549731 4.9909060291539546 5.0078665657341483 12.179409018429844 0.61025127708911908 2.0403050249273127 -3.2097518652677537 9.6015093803405769 0.28146579048850318 -1.5399757009564023 8.9744050150332253 2.9389051026874977 -2.1242184375894482 5.2253206343877885 3.9339583646167409 5.7662310145795352 -0.52929963781720113 -1.6280082653462888 -1.051108821507158 2.2680630162358284 2.977953052520752 -2.9236187968371263 -3.2894739845540464 1.1532224681051007 5.6437869954109194 -2.7543076390551557 -2.1629615176425263 -2.7235539358469749 1.160603126402824 1.0358370463956488 -0.95876659330774539
leaf_weight=204 55 20 22 20 22 20 31 22 33 23 31 29 21 22 32 21 20 58 25 28 234 41 21 20 148 85 124 31 22 61
leaf_count=204 55 20 22 20 22 20 31 22 33 23 31 29 21 22 32 21 20 58 25 28 234 41 21 20 148 85 124 31 22 61
internal_value=-0.0178624 -1.07854 6.14528 -1.59071 5.49772 -2.01406 6.61203 3.64535 1.13331 5.65663 -0.103699 0.663227 0.793439 1.18832 4.24826 0.839169 2.02838 0.105636 0.536476 1.47484 -2.26595 -1.97667 -0.747693 7.42528 -2.07773 -1.80263 -1.6139 -0.90641 -1.50526 -2.14165
internal_weight=1546 1319 227 1071 205 867 128 77 248 97 101 81 228 195 54 173 66 107 45 49 766 532 50 43 512 364 323 138 107 185
internal_count=1546 1319 227 1071 205 867 128 77 248 97 101 81 228 195 54 173 66 107 45 49 766 532 50 43 512 364 323 138 107 185
is_linear=0
shrinkage=0.05


Tree=12
num_leaves=31
num_cat=0
split_feature=0 14 25 33 16 25 26 14 0 23 15 31 36 31 28 14 28 14 11 12 38 28 29 18 34 26 28 33 33 12
split_gain=3.6484e+06 637972 313777 283020 129396 167523 127604 120293 134869 121564 95959.4 95473.6 99965.7 95168.5 94767.4 92393.2 84434.9 65968.9 61651.5 55612.4 51963.8 56269.5 50593.4 49057.2 48359.2 44540.4 41380.3 51167.1 42016.3 40144.1
threshold=1.2181681363512487 0.42257769949972523 2.1310509733133016 -0.12282670018606075 2.5644476321082603 0.94375796425980274 0.39819736613400891 1.5317298157400794 2.2580676122356587 0.079946763623760811 0.94123763722423714 0.20930031977080191 1.0000000180025095e-35 0.20930031977080191 -0.026934336610227243 0.8584860820238126 0.21948757891307497 0.97190297569528561 -0.43789891884821425 0.64944407728771558 0.69019789909370333 0.38254125131472055 1.0260202762885373 1.0000000180025095e-35 0.40896384584970197 -0.4878640230482893 -0.38216732301561285 0.099938203197669481 0.2604526916122904 0.71309740340190675
decision_type=2 2 2 2 2 2 2 2 2 2 2 2 2 2 2 2 2 2 2 2 2 2 2 2 2 2 2 2 2 2
left_child=1 3 7 20 5 11 18 10 9 16 -2 15 -13 -4 -12 19 -9 -7 22 -3 21 -1 23 26 -20 -22 -5 -28 -29 -19
right_child=2 4 13 6 -6 17 -8 8 -10 -11 14 12 -14 -15 -16 -17 -18 29 24 -21 25 -23 -24 -25 -26 -27 27 28 -30 -31
leaf_value=0.3356733285673133 6.1459007863645203 1.3557282912234465 7.3290187072753916 0.12107620456001976 4.9648515991542652 -2.5475137092850426 1.799394991284325 8.3116095976396043 2.7592905131253329 10.437735157921201 -0.26029653310775758 6.1918637690336809 1.8703302511479707 12.148318933305287 3.905715216037839 3.5080265330231715 4.2614071169207177 2.0590256965160374 -0.75964772861544827 -2.0480818957090379 -2.7949019908905033 -2.1681834621429448 -3.671970610719332 -3.2385378679450678 -2.3434782018632063 -0.42819607543945315 -3.6319847047328953 -0.50071717018776762 -2.124240841216031 -1.0710026184717814
leaf_weight=219 27 24 20 22 23 33 21 22 22 21 20 23 32 21 43 23 31 20 119 24 33 25 71 98 81 50 48 47 262 21
leaf_count=219 27 24 20 22 23 33 21 22 22 21 20 23 32 21 43 23 31 20 119 24 33 25 71 98 81 50 48 47 262 21
internal_value=-0.0169693 -1.02461 5.83802 -1.52063 1.4132 1.00477 -2.04457 4.96524 6.19642 7.21826 3.65199 2.11374 3.67752 9.79744 2.58317 0.902368 5.94262 -0.883493 -2.15249 -0.346177 -0.288482 0.0791306 -2.42672 -2.24137 -1.4011 -1.36918 -1.98353 -2.11322 -1.8773 0.45584
internal_weight=1546 1319 227 1096 223 200 769 186 96 74 90 126 55 41 63 71 53 74 748 48 327 244 548 477 200 83 379 357 309 41
internal_count=1546 1319 227 1096 223 200 769 186 96 74 90 126 55 41 63 71 53 74 748 48 327 244 548 477 200 83 379 357 309 41
is_linear=0
shrinkage=0.05


Tree=13
num_leaves=31
num_cat=0
split_feature=0 14 2 34 14 17 15 27 2 27 15 27 15 31 2 22 12 31 16 12 31 17 29 29 31 31 25 35 35 29
split_gain=3.29268e+06 575770 303774 241241 140098 138279 131227 119557 92216.6 91811.8 120048 142659 91622 94039.1 98189.5 93407.6 78296.7 88307.4 70413.4 72727.3 54324.5 51494.3 39301.5 30641.6 29713.1 31401.3 33193.3 66678 112049 32134
threshold=1.2181681363512487 0.42257769949972523 2.4920662424892774 -0.39805814329371009 1.5317298157400794 1.3719257933509852 0.79102669632632494 -0.24462423688573701 -0.07265295798612241 0.46498934022575317 0.90368490199975904 -0.075556316999733766 1.3543177246934961 0.52326229018549852 0.49415331069356716 1.0095728300505653 1.6678972951147755 0.25763174972536279 -0.47887232565805077 0.49031076200223739 0.29801476409371364 1.5337363057378346 1.0820174089979344 0.20051926224457287 0.88029948727252239 0.40108762682721183 -0.84580074201151467 -0.22084529625865876 -0.60114751103596042 0.20669036608750493
decision_type=2 2 2 2 2 2 2 2 2 2 2 2 2 2 2 2 2 2 2 2 2 2 2 2 2 2 2 2 2 2
left_child=1 3 4 23 9 16 21 -3 -8 10 -2 -12 13 14 -9 -15 -6 -18 -16 -20 -10 22 24 -1 25 26 27 28 -5 -29
right_child=2 7 -4 6 5 -7 8 12 20 -11 11 -13 -14 15 18 -17 17 -19 19 -21 -22 -23 -24 -25 -26 -27 -28 29 -30 -31
leaf_value=0.26959840752067366 7.398727542703802 4.1204997671090746 11.129502964019776 -2.0399436983797288 7.4995521578523849 9.5708611363949991 -2.0928526816829556 -2.6931096935272216 2.7965691837771187 0.57462810107639861 -0.1415933336530413 5.3992097194378195 4.0611819171905514 4.7846393899484116 3.0670699885623023 0.063364112377166756 2.3056497287750246 6.0024891424179074 1.9386095879254519 -1.2931993637766157 -0.41932011631627875 0.43929354293005807 -3.0982534569430067 -1.7874059408903122 -0.54840938713815479 -2.7370893846511843 -2.2180750753589717 -2.4807821655714957 1.9936314698421596 -1.0932517621447058
leaf_weight=191 22 33 22 36 27 23 31 30 29 21 21 26 20 22 22 20 30 35 27 49 24 21 83 20 36 125 291 108 33 68
leaf_count=191 22 33 22 36 27 23 31 30 29 21 21 26 20 22 22 20 30 35 27 49 24 21 83 20 36 125 291 108 33 68
internal_value=-0.0161208 -0.973382 5.54612 -1.4446 4.94692 6.10326 -1.80681 1.34254 0.0733142 3.46939 4.35041 2.92353 0.860058 0.483455 -0.190172 2.53641 5.23635 4.29626 0.576033 -0.145057 1.34032 -2.00397 -2.06975 0.0746217 -1.94728 -2.02346 -1.85704 -1.42822 -0.110843 -1.94469
internal_weight=1546 1319 227 1096 205 115 885 223 84 90 69 47 190 170 128 42 92 65 98 76 53 801 780 211 697 661 536 245 69 176
internal_count=1546 1319 227 1096 205 115 885 223 84 90 69 47 190 170 128 42 92 65 98 76 53 801 780 211 697 661 536 245 69 176
is_linear=0
shrinkage=0.05


Tree=14
num_leaves=31
num_cat=0
split_feature=0 14 2 33 31 26 16 25 26 16 33 35 31 14 31 31 11 13 31 4 34 16 1 31 31 25 14 14 18 16
split_gain=2.97164e+06 519632 276659 234059 195576 123279 112943 144290 110111 101058 100612 99775.6 159751 57935.3 54336 145231 54149 52568.2 44220.1 47573.7 42665 39760.4 43622.8 52715.9 78408.4 39048.6 38470.4 35075.3 49209.1 43455.9
threshold=1.2181681363512487 0.42257769949972523 2.2127516330037502 -0.12282670018606075 0.16968648276545611 0.99462319000077715 2.5644476321082603 0.94375796425980274 0.39819736613400891 1.1918578598038028 -0.38507050462012737 0.029060845128569615 0.20930031977080191 0.97190297569528561 0.61364332896616813 0.31865497221737654 -0.43789891884821425 1.7332486995710996 0.53800530281754444 0.71452231273125444 0.40896384584970197 -0.61951099101522367 1.0000000180025095e-35 0.0037443151777809794 -0.13184008570673475 0.65043624151273316 -0.27201002993079965 -0.0986957340749436 0.37743142277905828 1.0000000180025095e-35
decision_type=2 2 2 2 2 2 2 2 2 2 2 2 2 2 2 2 2 2 2 2 2 2 2 2 2 2 2 2 2 2
left_child=1 3 5 18 -4 10 7 11 16 14 -2 25 -13 -9 15 17 21 -7 19 -1 27 22 23 24 -5 -3 -22 29 -29 -18
right_child=2 6 4 8 -6 9 -8 13 -10 -11 -12 12 -14 -15 -16 -17 20 -19 -20 -21 26 -23 -24 -25 -26 -27 -28 28 -30 -31
leaf_value=0.15785212356925468 5.3186608269101106 2.1146242403067075 5.5850951606577093 -2.0777442935731387 12.331019864763533 5.1103316621346906 4.5935867268106216 -2.4180217634547843 1.7219494535809472 8.3080348719721258 1.0062629649513646 -1.5255083080969358 3.2297271511771464 0.39652571023964306 2.3023239910602569 8.386279064178467 -0.32828412376344207 2.0348983565966292 -2.5298912197351457 -1.5860556016797605 -0.49920625829696652 -3.0370864800291888 0.13122482610785444 -2.4915545255157872 0.60185519487429895 4.7831314029364753 -2.8581188519086158 1.9961588551600773 -1.1154880123005975 -2.8965494938194754
leaf_weight=261 21 26 22 91 21 33 23 33 21 23 38 38 33 41 20 25 40 24 20 46 25 114 23 281 39 29 56 24 27 28
leaf_count=261 21 26 22 91 21 33 23 33 21 23 38 38 33 41 20 25 40 24 20 46 25 114 23 281 39 29 56 24 27 28
internal_value=-0.0153148 -0.924713 5.26881 -1.37237 8.87962 4.42498 1.27542 0.893828 -1.84884 5.31413 2.54118 1.92304 0.684672 -0.85861 4.63904 5.20897 -1.94909 3.81541 -0.251856 -0.10345 -1.2449 -2.20609 -1.98781 -2.1064 -1.27386 3.52166 -2.13006 -0.642396 0.348816 -1.38581
internal_weight=1546 1319 227 1096 43 184 223 200 769 125 59 126 71 74 102 82 748 57 327 307 200 548 434 411 130 55 81 119 51 68
internal_count=1546 1319 227 1096 43 184 223 200 769 125 59 126 71 74 102 82 748 57 327 307 200 548 434 411 130 55 81 119 51 68
is_linear=0
shrinkage=0.05


Tree=15
num_leaves=31
num_cat=0
split_feature=2 0 4 26 35 11 36 26 16 35 28 27 38 31 33 23 28 28 16 35 2 26 33 29 33 29 28 31 11 13
split_gain=2.42159e+06 450415 203935 179045 146787 86287.6 84416 88978.1 101994 82973.5 100235 116399 93303.4 55550.5 86823.4 81115.3 57234.6 64445 54948.6 49963.4 45544.1 43148.2 37899.5 60368.1 38841.7 37336 64587.5 56900.2 35937 34974.8
threshold=1.1900005513471814 0.11045593579762544 0.91399248929414001 2.1300265143136508 -0.2764588670557066 2.6260845752654989 0.84210435108429993 1.4055386503778264 1.6498784394262895 -0.51737217269939684 -0.027968550485206949 0.2468934539742608 -0.59238581769740495 0.24217081201973029 0.30636700876646156 -0.18108275707588437 0.37292062546920629 0.67653037280739914 0.34555109569465775 0.28559327223125425 -0.24052792290406946 -0.63108601096516115 0.33186121657478546 -0.21665960441984344 0.63977180424957325 0.3634252307518982 -0.12867405674169549 -0.12286608562866698 -0.062914756520835335 -0.51949048511028872
decision_type=2 2 2 2 2 2 2 2 2 2 2 2 2 2 2 2 2 2 2 2 2 2 2 2 2 2 2 2 2 2
left_child=1 2 4 9 25 18 7 8 13 -2 -11 -12 -13 14 15 -3 -15 -18 -5 -8 -4 -6 23 -22 -24 26 27 -1 29 -23
right_child=3 6 20 5 21 -7 19 -9 -10 10 11 12 -14 16 -16 -17 17 -19 -20 -21 22 28 24 -25 -26 -27 -28 -29 -30 -31
leaf_value=-0.054403462799468838 6.32087479877472 -1.2202555197657963 -2.8960087361543074 4.3840738564729689 -1.7802336683592845 9.2349309340767238 0.6659123486485975 3.5002924223203919 3.6166718894037708 0.65792168537775675 6.1782566156652239 4.9530259268624448 0.54414812645741872 3.3670184603104225 -2.3497924254621778 2.0590620197694411 -1.744027924835682 1.8138983765670234 7.4005927672752962 -2.1994982585310936 -2.8410439911342804 1.4414208784103395 -3.9676138584430407 0.53221909271346202 -1.4163033417293005 2.063179801759266 -2.033336847706845 2.7414382654428486 -1.9060571816078451 -0.73724371075630191
leaf_weight=202 25 33 184 36 291 23 29 37 29 30 36 21 28 26 35 44 20 35 26 32 21 25 26 36 35 21 38 20 43 70
leaf_count=202 25 33 184 36 291 23 29 37 29 30 36 21 28 26 35 44 20 35 26 32 21 25 26 36 35 21 38 20 43 70
internal_value=0.0114661 -0.798963 -1.31599 4.80921 -0.853071 6.61936 0.836118 1.23023 0.851889 3.71019 3.14265 4.01961 2.43367 0.436456 -0.284932 0.65364 1.43393 0.520107 5.64907 -0.837254 -2.40429 -1.43492 -1.63755 -0.710562 -2.50375 0.0352286 -0.128567 0.197474 -0.706754 -0.163911
internal_weight=1557 1332 1012 225 710 85 320 259 222 140 115 85 49 193 112 77 81 55 62 61 302 429 118 57 61 281 260 222 138 95
internal_count=1557 1332 1012 225 710 85 320 259 222 140 115 85 49 193 112 77 81 55 62 61 302 429 118 57 61 281 260 222 138 95
is_linear=0
shrinkage=0.05


Tree=16
num_leaves=31
num_cat=0
split_feature=2 14 4 14 34 27 22 33 33 0 25 26 33 23 27 0 11 2 30 2 12 23 25 31 12 33 17 35 35 36
split_gain=2.18549e+06 450367 190186 171132 128005 101662 134410 95313.1 89205 88117.8 75022.9 72421.6 65110.8 56703.8 50341.5 50041.5 60177.1 43466.5 47217.2 44805.3 41608.1 36845.2 73474.4 59774.7 50450.5 34076.7 32820.7 34949.3 79371.1 22873.2
threshold=1.1900005513471814 0.28724498423560574 0.91399248929414001 1.5317298157400794 -0.39805814329371009 0.2518902109003619 1.1305543767099708 -0.11329731740878336 -0.44890501876513406 2.6718826755255916 1.9667477144954815 -0.036654918278274613 -0.72473746735066735 0.28136511063991893 0.92092424815371876 1.9272048515221993 1.6354006109231651 -0.045032952214974616 1.0000000180025095e-35 0.15197071887048919 -0.30535581442515325 1.0420834526229683 0.99466501813670838 0.26109314625042856 0.90405738174448047 1.1677493897858837 -0.032726994479243363 -0.28095528616172 -0.60114751103596042 0.84210435108429993
decision_type=2 2 2 2 2 2 2 2 2 2 2 2 2 2 2 2 2 2 2 2 2 2 2 2 2 2 2 2 2 2
left_child=1 2 4 5 -1 6 -2 8 12 10 15 -9 -3 -10 17 16 -5 26 19 -19 25 22 23 24 -13 29 27 28 -6 -4
right_child=3 7 20 9 14 -7 -8 11 13 -11 -12 21 -14 -15 -16 -17 -18 18 -20 -21 -22 -23 -24 -25 -26 -27 -28 -29 -30 -31
leaf_value=0.23802370981384932 5.8720979969709575 2.855947199734775 -2.9839944578383282 5.1420642197132116 -1.5240928795809547 0.56158465031654614 0.88772869110107422 -2.1060713790081169 2.1298465405741047 8.3741914577484131 2.9533261040846508 -1.2788313615322116 -0.63497111315236376 5.330357700824738 -2.5022872965810681 4.603100106655023 8.974306088402157 2.7020141465323313 -1.4390928173230755 -0.27025524117052557 -0.65052689458384672 2.5996043161912397 -1.5957593329689084 2.6689217048722345 1.963161325454712 -0.85529120851446094 -2.9818690134928776 -1.4019420824220612 1.6613229751586915 -1.7481006399114083
leaf_weight=208 38 22 184 20 48 31 21 27 31 25 30 30 34 25 67 39 21 21 36 32 33 22 34 37 20 27 26 288 33 47
leaf_count=208 38 22 184 20 48 31 21 27 31 25 30 30 34 25 67 39 21 21 36 32 33 22 34 37 20 27 26 288 33 47
internal_value=0.0108928 -0.759015 -1.23548 4.56875 -0.818812 2.8799 4.098 1.01506 2.14755 5.69465 5.08566 0.268941 0.736461 3.55865 -1.21776 5.88528 7.10492 -1.03995 -0.0417215 0.907436 -2.32225 0.71737 0.375145 1.14538 0.0179657 -2.53608 -1.26486 -1.14388 -0.226331 -2.73254
internal_weight=1557 1332 1050 225 759 90 59 282 112 135 110 170 56 56 551 80 41 484 89 53 291 143 121 87 50 258 395 369 81 231
internal_count=1557 1332 1050 225 759 90 59 282 112 135 110 170 56 56 551 80 41 484 89 53 291 143 121 87 50 258 395 369 81 231
is_linear=0
shrinkage=0.05


Tree=17
num_leaves=31
num_cat=0
split_feature=11 14 34 33 33 26 28 31 13 33 26 38 15 26 18 28 41 28 34 11 35 14 16 12 22 24 12 28 22 35
split_gain=1.93429e+06 504860 153951 129427 115910 103022 94992.1 98427.8 85998.1 80459.8 64847.4 61876.6 55877.5 104220 128950 59446.7 55661.8 49778.2 46879 46257.1 53299.5 63991.1 41748.5 41661.2 38111.8 37244.1 48270.1 43752.8 37770.3 28652.7
threshold=1.3958945975656778 0.28724498423560574 -0.39805814329371009 -0.087506099458064854 -0.44890501876513406 0.93717481711959227 0.8244929379809337 -0.24247673587752402 0.44596916546744902 0.66279086209548776 0.67067819749212754 -0.89797794740232872 1.4419407735506111 2.5353566920869617 0.90780979617191615 0.4447216107963391 0.981625854914142 -0.41515302244206087 1.0000000180025095e-35 -0.033883724598715685 0.15945692086370719 -0.018982814543807628 0.73448805724964139 0.52213742505933303 1.0664789649607302 0.84574596394827772 -0.20987582525386642 -0.38216732301561285 0.29927672721912157 1.4664943796542211
decision_type=2 2 2 2 2 2 2 2 2 2 2 2 2 2 2 2 2 2 2 2 2 2 2 2 2 2 2 2 2 2
left_child=1 2 16 4 17 -2 7 -5 -6 11 -8 -9 13 14 15 22 -1 -3 -10 25 -21 -22 -7 -13 -19 27 28 -4 -27 -29
right_child=5 3 19 6 8 12 10 9 18 -11 -12 23 -14 -15 -16 -17 -18 24 -20 20 21 -23 -24 -25 -26 26 -28 29 -30 -31
leaf_value=0.26424155357520823 2.3508096500805449 2.6662063336372377 0.41449382382054484 2.601187448469656 5.3326974800654821 4.0595414066314701 0.0010445407458714077 1.2315300091224559 3.5067653219699859 -3.6919674952824915 3.7056804621661152 0.18653762340545654 3.1489468157291416 8.4126733434611349 7.2795105253395285 5.7828167910873889 -2.2833878914515178 1.2431747865676881 0.30227991512843544 1.0058803429729062 0.70146941650997519 -2.7398265714304788 0.82888760328292843 -2.8013370318072184 -1.7412097746911259 -2.8484516706826879 -0.18739125704765322 -1.6200314955689059 -0.57341766910893577 -0.1382949447631836
leaf_weight=201 35 20 31 21 35 20 21 34 25 24 27 20 24 29 38 20 24 20 21 38 22 35 20 28 23 139 25 481 21 35
leaf_count=201 35 20 31 21 35 20 21 34 25 24 27 20 24 29 38 20 24 20 21 38 22 35 20 28 23 139 25 481 21 35
internal_value=0.0103482 -0.638771 -1.16712 1.10364 2.2139 4.79498 0.190048 -0.526118 3.46496 -1.14568 2.0849 -0.400423 5.36151 5.77964 5.00047 3.55708 -0.00750559 0.605394 2.04385 -1.48262 -0.444612 -1.41161 2.44421 -1.55639 -0.353124 -1.61733 -2.2306 -1.40992 -2.54985 -1.51953
internal_weight=1557 1371 1052 319 144 186 175 127 81 106 48 82 151 127 98 60 225 63 46 827 95 57 40 48 43 732 185 547 160 516
internal_count=1557 1371 1052 319 144 186 175 127 81 106 48 82 151 127 98 60 225 63 46 827 95 57 40 48 43 732 185 547 160 516
is_linear=0
shrinkage=0.05


Tree=18
num_leaves=31
num_cat=0
split_feature=2 14 4 14 34 27 22 33 33 28 33 26 11 25 25 2 13 18 27 12 13 29 29 28 11 34 28 29 38 12
split_gain=1.79565e+06 362779 159828 140545 103897 90280 121696 80555.2 104944 73775.6 114798 86126.3 57540.6 79893.9 60365.7 57503.6 56368 51957.4 44615.1 37365.4 37164.4 36062.9 59946.2 55802.1 44088.7 56103.5 41209.3 38604.5 37026.9 35713.8
threshold=1.1900005513471814 0.28724498423560574 0.91399248929414001 1.5317298157400794 -0.39805814329371009 0.2518902109003619 1.1305543767099708 -0.19497777060569074 -0.44890501876513406 0.77161766681355182 0.73568448150378463 0.66429504325881561 2.725273934332741 1.9667477144954815 1.5950452775543338 1.8936695259966763 0.76778904899336176 1.4381881695647742 0.92092424815371876 0.20387079448837672 0.44596916546744902 0.66918120593001607 0.93836758722423108 0.48925919878493046 -0.42096415022697781 0.40896384584970197 0.39321444327816096 0.2709156612863714 0.90396185189222156 -0.30535581442515325
decision_type=2 2 2 2 2 2 2 2 2 2 2 2 2 2 2 2 2 2 2 2 2 2 2 2 2 2 2 2 2 2
left_child=1 2 4 5 -1 6 -2 8 16 10 17 -11 13 14 -5 -16 -3 -9 19 21 -10 23 -23 26 25 27 28 -25 -6 -4
right_child=3 7 29 12 18 -7 -8 9 20 11 -12 -13 -14 -15 15 -17 -18 -19 -20 -21 -22 22 -24 24 -26 -27 -28 -29 -30 -31
leaf_value=0.21842210808267387 5.4467343142158109 -0.66030008792877204 -2.3100416287317755 4.0959819626163796 -1.0664277991145543 0.42605158975047452 0.70395944459097726 0.86394265613863974 5.5358496570587157 -0.44830380461432723 -3.7185138236908686 3.700402047716338 7.3268595352172854 2.6111062714547821 8.7938330399990079 5.0022779369354247 2.5641777115995472 -1.7574508433540661 -2.3023890032697079 0.5183527583756099 2.524225555147444 2.0839322712110437 -1.3342045833324565 -0.48347470513705554 1.3287693165963697 1.1828712546307107 -3.4938823461532595 -3.11073049792537 -2.4787480616178672 -0.56314294825900679
leaf_weight=208 38 33 258 37 194 31 21 89 20 22 21 29 25 33 20 20 23 24 67 41 21 23 29 29 31 23 26 27 61 33
leaf_count=208 38 33 258 37 194 31 21 89 20 22 21 29 25 33 20 20 23 24 67 41 21 23 29 29 31 23 26 27 61 33
internal_value=0.00983074 -0.688042 -1.11567 4.14124 -0.733704 2.61074 3.75863 0.904199 2.07126 0.292282 -0.323707 1.91076 5.16157 4.66946 5.5516 6.89806 0.664039 0.307187 -1.09313 -0.92573 3.99331 -1.05938 0.177664 -1.2239 -0.269205 -0.896259 -1.59762 -1.75019 -1.40428 -2.11194
internal_weight=1557 1332 1050 225 759 90 59 282 97 185 134 51 135 110 77 40 56 113 551 484 41 443 52 391 110 79 281 56 255 291
internal_count=1557 1332 1050 225 759 90 59 282 97 185 134 51 135 110 77 40 56 113 551 484 41 443 52 391 110 79 281 56 255 291
is_linear=0
shrinkage=0.05


Tree=19
num_leaves=31
num_cat=0
split_feature=2 11 4 0 27 28 35 13 13 33 33 2 11 2 13 12 31 13 2 35 29 28 31 33 31 28 35 31 25 33
split_gain=1.62058e+06 305071 146951 129895 97676.5 100639 88602.8 83062.2 82786.4 77028.7 76259.3 61812.4 59479.2 112313 62094.8 70725.5 51395.2 47337.7 46600.4 42473.8 39641.3 68152.8 56620.1 38518.8 36795.5 58109.3 36731.9 36136.5 33023.7 31049.1
threshold=1.1900005513471814 0.014501328604817081 0.91399248929414001 2.6718826755255916 0.2468934539742608 -0.038473587216823764 -0.2764588670557066 1.0896089325192744 1.0896089325192744 -0.79186395479854965 0.23285460243002556 1.6368049011905168 0.11731956666232422 0.35988057674355495 1.0000000180025095e-35 1.3178040014867236 0.069562238920342898 1.4114288160451871 -0.048257531830937575 0.0032656046249270976 0.49410434641135786 -0.12867405674169549 -0.12286608562866698 1.1677493897858837 0.26275974264717133 0.4447216107963391 0.15330394039673709 0.19858279452944586 0.20466266480866788 0.33186121657478546
decision_type=2 2 2 2 2 2 2 2 2 2 2 2 2 2 2 2 2 2 2 2 2 2 2 2 2 2 2 2 2 2
left_child=1 2 6 4 5 11 20 -6 -7 -3 -9 -2 -11 19 16 17 -15 24 -8 -14 21 22 -1 29 -16 -26 -10 -20 -21 -4
right_child=3 9 23 -5 7 8 18 10 26 12 -12 -13 13 14 15 -17 -18 -19 27 28 -22 -23 -24 -25 25 -27 -28 -29 -30 -31
leaf_value=-0.095213071987180431 1.5152264306942622 3.6492210578918463 -1.7247245445847512 7.3321416454315189 -0.46644964529120403 8.1679763750596486 -1.3361359952449801 0.99234635035196939 5.8516985188359802 2.9003057031527812 5.0794495239257813 4.6800155498363356 0.25962918202082313 3.8466484647530779 -1.2954602773136954 3.076811226606369 0.94587448835372934 1.7030492034451716 1.8879218822433836 -1.0585870386362077 2.1352920579910282 -2.1618016874468005 2.6937394422292709 -0.35959260463714604 2.4684283339551518 -1.1330753485361735 3.0258898088465571 -1.0817622101306916 -3.683831946487012 -2.8088358025570388
leaf_weight=202 36 20 144 25 23 22 375 21 23 23 25 27 24 26 68 20 37 29 21 25 20 37 20 31 21 24 23 20 23 122
leaf_count=202 36 20 144 25 23 22 375 21 23 23 25 27 24 26 68 20 37 29 21 25 20 37 20 31 21 24 23 20 23 122
internal_value=0.00933922 -0.65364 -1.09664 3.93417 3.50943 4.31136 -0.698819 1.98692 5.64529 0.638872 3.2136 2.87156 0.450725 0.261027 0.811052 0.293065 2.14302 -0.0990119 -1.16115 -1.4578 -0.00945904 -0.175077 0.156044 -2.02756 -0.561488 0.547626 4.43879 0.439295 -2.31652 -2.22195
internal_weight=1557 1332 992 225 200 131 695 69 68 340 46 63 320 297 225 162 63 142 416 72 279 259 222 297 113 45 46 41 48 266
internal_count=1557 1332 992 225 200 131 695 69 68 340 46 63 320 297 225 162 63 142 416 72 279 259 222 297 113 45 46 41 48 266
is_linear=0
shrinkage=0.05


Tree=20
num_leaves=31
num_cat=0
split_feature=0 33 2 14 38 2 0 2 28 33 31 31 12 33 15 32 22 28 33 33 29 26 15 33 28 33 29 38 29 15
split_gain=1.66994e+06 316316 156937 142396 135648 128013 92287.9 102593 84908.8 97702.9 84885.5 82849.8 71570.8 65745.5 59529.7 56357.2 49413.2 42650.8 30933 69249.1 50886.8 35618.4 38857.9 31382.7 33795.5 29281.8 70925.4 60529.6 38376.6 29850.4
threshold=1.1765343121460978 -0.19497777060569074 -0.050625160276705848 0.42257769949972523 0.69019789909370333 1.6058852248657336 0.95436104485897733 0.53921206232210228 0.78116420165502221 0.17147048731616876 0.16968648276545611 0.40108762682721183 1.4769373167722017 -0.34361147588397306 1.3292825678771771 1.0000000180025095e-35 1.2004548258909609 0.9972616078879859 0.40287371062075455 0.23102296639005085 0.31399922876785541 -0.28240629514850285 0.94123763722423714 0.49460335042476922 0.23038379504075232 0.2222113779818968 -0.028440573087062628 0.49299312573732396 -0.23014461993419094 0.03997199183676392
decision_type=2 2 2 2 2 2 2 2 2 2 2 2 2 2 2 2 2 2 2 2 2 2 2 2 2 2 2 2 2 2
left_child=1 3 25 4 15 8 7 -5 9 12 16 -12 -2 -13 17 -1 -7 18 19 20 21 -4 -23 -20 -25 26 28 -28 -3 -27
right_child=5 2 14 6 -6 10 -8 -9 -10 -11 11 13 -14 -15 -16 -17 -18 -19 23 -21 -22 22 -24 24 -26 29 27 -29 -30 -31
leaf_value=0.99242990821820176 3.8426231933194539 -1.048792953935324 0.34738591728003132 0.84201795373644162 -1.9100258398411878 1.9407731129063501 -0.12617471714814504 5.2869078145307657 -0.19073984509422667 6.1685372870901354 8.2672822793324787 6.9647205924987787 0.82082156671418083 3.1824281745486793 2.3646177692072734 -0.86677969250024545 5.0256756215095528 1.2688041090965272 -3.0654172739386563 1.9020181052386762 1.019013507904545 -2.9658130274007197 -0.45727320680251488 0.76932593428570295 -1.4901968443040121 -2.0235306503641053 1.4143566298775558 -1.5134828790541619 -3.132357322558379 -1.049588662736556
leaf_weight=203 43 51 23 21 67 27 24 34 21 23 27 20 36 27 21 51 25 34 20 32 31 38 26 23 59 344 41 31 39 102
leaf_count=203 43 51 23 21 67 27 24 34 21 23 27 20 36 27 21 51 25 34 20 32 31 38 26 23 59 344 41 31 39 102
internal_value=0.0973208 -0.613629 -1.12636 0.559237 0.0912329 3.85194 2.46087 3.58977 2.7045 3.30058 4.97206 6.05995 2.4656 4.79191 -0.204838 0.619124 3.4239 -0.393504 -0.617784 -0.160974 -0.72043 -1.34023 -1.94672 -1.28956 -0.856428 -1.59166 -1.01592 0.153759 -1.95167 -1.80079
internal_weight=1564 1315 915 400 321 249 79 55 123 102 126 74 79 47 307 254 52 286 252 150 118 87 64 102 82 608 162 72 90 446
internal_count=1564 1315 915 400 321 249 79 55 123 102 126 74 79 47 307 254 52 286 252 150 118 87 64 102 82 608 162 72 90 446
is_linear=0
shrinkage=0.05


Tree=21
num_leaves=31
num_cat=0
split_feature=0 33 11 14 38 14 22 15 31 0 13 18 15 35 14 32 35 31 17 28 33 29 38 27 28 12 28 31 32 38
split_gain=1.50712e+06 285476 139307 128512 122422 116049 113440 93392.2 91109.1 83289.9 81684.5 67933.5 60063.9 55065 51989 50862.4 50539.2 59871.1 47336.6 45769.3 44406 54779.7 43460 38452.3 37967 50593 36077.3 28340.8 27613.6 35407.3
threshold=1.1765343121460978 -0.19497777060569074 -0.045979987899598875 0.42257769949972523 0.69019789909370333 1.5317298157400794 1.0244490794916479 1.4419407735506111 0.16968648276545611 0.95436104485897733 1.7332486995710996 1.4381881695647742 1.3292825678771771 1.7876332123806244 2.1057420152401223 1.0000000180025095e-35 0.63749705542803714 0.49941707491865756 -0.059121623162693142 -0.038473587216823764 0.2222113779818968 -0.028440573087062628 0.49299312573732396 0.27330494265233846 0.58254254410287543 0.68127074034481117 -0.028708697325744853 0.24370921011022981 1.0000000180025095e-35 0.69019789909370333
decision_type=2 2 2 2 2 2 2 2 2 2 2 2 2 2 2 2 2 2 2 2 2 2 2 2 2 2 2 2 2 2
left_child=1 3 13 4 15 6 -2 8 10 18 -7 14 16 20 -10 -1 17 24 -5 -8 21 -3 -23 -21 25 -4 -27 -6 -22 -30
right_child=5 2 12 9 27 7 19 -9 11 -11 -12 -13 -14 -15 -16 -17 -18 -19 -20 23 28 22 -24 -25 -26 26 -28 -29 29 -31
leaf_value=0.94280852941885651 4.6551335309002857 -1.7018427215046004 -1.6454304995106872 1.8034213180541994 -2.5093393507211106 5.6040375366210942 -0.72074947257836663 2.0089934799620615 5.9335312418315729 -0.11986597180366516 1.5202572494745255 4.1193346897761023 2.4593609305945314 0.96874005379884132 9.3744813215164911 -0.82344069551019106 -1.5453420417062169 2.0049746360097611 4.7493283053239193 3.3865915977037875 -1.3121891983287046 1.1429915731603451 -1.0550256200458692 0.58000256704247521 1.6547108811140061 -0.85586194765000112 2.0749788500013806 -0.29254931211471558 -2.6140604547317459 -1.4860531451628189
leaf_weight=203 37 95 61 25 46 25 21 28 23 24 24 21 22 23 21 51 58 35 30 26 189 44 46 23 20 21 21 21 151 129
leaf_count=203 37 95 61 25 46 25 21 28 23 24 24 21 22 23 21 51 58 35 30 26 189 44 46 23 20 21 21 21 151 129
internal_value=0.0924548 -0.582948 -1.07004 0.531275 0.0866714 3.65934 2.41585 4.59634 5.23183 2.33783 3.60382 6.4591 -0.0295184 -1.43584 7.5758 0.588168 -0.283015 0.18037 3.41028 1.23222 -1.5204 -0.864403 0.0195606 2.06921 -0.338826 -0.72592 0.609558 -1.81452 -1.77916 -2.09437
internal_weight=1564 1315 915 400 321 249 107 142 114 79 49 65 238 677 44 254 216 158 55 70 654 185 90 49 123 103 42 67 469 280
internal_count=1564 1315 915 400 321 249 107 142 114 79 49 65 238 677 44 254 216 158 55 70 654 185 90 49 123 103 42 67 469 280
is_linear=0
shrinkage=0.05


Tree=22
num_leaves=31
num_cat=0
split_feature=2 11 34 14 2 23 23 22 16 2 16 11 23 32 2 33 31 30 15 11 25 31 26 26 1 33 27 23 27 31
split_gain=1.36248e+06 261292 260476 118351 97872 89674.8 78495.2 156831 62513.7 57977.1 56104.8 54400.4 50004.3 72772 49361.5 40726 73985.4 37543.7 34874.4 34474.7 41255.5 34114.1 28034.7 39540.2 27846.1 23000.7 42946.6 57320.7 27077.6 34582.1
threshold=1.1900005513471814 0.64108776759056652 -0.80156913786541606 1.5317298157400794 -0.050625160276705848 1.4773713635964592 0.95311800605907393 1.0244490794916479 1.7682646282863879 0.13694608974844494 1.0898669351052799 0.75237338995869185 -0.18108275707588437 1.0000000180025095e-35 1.9717236551040964 -0.087506099458064854 0.26929792865752977 1.0000000180025095e-35 0.94123763722423714 -0.2782282432765561 -0.17835244886309184 0.20930031977080191 0.42492682115692881 -0.059394896911764271 1.1463355617380013 0.2222113779818968 -0.017095019971030977 -0.33072608694441957 1.3148829373470055 -0.064919638972638513
decision_type=2 2 2 2 2 2 2 2 2 2 2 2 2 2 2 2 2 2 2 2 2 2 2 2 2 2 2 2 2 2
left_child=1 2 -1 5 25 6 7 -2 9 18 12 -3 13 -5 -14 17 -17 -13 21 -11 -21 -6 23 -22 -24 26 -4 -28 29 -27
right_child=3 11 4 10 8 -7 -8 -9 -10 19 -12 15 14 -15 -16 16 -18 -19 -20 20 22 -23 24 -25 -26 28 27 -29 -30 -31
leaf_value=0.89427514906329009 5.9851437409718837 3.5688264389832818 -1.948442546850027 2.9295103037798849 -1.0651697410477532 5.2856405915319922 -0.92612586332404101 0.60108087851028702 2.0765874425570172 -2.9734679125604178 6.1979852003020213 0.8082526832013518 4.3076536744832996 6.4542044449597604 0.79476641893386846 -1.3820411695016397 1.9592851028839746 3.2110135637480641 2.3389490520954133 1.3071522414684296 -0.93573754886786153 1.2859478350038884 0.088900118207527426 -3.3849452784428231 -2.0312252430688766 -0.98255987121063537 0.042470528754321016 -2.1677974773198367 -0.24367511003248155 -2.0404646647183835
leaf_weight=191 21 24 86 27 36 20 23 38 24 21 37 37 20 32 20 37 30 29 20 20 45 27 59 26 21 103 110 40 31 309
leaf_count=191 21 24 86 27 36 20 23 38 24 21 37 37 20 32 20 37 30 29 20 20 45 27 59 26 21 103 110 40 31 309
internal_value=0.0878321 -0.537388 -0.794608 3.5712 -1.12444 2.28374 1.55156 2.51744 -0.370688 -0.584268 4.5368 1.37783 3.91596 4.84121 2.55121 0.982464 0.114075 1.86401 0.519921 -1.0616 -0.826809 -0.0575479 -1.10945 -1.83263 -0.467633 -1.45636 -1.05765 -0.546934 -1.66876 -1.77599
internal_weight=1564 1326 1169 238 978 102 82 59 299 275 136 157 99 59 40 133 67 66 83 192 171 63 151 71 80 679 236 150 443 412
internal_count=1564 1326 1169 238 978 102 82 59 299 275 136 157 99 59 40 133 67 66 83 192 171 63 151 71 80 679 236 150 443 412
is_linear=0
shrinkage=0.05


Tree=23
num_leaves=31
num_cat=0
split_feature=0 33 26 25 2 35 31 12 31 16 23 28 22 35 26 31 22 12 27 33 22 35 15 34 33 29 35 29 25 35
split_gain=1.23686e+06 234124 114706 114700 100398 87239.2 75223.9 70925.8 69969.3 72265.2 134230 60166.2 59714.4 61514.6 59457.8 44342.3 43080.6 33337.9 34458.2 54636.1 33297.1 34105.4 26749.9 45591.8 38603 72409.3 35207.6 34274.8 34268.8 38657.8
threshold=1.1765343121460978 -0.19497777060569074 0.39819736613400891 1.0945937248551014 1.6058852248657336 -0.48116417564635611 -0.15760829858670011 0.68127074034481117 0.16968648276545611 1.0898669351052799 1.0000000180025095e-35 0.9972616078879859 0.7928814375894967 0.38404112163563237 2.0649981025024515 0.31865497221737654 1.2004548258909609 0.33117744671675925 0.35996682283737413 0.20394466302034808 1.0732001619973637 1.7876332123806244 0.090042305469401354 0.40896384584970197 0.17147048731616876 -0.028440573087062628 0.66187237958673129 -0.23014461993419094 0.39288416529494818 0.56721095750036643
decision_type=2 2 2 2 2 2 2 2 2 2 2 2 2 2 2 2 2 2 2 2 2 2 2 2 2 2 2 2 2 2
left_child=1 3 7 5 6 -1 -2 20 16 10 -10 17 -7 -14 15 -8 -6 -4 19 -19 21 22 24 28 25 27 -27 -3 29 -24
right_child=4 2 11 -5 8 12 14 -9 9 -11 -12 -13 13 -15 -16 -17 -18 18 -20 -21 -22 -23 23 -25 -26 26 -28 -29 -30 -31
leaf_value=0.96400185182766318 4.6301236223291466 -0.7213679729281246 1.6413971797279689 3.7598295974731446 1.5162893525980137 -1.2137906438060877 -0.31436377119373637 1.5458091549251392 6.3515874887334896 7.4818856716156006 1.0270899093151094 2.9605998849868778 -0.88279557057789393 2.4315281323024207 3.6320086885381628 2.2273581728339198 4.3967410278320314 -1.0642995802561444 -1.8582394615064066 2.3095010733604435 -2.9645204348223553 0.57082949143189654 -0.37293645761907102 -1.7638542482981814 -1.7252270018004698 1.3045265681521838 -1.1931406997499012 -2.8593085289001468 -2.0948361718654631 1.8795822718143462
leaf_weight=203 27 37 23 25 27 116 37 23 29 25 20 20 28 28 27 32 25 30 30 20 28 26 80 74 377 43 21 38 20 25
leaf_count=203 27 37 23 25 27 116 37 23 29 25 20 20 28 28 27 32 25 30 30 20 28 26 80 74 377 43 21 38 20 25
internal_value=0.0834404 -0.528414 -0.969527 0.480632 3.31472 0.262019 2.29855 -1.19015 4.30669 5.29439 4.17832 0.451041 -0.566484 0.774366 1.64279 0.864406 2.90112 -0.0362526 -0.518577 0.285221 -1.27197 -1.20802 -1.2727 -0.780238 -1.46263 -0.7504 0.484979 -1.80459 -0.197937 0.163378
internal_weight=1564 1315 915 400 249 375 123 792 126 74 49 123 172 56 96 69 52 103 80 50 769 741 715 199 516 139 64 75 125 105
internal_count=1564 1315 915 400 249 375 123 792 126 74 49 123 172 56 96 69 52 103 80 50 769 741 715 199 516 139 64 75 125 105
is_linear=0
shrinkage=0.05


Tree=24
num_leaves=31
num_cat=0
split_feature=0 33 16 0 1 0 27 4 29 12 26 28 31 31 28 12 0 29 28 26 33 25 11 35 27 11 14 35 35 25
split_gain=1.11626e+06 211297 105858 105540 95440.1 135288 88996 88130.2 87836.9 60054 55328 51008.2 46329.7 80811.6 51378.3 45406.7 37183.1 31316.8 31301.6 30839.1 52001.5 28455 26015.7 31996.6 32541.8 30651.8 35640.7 24785.3 23642.7 23178.5
threshold=1.1765343121460978 -0.19497777060569074 1.2084379587663323 0.52837126797385126 1.001515846062806 1.6235302148004205 0.46498934022575317 0.11611178304259759 0.42233658376525146 1.4769373167722017 0.39819736613400891 0.30967300594432046 0.16968648276545611 0.40108762682721183 0.16575795705050758 0.33117744671675925 -0.40712825569241567 -0.15009157792322494 -0.13685513482569336 0.90166853548867121 -0.86102008868710989 1.8102555928177779 0.29513463718530719 1.7876332123806244 0.92092424815371876 -0.045979987899598875 -0.08705054508785473 0.5750205259527067 -0.089502579152808653 1.0024761661938761
decision_type=2 2 2 2 2 2 2 2 2 2 2 2 2 2 2 2 2 2 2 2 2 2 2 2 2 2 2 2 2 2
left_child=1 2 7 10 -2 6 9 19 11 29 22 18 14 -14 -7 -12 -9 -4 -5 20 -1 -15 23 24 25 -3 -27 28 -22 -6
right_child=4 3 17 8 5 12 -8 16 -10 -11 15 -13 13 21 -16 -17 -18 -19 -20 -21 27 -23 -24 -25 -26 26 -28 -29 -30 -31
leaf_value=0.85186439021516236 5.6981042698025703 -1.2107639052321257 4.2120613620394751 -1.0157492530345917 1.9768820023536684 3.9528720124201344 -1.5786314146859306 -2.7337401262919112 2.4086550331115726 0.081262985616922384 1.8295966233525958 -2.4604685140692673 6.934345626831055 4.7219679106836736 0.8334601293910634 -1.2896996432542802 -0.41730874667807322 1.4475013566017152 1.6625479616224768 2.0604310683665736 -0.27046613693237304 2.3076389598158693 -2.744675782688514 0.5583356206233685 -2.1909440249586716 1.7145078881084921 -1.0104035059611003 0.54555262235494761 -2.4449875564575194 4.2816028267145159
leaf_weight=181 32 579 21 20 20 33 21 30 40 23 28 23 25 23 22 20 41 20 24 31 25 26 27 26 78 20 30 26 25 24
leaf_count=181 32 579 21 20 20 33 21 30 40 23 28 23 25 23 22 20 41 20 24 31 25 26 27 26 78 20 30 26 25 24
internal_value=0.0792684 -0.501993 0.456601 -0.92105 3.14898 2.77308 1.26152 0.181719 0.554594 2.15172 -1.11646 -0.552308 3.80421 4.62112 2.70511 0.52989 -1.39608 2.8635 0.44514 0.57069 0.390994 3.4409 -1.22044 -1.1643 -1.22765 -1.10819 0.0795611 -0.706605 -1.35773 3.234
internal_weight=1564 1315 400 915 249 217 88 359 107 67 808 67 129 74 55 48 71 41 44 288 257 49 760 733 707 629 50 76 50 44
internal_count=1564 1315 400 915 249 217 88 359 107 67 808 67 129 74 55 48 71 41 44 288 257 49 760 733 707 629 50 76 50 44
is_linear=0
shrinkage=0.05


Tree=25
num_leaves=31
num_cat=0
split_feature=2 14 14 35 15 28 28 18 32 34 2 14 29 28 2 11 14 17 11 30 29 29 18 12 23 15 28 11 29 33
split_gain=866230 178066 115438 134544 78564 91005.3 73663.1 67798.7 66053.5 58151.6 57317.5 42768.3 54459.7 46569.3 45957.4 69109.2 73248.9 67452.4 50158.1 42538.6 42124.6 41382.5 55179.8 41281.8 48392.5 46410.3 37572.8 38572 45983.4 49550.7
threshold=1.1900005513471814 -0.0986957340749436 1.8381775244568448 0.33150403841844422 0.90368490199975904 0.17142056358512633 0.14398718173064415 0.90780979617191615 -0.40950373231054082 0.81247484042140805 -0.40412081811828715 0.99169649978376995 0.35708271161503252 0.10877840273556941 0.13694608974844494 0.47053045504811347 0.77902608725679567 1.2323020634091135 0.11731956666232422 1.0000000180025095e-35 0.057040830753407011 -0.003013291028079239 0.37743142277905828 -0.17804916219677078 0.66811750700703454 0.34039387363258827 -0.51090582589236233 -0.60966585772075554 -0.14054921087298744 0.33186121657478546
decision_type=2 2 2 2 2 2 2 2 2 2 2 2 2 2 2 2 2 2 2 2 2 2 2 2 2 2 2 2 2 2
left_child=1 8 4 6 7 -6 -4 -2 10 11 -1 14 13 -13 21 18 17 19 -16 -17 -20 -3 -23 24 26 -25 -10 -28 -29 -30
right_child=2 9 3 -5 5 -7 -8 -9 23 -11 -12 12 -14 -15 15 16 -18 -19 20 -21 -22 22 -24 25 -26 -27 27 28 29 -31
leaf_value=0.062768297398632225 4.9527302908897397 3.1081624361375972 3.6922734455628827 1.943737725521389 -1.1330210938598171 2.2636633790269189 7.5290784309650292 1.5317156685250146 0.98139404995100843 -0.9903740621199284 -2.3020779741221462 2.095414588928223 3.4661749142636027 -1.0984697739283245 0.58513829272526963 3.7254648026920139 -1.0616904760018373 -0.90036346554756175 -3.6455704927444459 0.98305989687259387 -0.81371401178425762 2.2664573279294102 -1.3167598906017486 1.2181980333394475 -2.304504782668094 -1.7395006435258047 -1.3825478844432271 -2.1406287102699282 2.1510281734466554 -0.58450832512913919
leaf_weight=220 30 24 22 38 33 49 29 28 21 68 29 25 27 21 26 31 39 20 24 26 29 22 21 36 97 21 425 25 25 49
leaf_count=220 30 24 22 38 33 49 29 28 21 68 29 25 27 21 26 31 39 20 24 26 29 22 21 36 97 21 425 25 25 49
internal_value=-0.0556704 -0.537672 2.78793 4.1959 1.89286 0.896705 5.87399 3.30121 -0.911938 0.342736 -0.212656 0.613338 1.68362 0.637337 0.31513 -0.0730361 0.703757 1.59794 -1.21364 2.47454 -2.09606 1.44487 0.516514 -1.16104 -1.27553 0.12852 -1.09239 -1.1755 -0.286676 0.339659
internal_weight=1580 1351 229 89 140 82 51 58 948 403 249 335 73 46 262 195 116 77 79 57 53 67 43 699 642 57 545 524 99 74
internal_count=1580 1351 229 89 140 82 51 58 948 403 249 335 73 46 262 195 116 77 79 57 53 67 43 699 642 57 545 524 99 74
is_linear=0
shrinkage=0.05


Tree=26
num_leaves=31
num_cat=0
split_feature=2 14 14 15 4 23 26 29 28 34 25 11 35 14 27 14 33 33 34 30 33 33 16 32 26 33 30 31 26 1
split_gain=781772 162508 104616 76901.3 60262.7 56432.1 95541 83581.4 79566.7 71635.1 46305.9 45927.4 45792.6 70825.3 100366 77790.8 45770.5 63734.2 43505.1 43460.5 36696.8 56521.9 44027.7 56681.6 40751.5 35359.9 33135.2 33338.6 43701.4 36901.6
threshold=1.1900005513471814 0.53941447311903168 2.2119672329929636 1.3543177246934961 0.91399248929414001 0.9853166464722366 0.66429504325881561 0.35708271161503252 0.17142056358512633 1.0000000180025095e-35 -0.8487635874270375 -0.69192044816676124 0.18501550496102939 1.8381775244568448 0.11268545742970078 1.1354194604154284 -0.27589093580505003 -0.035478110418254639 -0.39805814329371009 -0.55464487906732807 0.7288777719247842 0.66279086209548776 0.7917515641567785 -0.40950373231054082 -0.58720183464719877 0.8397651897772872 1.0000000180025095e-35 0.20930031977080191 -0.51219979125071846 -0.30186159501395254
decision_type=2 2 2 2 2 2 2 2 2 2 2 2 2 2 2 2 2 2 2 2 2 2 2 2 2 2 2 2 2 2
left_child=1 4 12 -4 18 6 -3 8 -8 -9 -6 -12 13 14 15 -2 -14 -18 19 -1 21 22 23 24 -20 -22 27 29 -29 -13
right_child=2 5 3 -5 10 -7 7 9 -10 -11 11 26 16 -15 -16 -17 17 -19 20 -21 25 -23 -24 -25 -26 -27 -28 28 -30 -31
leaf_value=-0.19029257115119144 3.3139115786552433 -2.0659681237105167 6.9075080091303054 2.8542491264343264 0.89448674065726141 2.3015799522399902 1.3143652971833946 4.817916665758406 -1.8470577674753526 0.81916870406518383 -2.4063404613003438 0.19553265434045058 -0.23092761804655312 5.4226627599625363 4.8037974576155342 -0.68575228644955555 4.3087665376209072 0.78516797477548783 2.5767036628723146 1.9249199703335762 -2.8135179638862611 2.0376568219491413 0.76242419165723474 -1.0075191641717718 -0.61514077454805383 -1.0089236537615458 -1.9486928924918177 -1.1034714091391791 2.0513169402661533 -2.2624304803642068
leaf_weight=183 20 33 22 25 21 47 48 21 34 24 98 26 32 21 24 31 21 33 20 28 33 21 51 345 20 153 64 21 23 37
leaf_count=183 20 33 22 25 21 47 48 21 34 24 98 26 32 21 24 31 21 33 20 28 33 21 51 345 20 153 64 21 23 37
internal_value=-0.0528869 -0.510788 2.64853 4.75152 -0.744054 0.778373 0.330931 0.953747 0.00353134 2.68525 -1.3668 -1.54333 2.10545 2.85611 2.13748 0.882743 1.2675 2.15546 -0.532583 0.0903991 -0.737014 -0.496036 -0.618072 -0.800942 0.980781 -1.32909 -1.04874 -0.510455 0.545623 -1.24803
internal_weight=1580 1351 229 47 1144 207 160 127 82 45 290 269 182 96 75 51 86 54 854 211 643 457 436 385 40 186 171 107 44 63
internal_count=1580 1351 229 47 1144 207 160 127 82 45 290 269 182 96 75 51 86 54 854 211 643 457 436 385 40 186 171 107 44 63
is_linear=0
shrinkage=0.05


Tree=27
num_leaves=31
num_cat=0
split_feature=2 14 14 15 28 35 35 18 26 28 0 34 39 14 29 29 26 28 31 35 2 31 29 26 12 15 32 27 23 15
split_gain=705550 147192 97012.2 108879 90834.9 72124.6 69098.8 67935 61096.6 54486.3 52679.2 51725.2 37118.2 36889 67426.2 54479.8 136990 125856 64263.2 46465.5 43286.8 40412.3 33621.9 28152.3 22700.1 31726.4 29857.7 85809.6 35835.9 31069.2
threshold=1.1900005513471814 -0.0986957340749436 1.5317298157400794 0.90368490199975904 0.17142056358512633 0.33150403841844422 0.70991303419422469 0.90780979617191615 2.5353566920869617 -0.51090582589236233 1.6734277515244294 0.81247484042140805 -0.33279388990228148 0.15443043765250838 0.19057689170555067 0.30531395359856339 0.98345268340877567 0.46362032900483013 0.26275974264717133 -0.026789389127623315 0.53921206232210228 -0.036202827940919495 -0.30425518297336135 0.42492682115692881 -0.20987582525386642 0.39046418726522575 -0.40950373231054082 0.26199218839122035 0.66811750700703454 0.090042305469401354
decision_type=2 2 2 2 2 2 2 2 2 2 2 2 2 2 2 2 2 2 2 2 2 2 2 2 2 2 2 2 2 2
left_child=1 9 3 7 -5 8 -7 -2 10 22 -4 12 -3 14 -14 17 18 19 -17 21 -21 -15 -1 -13 26 -26 27 -11 29 -28
right_child=2 11 5 4 -6 6 -8 -9 -10 24 -12 23 13 15 -16 16 -18 -19 -20 20 -22 -23 -24 -25 25 -27 28 -29 -30 -31
leaf_value=-0.32913299308468902 4.6765097296900224 -1.1392167062594973 5.3972077006643469 -2.6351535569066589 1.7187929367721084 -0.35538463711738588 3.5221645664285735 1.0956604713430771 6.5150052642125802 2.338033255286839 2.2916387299696606 -1.7932687997817993 3.9674583657928135 0.37995081822077437 0.34233278734930633 -1.8727877502258008 3.9650137624319863 -2.6611073693713632 1.2371501181436624 -2.2082960368692874 0.75693944543600089 2.9974888341180215 1.7780908293667297 0.27388348653912548 0.57909715625833957 -1.6254907650947574 -1.1947180885170636 -1.5717154141929415 -2.197738519543782 0.15292391878493289
leaf_weight=192 27 29 22 23 25 20 27 26 23 23 36 40 23 30 29 26 34 37 46 20 32 29 21 28 47 25 475 36 82 47
leaf_count=192 27 29 22 23 25 20 27 26 23 23 36 40 23 30 29 26 34 37 46 20 32 29 21 28 47 25 475 36 82 47
internal_value=-0.0502425 -0.485249 2.5161 1.35757 -0.367473 3.43026 1.87214 2.91987 4.33435 -0.825526 3.46961 0.315205 0.570417 0.732441 1.94575 0.484046 1.34931 -0.13567 0.114117 0.706143 -0.383536 1.66654 -0.121379 -0.942088 -1.02958 -0.186385 -1.12115 -0.0475761 -1.22602 -1.07338
internal_weight=1580 1351 229 101 48 128 47 53 81 948 58 403 335 306 52 254 106 148 72 111 52 59 213 68 735 72 663 59 604 522
internal_count=1580 1351 229 101 48 128 47 53 81 948 58 403 335 306 52 254 106 148 72 111 52 59 213 68 735 72 663 59 604 522
is_linear=0
shrinkage=0.05


Tree=28
num_leaves=31
num_cat=0
split_feature=2 14 14 15 33 39 18 16 16 26 25 2 35 29 29 14 28 26 29 17 2 29 29 28 22 0 29 22 32 27
split_gain=636759 132841 88279.1 69059.2 49653.5 41826.5 44957.8 40879.2 53436.3 62045.6 44637.1 53266.7 45468.1 37330.7 107744 110900 117496 67890.6 47252.7 63969.7 43949.8 40237.5 28798.1 29974 20792.7 28083.6 37562.3 40460.7 35682 69684.8
threshold=1.1900005513471814 -0.0986957340749436 2.2119672329929636 1.3543177246934961 -0.12282670018606075 -0.33279388990228148 1.9685665429576322 -0.62704269708589078 2.3534549437369048 0.62304391736061104 1.3275811321981561 1.8936695259966763 0.19400834576496928 0.30531395359856339 0.19057689170555067 0.15443043765250838 0.46362032900483013 0.98345268340877567 0.041955825912163285 -0.4492264371026245 0.46929624733900338 -0.27825646789112857 0.73586356905407635 0.81165709694540478 0.72333945225046048 -0.31376755083199565 -0.12757842648903886 0.23152706108985438 -0.40950373231054082 0.44194818788804707
decision_type=2 2 2 2 2 2 2 2 2 2 2 2 2 2 2 2 2 2 2 2 2 2 2 2 2 2 2 2 2 2
left_child=1 4 7 -4 -1 -3 13 -2 9 -9 -11 12 -12 14 15 -7 18 22 19 -17 -21 -22 -15 -24 25 28 -27 -28 29 -6
right_child=2 5 3 -5 24 6 -8 8 -10 10 11 -13 -14 17 -16 16 -18 -19 -20 20 21 -23 23 -25 -26 26 27 -29 -30 -31
leaf_value=-0.23233086025505734 3.4548454984146009 -1.1744294690531354 6.3652282454750759 2.524191327393055 2.4711347937583925 4.0141755538569255 -1.2271738617760795 -1.2294728525306868 3.6918023308118189 0.1724482026170282 5.0233832036907025 0.44684592070786855 1.8087826674634759 1.7611502266781671 -2.5952360268296868 2.9391276693344119 -2.7685129271613231 3.1570225806699863 3.106600470542908 -2.250164026916027 2.0195975006868441 -0.72713352044423418 -1.0304593913695392 1.1786638012954167 -2.609166377782822 -1.8830387502908708 2.0087633905587374 -0.7827291321754456 -1.210553260422508 -1.3652583398695652
leaf_weight=285 34 43 22 25 20 22 35 23 24 34 22 23 22 35 29 20 27 36 20 20 24 30 34 28 20 20 27 25 522 29
leaf_count=285 34 43 22 25 20 22 35 23 24 34 22 23 22 35 29 20 27 36 20 20 24 30 34 28 20 20 27 25 522 29
internal_value=-0.0477304 -0.460986 2.3903 4.32212 -0.78425 0.299445 0.475491 1.89142 1.53225 1.11428 1.648 2.39679 3.41608 0.658855 0.212853 0.712452 0.197289 1.30271 0.899716 0.430166 -0.247932 0.493636 0.614507 -0.0327909 -1.0215 -0.972117 -0.041561 0.6667 -1.08945 0.200616
internal_weight=1580 1351 229 47 948 403 360 182 148 124 101 67 44 325 192 163 141 133 114 94 74 54 97 62 663 643 72 52 571 49
internal_count=1580 1351 229 47 948 403 360 182 148 124 101 67 44 325 192 163 141 133 114 94 74 54 97 62 663 643 72 52 571 49
is_linear=0
shrinkage=0.05


Tree=29
num_leaves=31
num_cat=0
split_feature=2 26 31 31 28 34 16 31 29 28 4 27 34 0 25 29 23 2 30 26 12 2 20 34 27 29 29 33 29 28
split_gain=576270 183953 77724.7 76364.7 84184 70338.6 63332.9 83367.3 62947.1 69837.1 51192.1 47473.9 46261.7 71732.3 44218 41283.5 71519.4 38591.4 30148.7 26748.1 74465.9 65702.7 31722.3 24734.4 46038.4 26712.9 67431.5 38406.2 42635.9 37820.2
threshold=1.5691005357764582 0.73929708915210102 0.64607796052957067 0.69351197395292596 0.59698796330477555 -0.39805814329371009 1.5455292786004062 0.23686332335161212 0.535873684278105 0.35818019900374998 0.91399248929414001 0.74904620186185011 1.0000000180025095e-35 1.1181838695403605 -0.8487635874270375 0.39142385065227059 0.53491428862928403 -0.57811956713728463 1.0000000180025095e-35 0.10656708580838313 0.14021746837418544 0.56242982345710035 1.0000000180025095e-35 -0.39805814329371009 -0.31273571896925562 -0.052953641238426906 1.0000000180025095e-35 0.15377304203087463 0.22834639383902153 0.23314154801814801
decision_type=2 2 2 2 2 2 2 2 2 2 2 2 2 2 2 2 2 2 2 2 2 2 2 2 2 2 2 2 2 2
left_child=1 6 5 4 8 -2 10 -8 9 12 11 19 -3 -14 -12 16 -7 -16 -13 22 -21 -22 23 24 -1 -25 -27 28 -28 -30
right_child=2 3 -4 -5 -6 15 7 -9 -10 -11 14 18 13 -15 17 -17 -18 -19 -20 20 21 -23 -24 25 -26 26 27 -29 29 -31
leaf_value=-0.16098391547631682 5.0073832103184301 2.5123302264139058 5.292860086210843 -1.3870181688555965 3.5479895089017717 4.0421604910067153 -0.85170207893526229 2.4826062240098654 3.3104049173268408 -2.211830795378912 0.96769687050864805 -0.89258349501356793 1.7696779350439709 -1.8567413520812988 -2.4638772198648162 0.53618370196046805 0.29403390198946 -1.0695354340896011 -2.6021390117917744 2.2650448865360686 -2.0970557233866525 1.0348052196430437 -2.1829798793792725 -1.0866433870645218 2.3691176128387452 2.520857712030411 -1.156405508518219 -0.8929298747998442 3.0590236186981201 0.054815755107186059
leaf_weight=178 21 32 29 27 38 35 37 38 22 21 21 98 30 25 66 38 20 200 35 36 34 33 25 162 20 20 24 173 20 22
leaf_count=178 21 32 29 27 38 35 37 38 22 21 21 98 30 25 66 38 20 200 35 36 34 33 25 162 20 20 24 173 20 22
internal_value=-0.0453439 -0.346571 2.98167 1.08113 1.4778 2.39374 -0.570728 0.837681 0.872668 0.376092 -0.661242 -0.472123 1.00076 0.121306 -1.24112 1.80356 2.67921 -1.4155 -1.34247 -0.317162 0.430974 -0.554497 -0.436818 -0.366294 0.0945819 -0.583048 -0.268058 -0.50144 0.524738 1.48539
internal_weight=1580 1437 143 195 168 114 1242 75 130 108 1167 880 87 55 287 93 55 266 133 747 103 67 644 619 198 421 259 239 66 42
internal_count=1580 1437 143 195 168 114 1242 75 130 108 1167 880 87 55 287 93 55 266 133 747 103 67 644 619 198 421 259 239 66 42
is_linear=0
shrinkage=0.05


Tree=30
num_leaves=31
num_cat=0
split_feature=26 11 27 1 33 30 23 29 22 28 11 22 23 13 29 27 22 23 22 31 33 22 26 29 11 2 32 1 35 35
split_gain=704171 121143 126177 84925.7 75174.4 73387.7 79226.8 66420.6 65517 62425.6 62555.7 54211.7 52227.1 52047.5 43774.3 43333.4 40118.2 36444.4 36023.1 31891.2 28199.3 25523.6 29751 39071.4 36164.2 43238.1 25570.4 35299.4 28883.1 41973.1
threshold=0.5142909652046731 1.7563632439319969 0.047591920316929194 1.001515846062806 -0.12282670018606075 1.0000000180025095e-35 0.059861565180838898 0.535873684278105 1.3743097892385512 0.28107701737862828 1.3958945975656778 1.3106824572917526 0.59133082202503695 -0.19767060158437624 0.048698352816358918 0.81338074746123146 0.48370637390434884 -0.55226983292742349 1.2811091903305645 0.26391352627626591 1.6574361321118263 1.1664007609053504 -0.089315921442029114 -0.087466152188130517 0.48625559733926166 0.46929624733900338 -0.40950373231054082 -1.0259601733899293 0.94396337512946704 1.2319707277929688
decision_type=2 2 2 2 2 2 2 2 2 2 2 2 2 2 2 2 2 2 2 2 2 2 2 2 2 2 2 2 2 2
left_child=4 3 18 5 13 12 -7 9 -4 10 17 -11 -2 16 -15 -9 -1 -5 -3 -16 21 22 24 -24 25 26 27 -6 -28 -30
right_child=1 2 8 7 20 6 -8 15 -10 11 -12 -13 -14 14 19 -17 -18 -19 -20 -21 -22 -23 23 -25 -26 -27 28 -29 29 -31
leaf_value=-0.16814902275800706 5.1937695610112158 0.12623890363253082 6.0089607244729999 1.4540020783742271 1.5154824600219727 -1.2985933792591096 3.0985761233738494 3.7902096982883373 2.5601267354119397 -2.7176551777741005 3.2134506594051011 0.53288309781447707 2.0032842983370243 2.1628073204647413 -1.350210764097131 0.72095995312151706 -2.3422511722730555 -1.4269658215667891 2.9487626126408579 1.3797779101133347 -2.1661108011007308 -2.5231632026888078 -1.6420935802459717 0.65220168677883017 -2.7427794327735899 1.3738117835738444 -1.1037219954018551 -1.3027381742000581 1.8598844210306806 -0.9005723020061851
leaf_weight=274 29 26 40 21 25 20 21 23 21 29 22 23 23 44 23 23 23 23 20 20 40 21 25 72 25 22 492 20 21 40
leaf_count=274 29 26 40 21 25 20 21 23 21 29 22 23 23 44 23 23 23 23 20 20 40 21 25 72 25 22 492 20 21 40
internal_value=-0.00689383 1.91699 3.33064 1.32842 -0.596862 2.53541 0.953615 0.643969 4.82166 0.0157123 1.03651 -1.27992 3.78259 -0.0214593 1.05407 2.25558 -0.336514 -0.0519584 1.35342 -0.0804486 -0.872023 -0.804181 -0.755531 0.0608885 -0.87831 -0.80313 -0.883218 0.26294 -0.976486 0.0497489
internal_weight=1551 364 107 257 1187 93 41 164 61 118 66 52 52 384 87 46 297 44 46 43 803 763 742 97 645 620 598 45 553 61
internal_count=1551 364 107 257 1187 93 41 164 61 118 66 52 52 384 87 46 297 44 46 43 803 763 742 97 645 620 598 45 553 61
is_linear=0
shrinkage=0.05


Tree=31
num_leaves=31
num_cat=0
split_feature=14 25 18 0 33 31 25 16 23 29 27 2 28 40 11 28 27 14 0 33 27 33 11 23 35 34 38 29 33 34
split_gain=618193 104445 114495 76394.7 65143.4 60544.8 71876.6 56142.1 78675.1 55801 54534.4 50465.7 38639.5 55381.1 46236.5 42369.2 37959 36450 34721.6 39439.7 33934 31798.1 44446.2 42293.6 28145.8 25997.4 24700 25704.3 24674.6 24082.4
threshold=0.53941447311903168 1.5950452775543338 0.90780979617191615 0.57852111114375782 0.1158040101009285 -0.20299112714194642 1.8385373123382982 0.17316811036595309 0.61449501568086629 0.54055915802762755 0.51914962695476763 1.5691005357764582 0.49823779846366573 1.0000000180025095e-35 0.08828853474020458 0.39321444327816096 0.724884621063551 2.2119672329929636 0.81003043658427132 -0.21923440939860941 0.23149653838095643 -0.25203034732903162 0.02417833924552364 1.0905443576163332 1.04406782350399 1.0000000180025095e-35 0.49299312573732396 0.35302578450734673 -0.30024657249551789 0.81247484042140805
decision_type=2 2 2 2 2 2 2 2 2 2 2 2 2 2 2 2 2 2 2 2 2 2 2 2 2 2 2 2 2 2
left_child=10 2 3 -2 28 -3 -7 -8 17 11 12 18 13 21 15 -15 -11 -9 -5 -20 -14 -1 -23 -24 29 -21 -22 -28 -4 -12
right_child=1 5 4 9 -6 6 7 8 -10 16 24 -13 20 14 -16 -17 -18 -19 19 25 26 22 23 -25 -26 -27 27 -29 -30 -31
leaf_value=-2.1654215145994118 4.2223640530197706 0.36033740138465709 -0.67129030454726457 -1.5508562570810318 -2.2347441291436554 5.6588525772094727 0.24272951945662499 3.2280295985085625 1.3747915953397751 4.4271986927304949 -1.7910573258721756 2.8659270325054726 2.1326893528302509 -0.22520201050387964 1.4169090279718726 -2.5321394193740119 1.4208949020930701 6.2105697631835941 -0.3692023785490739 3.1548670268058778 -0.86093666525114154 -1.1295067551172326 2.324425091743469 -0.92725080251693726 -0.4143353607281145 0.60548325300216677 2.0427466132424095 -0.37425313862887299 1.5633636317153772 -0.51683189968268084
leaf_weight=54 27 22 21 20 32 24 20 21 32 21 163 24 24 381 41 21 21 20 38 20 42 197 20 20 83 20 22 22 30 48
leaf_count=54 27 22 21 20 32 24 20 21 32 21 163 24 24 381 41 21 21 20 38 20 42 197 20 20 83 20 22 22 30 48
internal_value=-0.00654914 1.65045 1.08412 1.75789 -0.466361 2.76682 3.21932 2.58976 3.23279 1.35215 -0.607903 0.811004 -0.403618 -0.534585 -0.182582 -0.345714 2.92405 4.68293 0.307757 0.784325 0.470291 -1.07045 -0.820968 0.698587 -1.19435 1.88018 0.00636647 0.834247 0.643212 -1.50119
internal_weight=1551 413 274 191 83 139 117 93 73 164 1138 122 844 734 443 402 42 41 98 78 110 291 237 40 294 40 86 44 51 211
internal_count=1551 413 274 191 83 139 117 93 73 164 1138 122 844 734 443 402 42 41 98 78 110 291 237 40 294 40 86 44 51 211
is_linear=0
shrinkage=0.05


Tree=32
num_leaves=31
num_cat=0
split_feature=26 11 1 31 33 29 33 30 16 29 28 11 17 22 16 28 33 33 22 29 2 22 28 31 30 33 29 33 12 31
split_gain=577792 99691.5 75060.8 66797.2 100452 75117.4 64028 63935.2 65609 56293.6 57006.5 55645.7 49032.3 47353 34683.3 34322.7 25650.6 24242.5 24071.4 26475.5 44592.4 29656.7 37494.8 29107.4 28579.3 28458.8 32751.2 26510.9 42166.7 31924.8
threshold=0.5142909652046731 1.7563632439319969 1.001515846062806 0.16084068543514868 -0.35685361858823933 0.46587724151209003 -0.12282670018606075 1.0000000180025095e-35 0.12037605559991664 0.535873684278105 0.28107701737862828 1.3958945975656778 -1.1267648358319946 1.3106824572917526 1.6792317640480894 0.73941119794698074 0.30636700876646156 1.6574361321118263 1.1664007609053504 -0.15009157792322494 -0.083289043402090743 -0.12854986815273198 -0.25659119313990458 0.19814691777804527 -0.55464487906732807 1.1146323378345853 0.2709156612863714 0.43346676282518959 0.23569745754547233 0.38378061887090803
decision_type=2 2 2 2 2 2 2 2 2 2 2 2 2 2 2 2 2 2 2 2 2 2 2 2 2 2 2 2 2 2
left_child=6 2 7 4 -3 -5 12 16 -9 10 11 -4 -1 -12 -14 -11 -2 18 19 21 23 22 -8 -21 -25 26 -26 29 -29 -22
right_child=1 3 9 5 -6 -7 17 8 -10 15 13 -13 14 -15 -16 -17 -18 -19 -20 20 27 -23 -24 24 25 -27 -28 28 -30 -31
leaf_value=2.4007571482658387 4.4153884257039717 -0.83791672722859811 -0.070395260236480017 6.1781533846488372 3.6425578300295207 2.5062864673137666 -1.7066320657730103 -1.1886529042199254 2.8128116335187641 3.3504130641619363 -2.6011175747575432 3.0093887253241109 -0.26582404889645633 0.43684439399968022 1.7823010032827202 0.61626077890396125 2.1521522743361339 -1.9944429165124895 -2.4010352282297043 -0.34828967160046709 0.19705778653733433 -2.055115735352929 0.28102007313650484 0.57934549876621799 -0.75146307321695183 -0.10093159256754697 -2.1821803205001813 0.32482345779736838 -2.1192743630409239 2.4971815802834252
leaf_weight=20 31 22 44 26 29 30 46 20 21 24 29 22 342 23 22 22 21 40 21 198 48 67 49 21 65 37 104 60 25 22
leaf_count=20 31 22 44 26 29 30 46 20 21 24 29 22 342 23 22 22 21 40 21 198 48 67 49 21 65 37 104 60 25 22
internal_value=-0.00622168 1.73649 1.20257 3.01888 1.7098 4.21108 -0.540632 2.33729 0.860878 0.559096 -0.0192867 0.956199 -0.00959911 -1.2574 -0.142036 2.04278 3.50139 -0.794576 -0.731673 -0.684427 -0.526581 -1.24955 -0.681422 -0.791345 -1.1778 -1.35692 -1.6319 0.199383 -0.394029 0.919954
internal_weight=1551 364 257 107 51 56 1187 93 41 164 118 66 384 52 364 46 52 803 763 742 580 162 95 425 227 206 169 155 85 70
internal_count=1551 364 257 107 51 56 1187 93 41 164 118 66 384 52 364 46 52 803 763 742 580 162 95 425 227 206 169 155 85 70
is_linear=0
shrinkage=0.05


Tree=33
num_leaves=31
num_cat=0
split_feature=26 11 27 1 29 33 29 28 11 22 28 33 0 27 17 35 23 27 33 29 27 31 33 25 28 22 14 2 2 28
split_gain=521457 90127.4 100113 73455.1 67448.7 58168.9 54705 59828.8 54685.9 53818 53374.8 66338.9 44050.6 57318 51560.9 47183.3 32931 32909.5 25031.8 24931.4 50683.7 41057.7 24991.7 39460.1 60573.7 23046 23029.5 28253.9 34142 21738.1
threshold=0.5142909652046731 1.7237033330196125 0.047591920316929194 1.001515846062806 0.90356934259550614 -0.076293585463050873 0.535873684278105 0.28107701737862828 1.3958945975656778 1.3106824572917526 -0.17038398135717156 0.40715574840276803 0.62078576237490635 0.053564536081171454 0.60036136087959535 0.21578047193501879 -0.55226983292742349 0.81338074746123146 -0.30024657249551789 -0.15009157792322494 0.51914962695476763 0.51031407976403542 0.14597627920356146 -0.70035196153616741 -0.0053248560555711165 1.2811091903305645 0.5995648021854133 0.22000075811007891 -0.019083800672350448 0.63161609801235996
decision_type=2 2 2 2 2 2 2 2 2 2 2 2 2 2 2 2 2 2 2 2 2 2 2 2 2 2 2 2 2 2
left_child=5 3 25 10 -4 12 7 8 16 -9 -2 -12 13 15 -14 -1 -5 -8 -15 22 21 -21 -7 24 -24 -3 27 28 29 -22
right_child=1 2 4 6 -6 19 17 9 -10 -11 11 -13 14 18 -16 -17 -18 -19 -20 20 26 -23 23 -25 -26 -27 -28 -29 -30 -31
leaf_value=-0.084658228354778334 0.65524298620946486 0.1957102234874453 5.4315678003506784 1.3646544456481935 2.0626589427391688 -2.1591621735901163 3.2780071818310286 -2.8491922795772555 3.08636011838913 0.41500215776588611 4.5447973837171283 1.0880284413047459 3.0363943958034119 -2.8513173051502396 -0.20814223289489747 2.3788778248287383 -1.3739244698830273 0.60326533732206933 -0.83827965386370407 -0.37993355552647629 -1.9796477841294331 1.5296582029711816 -1.2258010952813285 -1.8949295481856989 2.1709400954700651 2.3868841398329965 0.5280610030889511 -2.6501580007614631 0.70255407142639159 -0.89783218482010807
leaf_weight=261 33 28 39 21 24 57 23 28 20 23 35 23 24 23 25 21 23 23 47 306 69 31 35 49 21 21 20 31 25 142
leaf_count=261 33 28 39 21 24 57 23 28 20 23 35 23 24 23 25 21 23 23 47 306 69 31 35 49 21 21 20 31 25 142
internal_value=-0.00591059 1.64966 2.82982 1.12515 4.14817 -0.513601 0.483364 -0.0995448 0.918511 -1.3771 2.26061 3.17401 -0.0235633 -0.219088 1.38102 0.0987966 -0.0668754 1.94064 -1.49971 -0.763607 -0.620125 -0.204274 -1.31628 -0.858713 0.0479769 1.13478 -1.10842 -1.23101 -1.04459 -1.2516
internal_weight=1551 364 112 252 63 1187 161 115 64 51 91 58 401 352 49 282 44 46 70 786 624 337 162 105 56 49 287 267 236 211
internal_count=1551 364 112 252 63 1187 161 115 64 51 91 58 401 352 49 282 44 46 70 786 624 337 162 105 56 49 287 267 236 211
is_linear=0
shrinkage=0.05


Tree=34
num_leaves=31
num_cat=0
split_feature=26 11 27 1 33 27 31 34 29 27 16 13 22 25 0 27 17 35 16 27 33 29 27 31 31 36 22 27 34 35
split_gain=470615 81340 90533.1 66293.3 52497.4 52188 51039.9 57067.9 49371.3 55624.1 48703.6 46181 45498.6 40947.6 39755.7 51729.5 46533.7 42583 30424.2 29700.8 22591.2 22500.6 45742.1 37054.5 24460.5 24061.2 29762.2 33185.6 21620.9 25911.2
threshold=0.5142909652046731 1.7237033330196125 0.18803457607278898 1.001515846062806 -0.076293585463050873 0.68179312024284366 -0.20299112714194642 0.40896384584970197 0.535873684278105 0.26199218839122035 0.30963502720765862 1.7332486995710996 1.2578090406035678 1.0945937248551014 0.62078576237490635 0.053564536081171454 0.60036136087959535 0.21578047193501879 0.76537925597638268 0.81338074746123146 -0.30024657249551789 -0.15009157792322494 0.51914962695476763 0.51031407976403542 -0.45964765836398236 1.0000000180025095e-35 -0.12854986815273198 -0.055054202715800298 0.40896384584970197 -0.56943594532558406
decision_type=2 2 2 2 2 2 2 2 2 2 2 2 2 2 2 2 2 2 2 2 2 2 2 2 2 2 2 2 2 2
left_child=4 3 10 6 14 -4 -2 18 9 12 -3 -12 -5 -14 15 17 -16 28 -8 -10 -17 24 23 -23 -6 -26 27 -27 29 -1
right_child=1 2 5 8 21 -7 7 -9 19 -11 11 -13 13 -15 16 20 -18 -19 -20 -21 -22 22 -24 -25 25 26 -28 -29 -30 -31
leaf_value=-0.13089398100785912 -0.014359986214410692 -0.50159995158513382 5.7940487137547247 -1.148594826211532 0.15470222486899451 2.4242221820354466 2.6495219987014247 0.5388739532232284 3.1141068620445291 -1.6911782127779884 4.0449039795181969 0.80519974881952461 0.23636889162162944 3.0072305500507355 2.8845746914545698 -2.7087514206119208 -0.19773508071899415 2.2599339519228256 5.1484640010765625 0.5731020844500998 -0.79636562707576353 -0.36093686499292021 -1.0530028178924469 1.4531753378529704 -2.4493533611297611 -1.3989671668698711 -2.1834364945547922 1.0775425146023432 -1.3675837894965863 1.4014905855059625
leaf_weight=200 21 21 27 24 26 20 29 20 23 37 22 22 30 24 24 23 25 21 21 23 47 306 287 31 46 31 35 24 29 32
leaf_count=200 21 21 27 24 26 20 29 20 23 37 22 22 30 24 24 23 25 21 21 23 47 306 287 31 46 31 35 24 29 32
internal_value=-0.00561507 1.56718 2.68833 1.06889 -0.487921 4.36008 2.14758 2.79616 0.459196 -0.0945676 1.47952 2.42505 0.662799 1.46786 -0.0223852 -0.208133 1.31197 0.0938567 3.69908 1.8436 -1.42472 -0.725427 -0.589119 -0.19406 -1.25046 -1.5191 -1.04364 -0.318308 -0.0804254 0.0804694
internal_weight=1551 364 112 252 1187 47 91 70 161 115 65 44 78 54 401 352 49 282 50 46 70 786 624 337 162 136 90 55 261 232
internal_count=1551 364 112 252 1187 47 91 70 161 115 65 44 78 54 401 352 49 282 50 46 70 786 624 337 162 136 90 55 261 232
is_linear=0
shrinkage=0.05


Tree=35
num_leaves=31
num_cat=0
split_feature=14 14 23 29 35 12 29 25 35 29 12 23 33 16 24 28 31 1 22 27 28 29 14 33 4 17 38 35 27 28
split_gain=474736 77244.9 77754 72452.8 88747.1 78965.9 78099.1 69365.4 60831.9 85558.5 57091.5 52233.1 49964.7 56130.1 44448.5 54122.4 44227.2 43860.7 66913.9 43564.9 40590.4 34878.2 46602.3 46874.4 31773.8 32006.8 29599.1 65518.5 56707 27203.7
threshold=0.53941447311903168 1.4154648337689828 1.5036651294898722 0.39142385065227059 0.11804256540730117 1.8588572734573492 -0.12437858643030975 1.1277237226144468 0.0079986716738711088 0.29611437481903985 2.2089505670854011 0.72174427308136746 0.40287371062075455 1.459054239420966 0.84574596394827772 0.49823779846366573 1.3187437368642818 1.001515846062806 1.2578090406035678 0.022138206928502015 0.62440125215640807 0.70643644430119845 0.26538414304399055 -0.62565660192432537 1.1134626658570257 0.64534694268820092 1.0815966859078914 0.47988581235323186 0.12726012827745409 0.85917799239758053
decision_type=2 2 2 2 2 2 2 2 2 2 2 2 2 2 2 2 2 2 2 2 2 2 2 2 2 2 2 2 2 2
left_child=12 2 7 6 -5 -6 -3 8 17 -10 19 -9 13 14 15 21 24 -2 -19 -8 -17 22 23 -1 25 26 28 -28 -14 -30
right_child=1 3 -4 4 5 -7 10 11 9 -11 -12 -13 16 -15 -16 20 -18 18 -20 -21 -22 -23 -24 -25 -26 -27 27 -29 29 -31
leaf_value=0.044790277566876591 4.0943999448702453 0.70888298729864463 3.8306134271621701 -1.5320923162543256 4.2626586675643923 0.5609152106677785 4.4627917324503263 -3.0540413379669191 -1.3775563074783845 1.6316500820365609 5.7335149835657191 0.29152296015194484 1.1621765104929607 1.9989508868091637 -1.1667152755842434 2.8399739540815356 1.3325166834961801 -0.76209273494425278 3.0011056366893984 1.5597364800316948 0.15107891474617646 1.3773713309189368 1.9444512903690339 -1.0183807163100158 -1.6383787783873931 -2.3365700397640468 -0.77851573757472492 2.5897459918802439 -1.5227529971064002 -0.055925962983108146
leaf_weight=193 21 26 20 23 25 34 24 20 44 51 27 28 30 27 127 25 21 21 27 28 32 29 20 224 140 28 42 22 138 41
leaf_count=193 21 26 20 23 25 34 24 20 44 51 27 28 30 27 127 25 21 21 27 28 32 29 20 224 140 28 42 22 138 41
internal_value=0.0209286 1.45995 0.850449 2.21612 1.10243 2.12945 3.08586 0.569301 1.0586 0.237912 3.86816 -1.10246 -0.508439 -0.23487 -0.32766 -0.123912 -0.909318 2.18853 1.35471 2.89961 1.33042 -0.301802 -0.413235 -0.526314 -1.01607 -0.726627 -0.561505 0.379324 -0.849606 -1.18678
internal_weight=1558 419 232 187 82 59 105 212 164 95 79 48 1139 677 650 523 462 69 48 52 57 466 437 417 441 301 273 64 209 179
internal_count=1558 419 232 187 82 59 105 212 164 95 79 48 1139 677 650 523 462 69 48 52 57 466 437 417 441 301 273 64 209 179
is_linear=0
shrinkage=0.05


Tree=36
num_leaves=31
num_cat=0
split_feature=14 14 15 17 23 25 34 36 12 33 14 2 0 24 33 28 29 14 14 11 28 31 0 11 35 23 36 26 12 28
split_gain=428449 69713.5 77359.8 92151.8 70173 63874 60638.9 58369.9 86765.9 58322.3 48525.2 92278.6 45802 41194.1 45590.5 64781.1 45338.6 40489.9 50067.7 50437.6 35747.7 34050.9 36532.3 52840.8 31837.4 32981.4 42272.8 29357.7 28871.2 31234.7
threshold=0.53941447311903168 1.4154648337689828 1.4419407735506111 -0.88309277467421166 1.5036651294898722 0.97500251217808998 -0.39805814329371009 1.0000000180025095e-35 0.90405738174448047 0.23285460243002556 2.3219532491944368 1.8605261821076102 0.57852111114375782 0.84574596394827772 0.40287371062075455 0.49823779846366573 0.70643644430119845 -0.51831844104677482 -0.35228376461930172 -0.42096415022697781 0.61825857356180369 1.0360625807334312 -0.054186932584339841 -0.32903254914026553 0.75345728969046277 0.33633995470973027 0.84210435108429993 1.6157837702879465 1.4132839906580104 0.015294936635064147
decision_type=2 2 2 2 2 2 2 2 2 2 2 2 2 2 2 2 2 2 2 2 2 2 2 2 2 2 2 2 2 2
left_child=12 4 3 -3 5 7 -5 9 -9 -2 11 27 13 14 15 16 24 -15 19 -19 -17 22 23 -16 25 26 -1 -8 29 -7
